[[[-0.12645330222732706, -0.27822392747689756, 0.25904018743890406], [-0.5098873701524135, 0.18372930775393606, -0.5157025430124605], [0.5084080940873302, 0.8033136566655994, 0.5704294425967733]], [[0.34955477511032573, 0.6176316987107778, 0.22281295771491727], [-1.3695166934385443, -0.9820357228752021, -0.7846742830486816], [-0.5107616642789087, -0.8032208620550357, -0.34360025449578496]], [[-0.39951770074406057, -0.6091358746131693, -0.5641226329520048], [-0.1051321797966666, 0.9972806088164975, -0.17697727793271428], [-0.6348665472652758, 1.1022850699232887, 0.28978220862642506]], [[-0.2770952640395966, -0.9530916034642493, -0.06479161078631852], [-0.27997157159087144, -0.9107421861671945, -0.13560006226265298], [-0.1302628281054264, 0.6795330284025799, 0.2752753271078888]], [[0.4314849119414745, -0.8460082083588408, 0.11322801522063419], [-0.3042135094511446, 1.0322404190646566, -0.41209996081421946], [-0.10482177849400001, -0.5285968421138854, -0.15500579535005282]], [[-0.08122552137057727, -0.7990460519327103, -0.5548233695670631], [-0.23383610539030497, 0.7320964143249703, 0.08378647750755287], [0.09206593195566852, -0.7996382735394602, -0.12385014779064571]]]