[[[0.0589902244333888, -0.6102684999193457, -0.37102753490437523], [-0.35395009053564147, -0.3962677941148597, -0.4034968160403506], [-0.43957447896436125, 0.09315977050401394, -0.37088948693425633]], [[-0.09098789937581861, -0.8916236050458218, -0.26430752368967114], [-0.12848233921635177, 1.045511412156992, 0.0804994260582948], [0.2574120010782892, 0.6380677847564227, 0.23379655394094628]], [[0.369581398874698, -0.8717222281696185, 0.30402047015975503], [0.5874169022241753, -0.7389719789689198, 0.46394273508892403], [0.20989248145525755, -0.9584000580885486, -1.0168921603968588]], [[-0.07606380258780315, 0.5156967886274354, 0.19018794418765075], [0.3927568563185384, 0.7791683281712929, 0.46098431996527756], [-0.07961279810522559, -0.6170520599003833, -0.04502354815380431]], [[-0.533595439169319, 0.47199621218995863, 0.08828464283228332], [0.6376652729282735, 0.3387458608048331, 0.5136502182703421], [0.7508824594273144, -0.8764830556551269, 0.48410149399300456]], [[0.2678523149745302, 0.6746542464626318, 0.42601646088938155], [0.10980443323297505, -0.6743454822879149, -0.1277912323671749], [0.05519947884101261, 0.19084726541652997, 0.12046590203841735]]]