[[[-0.15241310486375736, -0.6692891781684258, -0.07680665927212263], [-0.18054568007015526, 0.5690843397022213, 0.2225284673551747], [-0.2882055061504229, 0.8752525841811204, -0.4824467353381611]], [[-0.2520023383674477, -0.05334866642578402, -0.2750226465277883], [-0.21178738511204356, -0.10225106863946143, -0.006537298299184812], [0.03353516300230386, 0.01438983656128937, 0.11005841102895984]], [[0.031466691191170786, 0.0018547481464283831, 0.04210436981304999], [0.29878698706547013, 0.42761530306385476, 0.5718918455806139], [-0.24988571458500336, -0.026279214110904857, 0.92175507415835]], [[-0.05546888179437767, 0.002995021052927538, 0.012985488348082714], [-0.01066629872937604, -0.09229701298600225, 0.02863206250514429], [0.00318604188835149, -0.06945881826883483, 0.011165684750942739]], [[-1.1868178332146426, -0.04317342786178229, -1.2296431303519189], [0.37730409720793606, 0.3511120491798873, 0.22575374296246004], [0.09295002031694868, -0.2375857064554018, 0.05553895318900947]], [[-0.032237915515054075, 0.33546331695002507, -0.06363279467793662], [0.18591721970722344, -0.040893710852208096, 0.2089934400685261], [0.1715513535709866, 0.0005262558981399545, 0.19076290852536873]]]