[[[-0.516825485298964, 0.12935353163587787, -0.3863406062225921], [0.20340776709412153, -0.851049214677702, 0.4821682669577328], [0.3895550002085702, 0.31584292956898424, 0.8106648659529041]], [[-0.05148955853180271, -0.03704182877441463, -0.21471623934863557], [0.024527113464205275, -0.01755010221095006, 0.03921121562291538], [0.10262182390922497, -0.2445991218875381, 0.0745450299723251]], [[-0.12402509126477726, -0.550320029215169, -0.15296050405359538], [0.4801595030365361, 0.07987171186966545, 0.45511218384826035], [-0.5200957761379275, -0.6709846689168589, -0.22881634924921773]], [[-0.12946713825073686, 0.34816941863757983, -0.06796843133301508], [-0.10331228702113716, -0.15863345401059617, -0.039493534607306], [0.03575547558616171, 0.08552979331008799, -0.12919130365582412]], [[0.4366708147285877, -0.07853971270241572, 0.31905189782374077], [0.3232964472111569, 0.190228601428622, 0.2872419170659906], [0.06819277619639769, 0.05965384840344554, 0.09579786784856317]], [[-0.08856590791127898, -0.1584292408181667, 0.07465709746646493], [-0.09470737916296115, 0.0037403243676261866, -0.11790251243441084], [0.10280170560213825, 0.22018353875315272, 0.06880430479987201]]]