[[[-0.5710521305117864, 0.6045044971209558, 0.9601626451261616], [-0.6557757484302577, 0.5226904801550258, 0.8540663245741985], [0.7884376830439661, -0.49952676290321346, -0.9037505110178692], [0.7813220260325126, -0.4983927717478908, -0.9138411398717147], [-0.791662172390231, -0.07626878613631131, -0.541118737314317], [0.6054127250701107, -0.38145231082588643, -0.4748216669834265], [-0.7534565605512845, 0.4698935906888829, 0.7291132208939539], [0.6159195827304615, 0.7368204492498479, 0.8417881030649267]], [[-0.3242233710797354, -0.7535404630802227, -0.8172831689187531], [0.30241460908814, -0.35566309236194243, -0.10128888653249855], [-0.2825733986582762, 0.20416805343420505, 0.37143465926156316], [0.04845292838448199, 0.49811128002480576, 0.2945847363439757], [0.013828288755239013, -0.12566140303261764, 0.2500054981859485], [-0.003168287097678914, -0.06871257680203902, -0.27112590821625976], [0.02037221686803769, 0.03814680299793292, 0.05960488987820872], [0.634931413294401, -0.32838807855110025, -0.19747390711089033]], [[-0.24413922478604225, 1.043924075875558, 0.8374597916166776], [-0.7940143002790669, 0.3967139003920478, 0.045546351877560676], [0.8557297655218727, -0.14678237545739783, -0.30016666638367845], [0.739313101461054, -0.5934174925001621, -0.06804468553451935], [-0.8588154823974337, 0.05367947767111475, -0.3360296381033578], [0.7891987896179914, -0.07244564011830398, -0.12960239779382787], [-0.7985723776629842, 0.15025963104587794, 0.24778944506453837], [0.5023147137062667, 0.09788522194595034, -0.1596240560603026]], [[0.014917373431652128, 0.6213078070217106, 0.8295338523182583], [0.5673998762800359, 0.16396460130193122, 0.25813477938237595], [-0.07949226475237557, 0.21781524147565515, 0.3144542467731273], [0.02935335292477352, -0.06940367874439281, -0.23062871319520029], [0.0351308897414644, 0.6016467880425926, 0.590959647926391], [0.003012011984750665, 0.17066338743307172, 0.001174746732393134], [0.001128504872259764, -0.11186425700463218, -0.08784105640387416], [0.32695447653395626, 0.1635236695452935, 0.21388760552723105]], [[0.0722367991968824, 0.032496901793016036, 0.8037011346450623], [-0.7153307631749003, 0.05444524822448648, 0.14219820912822667], [0.9101302206535217, 0.20773191180801406, 0.2829312424951653], [0.6837873920045293, -0.42922837746614606, -0.3294400167345674], [-0.8907786395171325, -0.5202715302708847, 0.1476472031307482], [0.7535884236000663, 0.24475127417582004, 0.22773360227542555], [-0.8645376893974837, 0.23372278464677712, 0.09704376957532365], [0.6320659749895808, -0.02535029510774178, 0.12380017591504784]]]