[[[-0.6180167231545827, -0.33334488112587685, -0.44549256480992144], [0.7966250130849523, -0.558565052253581, -0.7337050635189265], [0.7989373893996311, -0.2786381791088998, -0.7688554737793372], [-0.7161308536173774, -0.8161150004831795, -1.0205680849262542], [-0.6957504061679736, -0.016670512802292828, -0.3477914283782282], [0.6633713247417947, -0.003328237581295581, 0.29406291130443984], [-0.7653747261567599, 0.021746884414269634, -0.2759037369127512], [-0.5206648876432359, 0.19922183661755224, 0.4069684437858093]], [[-0.6122545709936367, 0.29715535325592257, 0.31515672703958003], [-0.08826419811890135, 0.3122322731398248, -0.07786142607742515], [-0.021836811938085728, 0.7758465119419988, 0.6571001998969183], [0.07133222448986304, 0.9187235413788595, 0.9009394422830099], [0.4285164377309743, 0.17937335941853383, 0.1784871499916994], [-0.2609839955113472, -0.3275568457541506, -0.22318918255029227], [0.14992665522206425, 0.19445875844808916, 0.26395710758408863], [-0.4758396412302185, -0.6212997924992093, -0.4990027893112305]], [[-0.5755630220149556, -0.19312615313248369, -0.18790272575590508], [0.7854253061365124, -0.28295281765981445, 0.13945901553702383], [0.8395463050728348, -0.572573097904264, -0.05595536702626422], [-0.6452169849236917, 0.18712708307527076, 0.5320448913339206], [-0.6726502512212285, 0.25861813524804167, 0.22462123483263832], [0.6043577978033609, -0.16216583535477933, -0.2493776842514896], [-0.7610784630336468, 0.5287946585026476, 0.3517023047704219], [-0.6900803409414313, -0.13050078775716525, -0.432674010779024]], [[-0.42390294515125554, 0.044810095164549285, 0.01315950647461436], [0.03412366421388128, 0.2803221049458367, -0.0319653651203965], [-0.0012234056039886888, -0.18611907279903347, -0.22329793130628026], [0.18433947589185767, 0.3583448756885129, 0.281860647868922], [0.2766663165548481, 0.20374681593228985, 0.11172712620820395], [-0.13754059951148984, -0.26959799398049555, -0.11399605395622835], [-0.04174177706293223, 0.17280592570595274, 0.316880644114877], [-0.5932267584224632, -0.2771991022390195, -0.26881807738765306]], [[-0.5302889491247942, 0.009288773658851808, 0.002008913163026738], [0.8275390218931681, -0.34229895097103746, 0.15066297287111882], [0.7030072959573287, -0.810123265620031, -0.5735248298920532], [-0.6146333159078669, 0.3568456978071223, 0.32818219703460705], [-0.72144496510314, 0.8830102736870283, 0.44046178783928147], [0.5775214604668086, -0.270353814707561, -0.33843199202938684], [-0.7190191007043799, 0.39400297763955866, 0.3045566087507182], [-0.609361658673451, 0.025836560749782776, -0.17439593927521949]]]