[[[0.43514762046343286, -0.33495937859324804, -0.4493779804790286], [-0.3796963718265835, 0.00830966658178655, 0.06878534750535188], [0.133232433602852, -0.5022374737886883, -0.9294612130421787], [-0.08400172553190226, -0.2828094811341191, -0.18653651719346317], [-0.4982657224609662, 0.12585510890453105, 0.2766757082118331], [-0.21905605960910124, 0.3267432344028097, 0.7363478707962449], [-0.10659493814959833, 0.03158162585821266, 0.35557861137131225], [-0.39840823217120336, -0.6811776030438633, -0.9524566934952401]], [[0.08496607508282496, -0.007243295946113299, -0.0886193778820167], [-0.02806470320219666, -0.08423447925339625, -0.07603534429635726], [0.05344134489745349, 0.022873830873863805, -0.070374926913856], [0.28644234597573615, -0.31198285750903065, -0.4410337331218128], [0.6311323746235387, -0.06846677756789796, 0.1360513324319759], [0.1568245140835773, 0.19446291445447678, 0.1220519037154934], [0.21292585209261966, -0.39514773769748907, -0.44769204796609935], [-0.8880868546023573, -0.4159636381613753, -0.5443362195000297]], [[0.10748301226834955, -0.238221903919277, -0.17584184818616266], [-0.28998901108209285, -0.21966469879241685, -0.10448892547771187], [0.022167610663960436, 0.1220461701740255, 0.07320911718097078], [-0.0362948601378955, -0.00816531752854006, -0.05674848537492051], [-0.16932134668144821, -0.23729503061931423, -0.24835559675163932], [-0.10224432695950529, 0.355994268449565, 0.46708649045219836], [-0.21314466993528028, -0.0033574736111083034, -0.10310271738012461], [-0.6348947125741222, -0.24600158065806424, -0.2507556768377659]], [[0.05535707629691012, -0.24513658573039113, -0.21567979738519436], [0.04560630800634414, -0.19351674223613885, -0.1604363373277027], [-0.3338427265799894, 0.19882578665114098, 0.18105451435196857], [1.208828205081587, 0.05831746735098577, 0.14520654726769483], [0.284067314528179, -0.2406680225168936, -0.21706975236523823], [0.41066299417573815, -0.3488090701442649, -0.5537760532241608], [-0.19622210055042744, 0.10654770622191834, 0.0625409307047371], [0.1091477905317958, -0.08526802512451173, -0.06871899056476309]], [[0.010415807710809489, 0.012598617506831306, -0.2366190333387805], [-0.1079190457344338, -0.8364898995405239, -0.3446386639429838], [-0.17935297794027338, 0.5835547114913506, 0.2734590750579027], [-0.09145947629775956, -0.43553540599698215, -0.0956201766969775], [-0.21538487407475018, -1.2269801475366826, -0.6851125176985183], [0.04950475883310654, 0.6571154233560963, 0.2671540257094113], [-0.32253105388013315, -1.521720145947157, -0.49559190571279377], [-0.14462093707299484, 0.035352214730955435, -0.0770262867036759]]]