[[[-0.5397540614426448, -0.31520823243353824, -0.5932697195436356], [-0.13553249733805045, -0.18354386616954774, -0.3695482078530655], [-0.4519906729141558, 0.7338536328114249, 1.2550086845366755], [-0.3426392231035931, 0.568378627336603, 1.1147467748879671], [0.40194678767243636, -0.4387201219042048, -0.6347161430248707], [0.004436374184163595, -0.48552002658505766, -0.29482205067080247], [0.29188862480052813, -0.3171382778665717, -0.9614210595085226], [0.28796628628060833, -0.15339511455675278, -0.016020528405950023]], [[-0.2523075768013294, 0.3942523661636466, 0.2664658514833125], [0.04380773855904984, 0.0012983384047755865, 0.11614337775825406], [0.2170118233383863, -0.07285442258724464, 0.11466412437002799], [0.002484211408763278, 0.12759343992045027, 0.10636885422679737], [-0.037586137567850834, -0.1590634361666742, -0.22660286935805596], [-0.11709598905878589, -0.23056170863358186, -0.4443630533185622], [-0.10650239097125568, 0.3274597205814905, 0.3396087449857036], [0.19783398619072526, -0.2664708463595301, -0.2432949265061542]], [[-0.3933550140511142, 0.1653118550292014, 0.28924570173824493], [-0.3293581192361759, 0.30101094389792205, 0.02775233092283614], [-0.12615715313352227, -0.016581172362530268, -0.11969589997799297], [-0.23470007202464999, 0.27966047260693816, 0.15929219098053235], [0.09312507522043244, -0.18672956441550573, -0.11596372748960423], [-0.04403733048042205, 0.032003296842861156, 0.04571268541209613], [0.14407778701549184, -0.3164090936827175, -0.12390952730517052], [0.3086500734636259, -0.3129551649169984, -0.29269406003446075]], [[0.16399014025547376, 0.22661974578754793, 0.053889762101845026], [0.414614432870544, 0.3080274171134009, 0.3050712974248119], [0.3018501959800758, 0.17012104882008788, 0.18006523027526944], [-0.5072615824997698, 0.2705900459887135, 0.2147170523782764], [-0.03708108409195196, -0.1554379208722861, -0.12701137435971546], [-0.8437273542761585, -0.29625581853655275, -0.1043127487150797], [-0.11339974583856499, -0.07036837134391179, -0.08603610890776454], [0.1929672019214335, -0.13741635058519608, -0.24252222007155186]], [[-0.06547715907480618, 0.038591829113334475, 0.28974250249168665], [-0.14284140465054976, 1.3727303118888967, 0.6712881119432578], [-0.11072079804907778, 0.0044306848277021384, 0.09472238573447], [-0.11867251137109294, 0.19136814159934357, 0.14001131561291047], [0.16533282783123568, -0.9534300377666821, -0.5343732541210975], [0.19963329552859588, -0.7897142465037558, -0.47117412843669376], [0.0899156057262497, 1.0574920407955088, 0.2036122080444865], [0.24868886138711285, -0.04995840992658098, -0.1784504904449765]]]