[[[-0.6679063310739999, 0.5581207168812947, 0.43935415990921917], [-0.7118235091469473, 0.30866498880579896, 0.36529500010201943], [0.6723888944617228, -0.38445013461188476, -0.5370479007703373], [0.42586822127463936, -0.11424584484642863, 0.06671026018602629], [1.0818470816850816, -0.2390651259042553, 0.7313847392009905], [-0.44156507858142424, 0.7214332136499242, 1.1397706071890117], [0.2774890387804367, -0.9728636575648436, -0.67678553168876], [0.01041916025028811, 0.2604060742753849, 0.6559752500702584]], [[-0.5990066022250685, 0.3485229383168554, 0.4719686219503888], [0.028731603695747336, 0.09629063953316494, 0.25780189852496693], [0.24829906163194243, -0.3150226212670379, -0.2735671355350114], [-0.066546394636476, -0.3409973263794719, -0.24973322541256493], [-0.45573765422718976, -0.1317950083975645, -0.3518797175727764], [0.06833169740357893, 0.40436012621428935, 0.4011921922137146], [0.554423670159905, -0.6778092887527009, -0.9300696250432139], [0.12257183360119182, -0.34581863491779374, -0.24996511512987338]], [[-0.6476282906557655, 0.12467603429714642, 0.05945688202313933], [-0.6710342668163303, -0.37810890241851763, -0.32892172106797385], [0.36176025102867043, -0.10847335031731653, -0.20264497915805485], [-0.08055517848416358, -0.47792114500778815, -0.3251266291117345], [0.4252107514601748, 0.19263484338960238, 0.11573428567280646], [-0.35657992292183444, 0.2985016873405929, 0.26813788163748387], [-0.34329761076038023, -0.498668697960789, -0.5231646856128521], [0.4615686498918153, -0.42471553992822103, -0.46133229143586485]], [[-0.6666164753133421, 0.48037746012568205, 0.4465948321835416], [-0.25284024831940993, 0.014920279881052287, -0.08056010435435547], [0.09330098279264944, -0.13521570847192602, -0.1391771858636499], [0.23519221563327888, -0.2813314326404547, -0.47233181004468766], [-0.4885793285229905, -0.038008366034704026, -0.0827905974371954], [0.044533431464748675, 0.34953660778508217, 0.3620185055263879], [0.35841073354175357, 0.19369378178581706, -0.3718294443760992], [0.11890332280399711, 0.08190191974833232, 0.009619303123859349]], [[-0.5055360138985534, -0.10869989524228298, 0.048785528100338586], [-0.4490242520003549, -0.4202233635133332, -0.3085262302234057], [0.04770538866406985, -0.2142868088356097, -0.16804423766249335], [0.14838440225106858, -0.3342120302221481, -0.34907661800984363], [0.7162810755044802, 0.4214270786052721, 0.4384812187924549], [-0.13473869629406565, 0.6853955589503625, 0.45747552829930793], [-0.4163498794763929, 0.35307291702938354, 0.5241469701743388], [0.14805926502430447, -0.2709091965667938, -0.08404996436572251]], [[-0.435416998496765, -0.019443678051789974, -0.08540083087236948], [-0.42340724150070835, -0.33912005424001257, -0.1902119005671645], [-0.09967081088212533, 0.037005064362278864, -0.1388075152501434], [0.37455626483759946, -0.7590766878247028, -0.4550957813818293], [-0.43896924192731457, 0.015426822982468159, 0.004600778395350335], [0.004698733773669796, 0.4245441031121049, 0.6211504287348164], [0.4536553532916946, -1.3923515704155842, -0.22155683729879536], [0.3250956665774715, -0.039204321936252944, -0.24030271738571274]]]