[[[0.23379010021513597, 0.015030681864096574, 0.21138003623023546], [-0.010653167485775394, 0.25756961648255683, 0.6690327368989605], [0.2664285882493135, -0.3387345532541549, -0.3321029351797028], [-0.0314323223417938, -0.5054921743987493, -0.8195913581279692], [-0.11100938487746355, 0.08645414805314723, 0.2084467665433539], [0.19472507308204687, -0.7008756187245794, -0.9794918875364087], [-0.2388952520479636, 0.2609138531443748, 0.6671532425374723], [0.6164208547251127, 0.6036641638497589, 0.9336576776019632]], [[0.2932468472741413, -0.1252591504030126, -0.17897621582559903], [0.00542068099273007, 0.0882853554405262, 0.04603271358083372], [-0.39003930234453876, -0.3357832356838038, -0.31038778976128933], [-0.04708931156506531, -0.342589697896055, -0.3900119882415128], [0.24595559412282134, -0.19691705455356945, -0.25498649475094465], [-0.032517458414337785, -0.13574045627839998, -0.3671309803604047], [-0.0682323851770521, -0.14336360103459753, -0.023949990445399576], [0.0351861968134337, 0.07172099073523322, -0.06594318538114533]], [[0.33018284400825587, 0.2962302440893287, 0.155341757350578], [-0.08711679967134198, 0.40150645110901256, 0.23705096227008376], [0.0997319081721979, -0.451467947577872, -0.40383971724568246], [-0.03259624907745669, -0.25904635763640177, -0.20691094175333313], [-0.10115651852190005, -0.2830616031670584, -0.19408938537097695], [0.019661976627436288, -0.1301082404401796, -0.09699311733822287], [-0.29634628027111987, 0.024357614274995897, -0.01600059179038452], [-0.07262965455464039, 0.520995944550873, 0.36893646461363255]], [[0.20175129794504518, 0.13376775875648772, 0.1601201549775955], [0.0009621378805523105, 0.24476214393638115, 0.24750254746594988], [-0.05865455840452971, -0.41053457268174914, -0.46532831368192], [-0.0732716025806849, -0.22684605227157706, -0.2686958518245032], [0.22412011378932029, -0.3394022674320845, -0.28624513538439866], [0.03162884905926586, -0.011084439002468572, -0.12400657715916809], [0.0849167099850301, 0.049633248228830716, 0.022081244057502464], [0.08045429964582113, 0.4481861440656, 0.6290285866006956]], [[-0.09084060683885649, 0.17592039331167456, 0.20091434997817853], [-0.062369335387076674, 0.24486693942907553, 0.2609240314704609], [0.27289012012879565, -0.649377474443405, -0.49033920878038717], [-0.04099102249084854, -0.15940756912046178, -0.14807433188086935], [-0.1395849688015108, -0.2984645867071534, -0.32403571396261344], [-0.019014639532982228, -0.138687485289702, 0.030036660098735523], [-0.48043155583721653, 0.23491245580895173, 0.07065021667047164], [-0.020980871133422965, 0.2560311602724973, 0.30374853177201927]], [[-0.059375746151906154, 0.0205827398663955, 0.20490074101377473], [0.001502686649342108, 0.7269744910462235, 0.38144466618085177], [-0.014070489416829977, -0.8153081208300856, -0.7432366446021758], [0.011020302962488841, -0.24693951581364698, -0.14796695202950952], [0.24223813251477425, -0.35474355168296173, -0.2613643061325102], [-0.03303814258952772, -0.5864691636466047, -0.2936617990544337], [0.14501987157786908, 1.1151258461439757, 0.7068249881625452], [-0.05512485293924405, -0.03305546614734083, 0.2745521701624696]]]