[[-0.19416857784693348, -0.014163205707584732, -0.014362717982453824, 0.07075644586884113, 0.5903616677405248, 0.7157114061074733, 0.6435371544819822, 0.9276451303454664, -1.1418904472575804, 0.6335971221332433, 0.24887240955762083, 0.5477277175169531, 0.41259716297206317, -0.056202477296537774, 0.09554793647448787, 0.06833225555957652, -0.25675898216474363, 0.010697674664002888, -0.36450349027336115, -0.42372192912388545, -0.2897132429071118, 1.088987234587817, -0.7090946331873262, -1.104590115385278, -0.47403792880994566, -0.10076612738654626, -0.016069823564091593, 0.11947039441941547, 0.23132063728207422, 0.17323791719535978], [1.1055764445968392, -0.16754317395074836, 0.1822423855080613, 0.46589004761905395, -0.23064525046577275, -0.0905779030844223, -0.5081738448538896, -1.2793515943604215, -1.058383423586149, 0.03796247202056446, -0.03174681021751657, -0.013139280933892604, 0.9559427295651751, 0.10812916669267839, 0.3140746067310336, 1.0617145377299346, -0.062459307514312744, 0.13288950220005114, 0.038872963875808034, 0.20940458324709202, 0.18639127531676863, 0.711978842832701, -0.8201006410026207, 0.8777127022894904, 0.006941765191585622, 0.01541980899312161, -0.013725267417688359, -0.0047002542944667965, 0.018211491185307235, 0.003297973616049892]]