[[1.5312987907716453, -0.2610343371040022, 0.4380114828424259, -0.1763244160090038, -0.15160051141596353, 0.3317423681925188, -1.792026864231079, 0.6038917169486285, 0.9320826312261382, -0.06948992767303162, -0.10171883411003056, -0.08711021467455898, -1.2169008777474855, 0.3724240343602457, 0.02609553455672184, -0.8790811969109341, 0.7526507021208693, 0.36956173903691886, 0.3948285131545464, 0.4950604900289047, 0.7710117093910921, 0.6524435059406591, -0.10737384839172125, -1.0456067948172196, 0.07182230160914338, -0.2903810188599368, -0.30120968671436216, 0.8546339508336483, 0.3370241238369191, 0.5020712926722306], [-0.22511815935464072, -0.11588150622864826, -0.09904044806705285, 0.25074038020485273, -0.3412527399031819, -0.3050273801853347, 1.6673954547852323, -0.21648570362315808, 0.6529543156865458, 0.006284874324837609, -0.03387074980986626, -0.0458662981958179, -0.4633681862099017, -0.10155987409806759, -0.20170297155773972, -0.4737020623115684, 0.03172444779929294, -0.03725452101545143, 0.8662904295976733, 0.25697871719131726, 0.33845747199602794, -0.7491798448188591, 0.9732856165470859, 0.8683266920416253, -0.0012652209406909375, -0.024523145960810108, -0.04509175756428735, -0.00212233691031479, 0.0203945785945534, -0.009682728471008071]]