[[0.41745905594022953, 0.13658632659878533, 0.3529308041857135, 0.38518731443769977, -0.331685734758947, -0.20049040545220417, -0.18317253870524483, -0.20295878552477842, -0.17315824993276474, -0.08557191604307857, -0.2300339285185692, -0.2823661047944566, 0.4905908564601263, -0.2621509219133228, -0.215352593136694, 0.5527875633735732, -0.21017560721336645, -0.18306295153892546, -0.2592289259147562, -0.7747970609136315, -0.6231715829328109, -0.16582378608447362, -0.36240582881216715, -0.01814530563338363, -0.5253216052486289, 0.19673842101313518, 0.059716405596634374, 0.2693423527807126, -0.7596355736409007, -0.761196640262999], [-0.5832883747894778, -0.23652344228306982, -0.23409587010376173, -0.5823779191605368, 0.34874979829770436, 0.1842242166044296, -0.32223899635543085, 0.03984056834609866, 0.07209034827057863, 0.002554618124401525, -0.019473601099471008, -0.01359458287469077, -0.7800614711704952, -0.5739569784043888, -0.6053311523322489, -0.7732055464084162, -0.6230433676626885, -0.6479257731304808, 0.3089883575267636, -0.6784099833792384, -0.7968753886254394, 0.06682980547235254, -0.23454520601760678, -0.16747707092275416, 0.04408671328571891, -0.0018859783068757552, -0.018529092723199466, -0.009363860224635891, -0.048399802757300645, 0.043765285565253234]]