[[0.7566459764409812, 0.18790465785224986, -0.4221220674401363, -0.38838569790393046, 0.7041316678175962, 0.47257179076891526, 0.3306376628548497, 0.5979483498904281, 0.5114218848802122, 0.15091014984230577, -0.22173234085247343, -0.09878779757953578, 0.2606909642258209, -0.1251992612408719, -0.34448866384844623, 0.4282272917878604, 0.029730493693622965, -0.12926985272067948, 0.5226831110281952, 0.18587105393477102, 0.414660825973229, -0.14980805443545603, -0.28230828355809723, 0.5152165047690506, 0.23345848224330049, 0.5653174021617566, 1.023496026933181, 0.12147638382164762, -0.18826837746137318, -0.23080733876889162], [0.1235062248816111, -0.17232459820374577, -0.23455167488477036, 0.11520633752243364, 0.14716826126458607, 0.6439121397047676, -0.15831354078688123, -0.062326263755240904, -0.6188945535156984, -0.02168674567690537, 0.022351870925481104, -0.04706504499621485, -0.2118857208673058, -0.2083864713236492, -0.18955505925796748, -0.3067380968326825, -0.21091703519414867, -0.1502335774122675, 0.10751952025869077, -0.2014748142317547, -0.21865595840668092, 0.5843935811496963, 0.84264550034878, 0.6495801743443579, 0.036130310577751866, -0.014713320727038341, 9.693677434202946e-05, 0.02039025635770456, 0.014742442495238674, 0.039088242397055106]]