[[[0.3029405681621907, -0.40613075122012227, -0.19215870810561067], [0.9599240100380945, -0.5770461693563333, -0.4163769484055886], [0.30433917609203337, -0.13313208245503952, -0.29780994918543896], [-0.42358326206952684, -0.029732104693970342, -0.3047154731670461]], [[0.273209511593155, -0.48035456934939946, -1.0088553851972293], [-0.5516281010606183, -0.22338875194430496, -0.3406782816158303], [0.3119585163262807, 0.10822788571487812, 0.08278113164681836], [-0.4638425813805394, 0.06115267610193345, -0.1514722126820854]], [[0.19456144680481602, 0.4696332576116582, 0.039647875937456056], [0.112159995404627, -0.39390834947669207, -0.09953134393071139], [0.6346188375385451, 0.6843898134711061, 0.5511368301513877], [-0.6209771340599479, 0.6376551349033106, 0.40200105509072215]], [[0.16838736508315533, 0.024332299964686624, 1.1916051125689313], [-0.6885728474668573, -1.0179526579944618, -0.8115502601090316], [0.4630642534913268, 0.865286411559164, 0.5668903644708716], [-0.5739926870056398, -0.03234705762705399, 0.6442083389018125]]]