[[[0.20126353050257603, 0.027284428514485856, 0.03974214354634903], [0.12269814959458358, -0.24623459052478375, -0.24185325784581596], [-0.21142671712322642, -0.0050769211322842685, -0.008503769518123316], [-0.20384192370185936, -0.011273956176825334, 0.04931808889856931]], [[0.17331287121725242, -0.26148821471915246, -0.22782128106903485], [-0.19951666794735193, 0.27441153736338936, -0.23636769452856587], [-0.03723018599605145, -0.0027369028237227214, 0.14505880862781184], [-0.16185921453504998, -0.06952084821374228, -0.0666758738396087]], [[0.0340996654608927, -0.2160347317778984, -0.2008786726115755], [-0.024979623904202865, 0.24469649229832463, 0.3899550787285838], [-0.16739894151955229, 0.017755021958245083, -0.07686723258768101], [-0.01711108252523328, -0.08651260123065765, -0.11805134000531542]], [[-0.08182283423007923, 0.02622778424592432, -0.23906434522758868], [-0.08039548087263187, 0.5789936474170375, 0.3004206124251624], [0.04606030637260206, 0.3383307424090792, -0.08823670727541824], [0.034938995891475075, 0.00312639663282139, -0.09442395881775964]]]