[[-0.5952656646553998, -0.4983417328480513, 0.21271377175334014, -0.3688757445198405, 0.42882303521537213, 0.43634828476850973, 0.47965609769934786, -0.31028066017683975, 1.0731522908875175, -0.11566926568755025, 0.07922192636241264, 0.06328392436540294, -0.8836318106563813, 0.16304202392559, 0.0988117845936125, -0.8144826115951398, 0.14852018560960617, 0.1788939413280182, 0.03823186177226026, -0.10176524540675089, -0.15420988501497346, -0.8074771429703154, 0.5724412457677738, -0.8077288396857957, -0.37302149542920926, 0.08117135783747619, 0.029982418191334237, -0.7057430552715679, 0.02393576863065068, -0.0088143918207165], [-0.14160534167076372, -0.039335754081013016, 0.07564089715172209, -0.47182808456687847, 0.06509541066228691, 0.026354691216424538, 0.5026658527127288, -0.754887877145767, 1.1843234497044606, 0.6276762372573681, 0.08552858645969273, 0.04344208958360809, 0.05463997830432564, -0.22058199383524388, -0.04607278352098798, 0.09078604618895247, -0.29399267580548255, -0.19587337862535006, -0.7959406099835045, 0.018586304906634637, -0.008240680426635272, 0.6583328394585284, 0.9379746510018988, -0.9723205750945101, 0.09673883459589337, -0.23575589435140135, -0.26196315324973923, -0.03270311517791097, 0.5557032313799887, 0.48826426012547325], [0.557592177075749, 0.14821630151781598, 0.1151468375622445, 0.1979325508800452, -0.2606262619637902, -0.29220574126298904, -1.1399724391660582, -0.7465350146996703, 0.8158243766705578, 0.025816357153919726, -0.035646567381964867, -0.0093696976042437, 0.03468235366734402, 0.3865733354980066, 0.31183993920964753, -0.1344840516123842, 0.3915584299305333, 0.4172203982279255, -0.32370979171334663, 0.47878373297720084, 0.5319131805926505, 0.8459692476791811, 1.0106399559719497, 1.286758072481366, -0.004985593487011298, -0.0007473001455869826, -0.028356228444964937, -0.0311755664445368, -0.006058522264044424, 0.045842976929055826]]