[[-0.2077145984527239, 0.20078408454590727, 0.14797362450934023, -0.4643279953009474, -0.29479676835596647, -0.32334617925848685, -0.4116718013574187, -0.45357954895835206, -0.45824173635896925, 0.0696575905824644, 0.05494290395714655, -0.034806689189777446, 0.1255409011103984, 0.2827837438569344, 0.24524861664778203, 0.10524443583742939, 0.21733762613351293, 0.2759747292101928, 0.0851568602291184, 0.2798371864115044, 0.4646569859814189, 0.33871861775128836, -0.02150368996556041, 0.22808211116281657, -0.27025747655667975, 0.05153877055458853, 0.19621139495340592, -0.3948108638478843, 0.28117973379374844, 0.3148872060310288], [0.03949044664007378, 0.15813038747350575, 0.04199026604480016, -0.6692702774739013, -0.13035991540314876, 0.06350469290829525, -0.2673591355592685, 0.4650913265470993, 0.5095258174969833, -0.434586988207723, 0.0647514788891359, 0.05980119750173644, -0.4889958406961815, 0.2403100251774619, 0.23119066155317616, -0.42774353345116856, 0.1680761097817638, 0.1846298679364677, -0.3973703014156337, 0.23496364295945205, 0.269742346702903, -0.47378159951991544, -0.49228767958365344, -0.44516383309960583, 0.26066088284248834, 0.25277311474155256, 0.33386481241772664, 0.1431564461005298, 0.12151762991440017, 0.11524527523352827], [-0.43393625849793455, 0.195495983434932, 0.12983794425511994, 0.30739590132171174, 0.31247275789573564, 0.24065682193736787, 0.11830163127728122, 0.1508587733978159, 0.4429941100531931, -0.00013856443300680932, -0.03685187237515884, 0.03699195202524813, -0.19406661068735045, 0.18041439918747587, 0.16307527428346022, -0.16813113532865162, 0.12120328040406324, 0.11770167197234291, 0.10159926530644055, 0.10650171875482395, 0.10382449471343178, 0.0642197651052012, 0.373348281162548, 0.5606784491441895, -0.004447674365084417, 0.004391423023743468, -0.017519624749718358, -0.022563311059175264, 0.00871967972728908, -0.004590209179525359]]