[[0.6110922400515962, -0.47742978874026665, -0.3929656081089009, 0.41759037630729684, 0.384587287548633, 0.33327786874906773, 1.0222650445245969, -0.8453251428112228, 0.6771374548909114, -0.22285014049475063, 0.23142701672773533, 0.12746739001055263, 0.7955490070375002, -0.25997241520797126, -0.2491468623665099, 0.4253245367471532, -0.3409844945042425, -0.25388581479572625, -0.5357355982504398, 0.28716640856722664, 0.1446028326733895, 0.46135791295751405, -1.0835064660080993, 0.8291611910313975, -0.8495476936180021, -0.036531625488234624, -0.18331626788019065, 0.029496278186290144, 0.0719086245810664, 0.02559500710902746], [-0.3923299918079328, 0.1686956783063779, 0.21972012008284503, -0.7464365115460675, 0.039545297648103855, 0.045299477935846856, 1.116331128863967, 1.0047992621282265, -0.14313063240046406, -0.7774040021638765, 0.20880968382917495, 0.15071007082047563, -0.6911172710708328, 0.324049220090596, 0.39432753073874527, -0.555471781683588, 0.09673791772269641, 0.32679567137201, 0.06337723080005174, 0.1285765459863369, 0.02614900355781336, 0.7961690499846291, 0.6788671445542684, -0.9012843463796817, 0.437695033845865, -0.056814803691947476, 0.006492868519400605, 0.07062553330199045, 0.2279915334422787, 0.3094131887272582], [-0.7875422340828734, 0.219286727212272, 0.2993606071672365, 0.417080532595841, -0.22310978036718407, -0.0702028122500891, 0.28856889394259516, 0.9042710897810959, -0.7721219013698538, -0.03635083840352299, -0.015767093797421666, 0.001494918713333154, -0.6746490228828128, 0.17333858981690292, 0.14511942354386803, -0.5589280429324706, 0.07772675257868303, 0.16247239847490846, 0.5759606634302784, 0.218534969863702, 0.23876671442598532, 0.8053701819502143, -0.7270098218263777, 0.984141951677858, -0.02549513644697442, -0.02417494597700508, -0.0009996953632945922, 0.01975739346834369, 0.005463524704526709, -0.0380574271782477]]