[[0.42767894399694806, -0.3709105995880922, -0.35536080853287416, -0.15385190161096726, -0.22212018555941962, -0.2311197567489032, 0.16248890210008934, -0.009990665874837176, 0.2700785127757812, 0.01769785333931809, 0.41665622921467965, 0.05040472933271251, -0.49690497528311567, -0.242722160822043, -0.7538541946799823, -0.5820473303151329, 0.34797835445991643, -0.2472952762732973, 0.12650834339895017, 0.27894053268665886, 0.3276414131515728, 0.26661747303743405, -0.254928457493799, 0.16241995214621563, 0.10940874747576258, 0.47462779537358435, 0.5697516266083807, -0.7805126585419474, 0.2630755291475283, -0.4077648274144315], [0.02367842613606599, 0.5012549865065582, 0.32511764855980735, 0.1340211538206402, 0.4551905286998711, 0.38841040775673685, -0.2816707384752915, -0.23176579733279748, -0.05145518480895046, 0.3433767569387925, 0.04636860685242725, 0.11501305040333175, 0.6596602331407833, 0.6703365869457127, 0.8222768614438155, 0.7814273395784378, 0.4657663876742, 0.6627553541575297, -0.7219643058447909, 0.4314665880139493, 0.2657344474271977, 0.026475030413941697, -0.08912432164482638, 0.17510657215265205, 0.27744937295201416, -0.37706162640743246, -0.45437694064028034, 0.14908031689672624, 0.6404384194545206, 0.5856657522238596], [0.5473514809604897, 0.09491801984150805, 0.09253302913360772, 0.3262738946492387, -0.3109396903905114, -0.4442034816629418, 0.12376952589043919, -0.2077027545959675, -0.1848498965909547, 0.020644110443907713, 0.011954762806065175, 0.037475032542289836, 0.37616344180605904, 0.21227301373776877, 0.2622793084472548, 0.36486216144225425, 0.19835219423153308, 0.16118138714974461, 0.40205452283102566, 0.5193750342503417, 0.5872059635349132, -0.19692048249642663, 0.0029578951778281124, -0.049528256608607636, -0.022434936569427338, -0.048071133848404224, -0.04893211147618978, 0.014904147248114348, -0.003130601824098866, -0.013503777567717127]]