[[[-0.7936577797132812, 0.7011651999910541, 0.5542296971270645], [-1.014545913492144, -0.36132360417122295, -0.8819329017479764], [-0.83070949861124, 0.45826677421529133, 0.19956230636617678], [0.27262917844003826, 0.2625300915631078, 0.36270648049133364]], [[-0.5348097291895318, -0.21683323907298727, -0.29977594303835375], [-0.5869067340747655, 0.22699078891013247, -0.033163952082010874], [0.7749096016736209, -0.10467780135629848, 0.17413076570399463], [0.26427564834998357, 0.13561972260211272, 0.1552028016634966]], [[-0.5472296865647298, 0.08224341793428228, 0.09125523405406503], [-0.24148964042119114, 0.660296107810652, 0.4681744276837926], [-0.5858009728321296, -0.2508362352904005, -0.3452828554924077], [0.43641585591406495, 0.4009569650871044, 0.3368266603818148]], [[-0.5526764838270476, 0.08131657351035791, 0.035242107227882735], [-0.6867766739375282, 0.3538993552202268, 0.5314220932543545], [0.827594486267714, -0.38573645918610844, -0.31392032462411673], [0.3736588793374507, 0.26953843638880587, 0.35197506631561115]], [[-0.5619094361863279, 0.12186334022209586, 0.018994686364078], [0.2750070799301122, 0.2990826341211378, 0.35319388971092536], [-0.48559295642773703, -0.046207951323907925, -0.22380131984713741], [0.11504518937200402, 0.08858953206534692, 0.1553512755665564]], [[-0.6270090189426439, -0.042980437811805036, 0.04755784573247302], [-0.8147691722804571, 0.3318897973767151, 0.2901442046270467], [0.8762701750181338, 0.10591939709175663, -0.02893071520215549], [0.16985716869331902, 0.017504683097375455, 0.19016622325227994]]]