[[[0.023568402512892703, -0.4359792064163494, -0.4355598196965129], [-0.1237629303283522, -0.29306131381642025, -0.262542863182613], [-0.313649150388363, 0.5024976054882184, 0.4344661076235635], [0.2879784324560274, 0.5339093495725061, -0.10123555838694455]], [[0.0994020018739988, -0.41543354401839755, -0.4466336497170673], [0.05921184229960468, 0.3619417144227741, 0.3548422214411236], [0.015528127973565679, 0.13407567169743115, 0.6839850978851322], [0.32639945611155224, 0.41617820310821746, 0.5467792430505017]], [[0.18242051166664536, -0.4229244074798021, -0.5022266377719803], [0.13188338986616877, 0.3766100310550966, 0.41479079958101317], [0.06595579815310663, -0.19305325689715583, -0.004328633344935001], [0.35439988113910703, 0.45786047707493394, 0.4609842998708929]], [[0.19439054839050704, -0.4488130096136548, -0.5079593653324042], [0.1315740089635336, -0.6487944197140484, -0.656128269422409], [-0.23777955972416215, -0.20473146131161088, -0.29438638286476126], [0.30626403964513355, 0.4627093290462482, 0.493209654926491]], [[0.1369674207022541, -0.44470863484805506, -0.5116190659049075], [-0.09456775682883453, -0.5105068270197206, -0.6124919890640573], [0.20718684420749633, -0.30004230640480367, -0.23619469027589976], [0.07399657528816697, 0.49760044705228745, 0.5112381043234351]], [[0.12719305217334284, 0.013739494847147274, -0.49787254044372414], [0.05139572551751897, 0.5794030990068272, -0.198350309590469], [-0.3256408469673443, -0.2847490405697706, -0.43422136776900605], [0.059358801254998296, 0.015555490465229312, 0.4363385584961653]]]