[[[-0.6200123976620047, 0.3497501527920688, 0.3421307235767103], [0.2549919411640019, -0.3019371754742589, -0.5875299489052418], [0.3154920691707633, -0.3248754461243517, -0.25383202379649566], [-0.2992893321936648, 0.23564983243940055, 0.3669781793188089]], [[-0.6903863084456693, -0.06276114594008181, 0.04998498618414034], [0.31057170238672493, -0.519450197422208, -0.5870984538395475], [0.051101654301784566, -0.4055115471206221, -0.39579780147478094], [0.09216596344050643, -0.03969252267404723, -0.00871371932259418]], [[-0.3645874599362914, -0.13745019767158045, -0.03790382204031215], [0.220206484535332, -0.45745154461928295, -0.4345351588653252], [0.1622383177093377, -0.3722205634095624, -0.5703865072482379], [0.3186533841338872, -0.030628705271842895, 0.007121933864136549]], [[-0.04424112869550255, -0.35328508058568914, -0.33257715383088376], [-0.1981514793531294, -0.21745756393309648, -0.2328603550810253], [0.010630792335520294, -0.2306294747272471, -0.23546358191347513], [0.2999129854592476, 0.001483561098014785, -0.05873296723812379]], [[0.5057423215338192, -0.41989886989516023, -0.3545056163106323], [0.17110003786300584, -0.018662913185619738, -0.1434349444232751], [-0.3545428651302408, 0.03276212144497766, -0.10259965457872296], [0.09153696994765342, 0.010180043958432406, -0.013181421989401818]], [[0.46525129007367483, -0.010714357874494958, -0.407698576317605], [0.13729210955357368, 0.03492870573921561, 0.038686165188708634], [0.21313813255463, 0.23915725621738684, 0.039078679913201506], [-0.14575796026690793, 0.023137596977136715, 0.00468349971505768]]]