[[[-0.11967043674235825, 0.038114559319491884, -0.08129122238279465], [-0.1451801413690909, -0.3495809561441961, -0.2587896517945609], [-0.5289075755009429, 0.21240736694831877, 0.6789366196212254], [-1.328119980726144, 0.2589752907611507, -0.49988192348086236]], [[0.4312990045217942, -0.25633857901047097, -0.43018778195293333], [0.4263346612606736, -0.14073592152227385, -0.019710689075924204], [0.9266615760963839, -0.053671183494177904, 0.22916008090483111], [0.98879009139154, 0.04790513370924862, 0.08033120149768554]], [[0.20755208289962088, -0.000560483446502222, 0.411841595524209], [0.000507227949852581, -0.15564543378791795, 0.6091051971042594], [0.10134930482725757, 1.188524120175113, -0.6477070509130498], [-0.10435080496715017, -0.25152527854664974, 0.2598178937597372]], [[0.28722186247103315, -0.2667534378685027, 0.614912758812822], [0.13784767170610565, 1.6678126395214943, 0.11955501396082448], [0.28876587937724496, 1.504543301863983, 0.10944441843867063], [-0.01421258647523109, -0.6542133007510837, 0.2257740128572683]]]