[[[-0.1513115749277482, -0.4923633764527605, -0.16721584128146183], [0.15413067031841154, -0.46962637772371085, 0.09846974941344261], [-0.31957921200759615, 0.6077958546361177, -0.3907084061589203], [0.2746315675079476, 0.45171914673936564, 0.1967718442476704]], [[0.5062322473782328, -0.5280860595939332, 0.5096443986887226], [0.08975439880244408, 0.13094615921440322, 0.12608704366421575], [0.2857338007219981, 0.27371421942917273, 0.30131568888574783], [0.11559003326460995, 0.198015855803375, -0.15324230277625764]], [[0.227188113610294, -0.1789702863990047, 0.30786832091424665], [-0.2255049721674816, 0.17452648256407324, -0.12152830526664996], [0.012546814167905651, -0.10829646294851535, -0.04122133887506977], [-0.1562302956560019, 0.24667833040473802, -0.032511931318218494]], [[0.21217116490495824, 0.3994155016649443, 0.2438306606558532], [-0.08181030514638826, 0.5273661274680377, -0.33757408801577404], [-0.27988095173100963, -0.4541785385210166, -0.24708904932631776], [0.045560573172488, 0.48639217810185664, 0.045362468545389265]]]