[[[0.17136964895211917, 0.46375759799108657, 0.850918398817694], [0.9334244584798754, 0.7760539174038168, 1.0542729856831463], [1.717745395992556, 0.9417858466649316, -0.10516884378986317], [0.09420116967060845, -0.995012946484152, -0.6603654685457235]], [[1.6443810339328846, 1.662000210213734, -0.1393700806636788], [0.06371370867728207, -0.0037998451624835766, -0.07502033362559282], [0.11296579651257682, -0.10192316339209757, -0.06664242197951534], [0.10948950116022514, -0.010758561872376036, -0.07129735654792732]], [[-0.044924569250000164, -0.01382994565795661, -0.05121886826193596], [-0.06072847785541208, -0.052265335515175336, 0.05712609984489461], [-0.0826376689499756, 0.06334570105198797, 0.023900838215061098], [0.23412233645897013, -0.05111977412351541, -0.12393484265824074]], [[-0.3623935212959204, 0.0011179576875099163, -0.49129208170721245], [1.576014618710431, -1.5960639017246527, 0.05658313660109993], [1.5056974704724606, 1.6441947577248759, -0.018323702616118754], [0.7671825055752096, 0.18463751562947991, -0.7450156438672181]]]