[[[0.22418286031806867, -0.4816291536349591, -0.39715370129883004], [0.4250952800015473, 0.5498462040241686, 0.07148443710947651], [-0.741435716487114, -0.1958235165393883, -0.10300369475676178], [-0.4999425467230733, 0.724443104629047, 0.24711145773056412]], [[-0.05863830242666418, -0.04681370193453198, 0.20637425320945055], [-0.8923543539714796, 0.2741320685691034, -0.46460811888452436], [0.04962636703539954, -0.0431272080642936, -0.03453801236447567], [-0.35886569147489056, -0.29914680750157363, 0.09488464662754728]], [[-0.06079862470581021, -0.14734196738243877, 0.16517749472343018], [0.14756798082135617, -0.02056226018064979, 0.18322149303800295], [-0.13697937652028078, 1.067000049614381, -0.3783454134200585], [-0.9136149695938882, 0.22150927472737647, -0.6327548822980236]], [[-0.12022508728909494, -0.061806893386775016, -0.0233752615909652], [-0.07164672844190456, 1.5405326167829276, -0.06450889812636323], [0.176263764446138, 1.5454476965163362, -0.10386310301254369], [-0.20885012438332126, 0.14594033373526713, -0.00023631356806999917]]]