[[[-0.2994965255494594, -0.14148436255327368, -0.12269002394013538], [-0.1771439238005308, 0.4096092643417213, 0.07224521969134487], [0.4186459234236354, 0.17940272685473213, 0.8037220262057716], [0.18849234415865168, -0.26001326498024807, 0.13067040510910888]], [[-0.1010123508274979, 0.6649367596200318, 0.2728651236662231], [-0.01494300681020087, -0.08407061855364867, -0.0460753714548186], [-0.029995595976615712, -0.11994706590048793, -0.08986226283854243], [-0.10674374152586906, 0.19386260695657473, -0.044717178344102534]], [[-0.05204230838461805, 0.11490173264885079, -0.09005537968722291], [-0.04519102018766579, -0.24205378378437734, -0.0013843324334786716], [0.041127452165406364, -0.8294404284102379, -0.3208751375038383], [0.17864893633454465, 0.04116851756692051, 0.14152252245046187]], [[0.22025959923704944, -0.5532736533921996, 0.3842829744759667], [0.7349999881595158, 0.09464609290287676, -0.6165857784711767], [0.2375726632899602, 0.16356889657549303, -0.10217195058063494], [0.7083312597561325, -1.0502320730701307, 0.7081552031213346]], [[0.023313803008792704, -0.028558635372575164, -0.08692002466708323], [-0.5184804158512117, 0.9155950831443657, -0.20028193182994328], [-0.1501622000495778, -0.057559517128652864, -0.18268066661318805], [-0.2935446988671774, 0.06628412669869678, -0.2847097559866224]], [[-0.10453383912620676, 0.0633471253277634, -0.13903840263598785], [-0.281111758063061, -0.14415542094139547, -0.30708925525754094], [-0.2206397140617055, -0.04312078006257992, -0.35672652398348736], [-0.5678867777608302, -0.36866096196668297, -0.7644197513302566]]]