[[[-0.14751128567567387, 0.37536248771549174, -0.31552856269039653], [-0.720487575438321, -0.673572366726171, 0.035206370925392416], [0.004006044030927513, -0.0051469255294400735, 1.261379589479383], [0.3255032494348606, 1.088950907469071, 0.3131496634434763]], [[-0.7646921103787041, 0.15865477183718565, -0.5943129101710282], [-0.6962055622213014, 0.4005107335798048, 0.4416668930780291], [-0.014966605401767573, -0.013061109196400973, 0.061904243331338496], [0.03038132484300904, 0.06204146207165445, 0.06094878822178975]], [[0.016820765435115827, -0.11140311853250277, -0.053943341661023825], [0.09265612376093794, 0.025106214198923886, -0.07394389943632267], [0.043929134752138874, 0.141040726380456, 0.07515940865542577], [-0.11730720658441164, -0.05414120020316992, 0.0418260931029453]], [[0.09311238189777939, -1.6275466506768534, -0.025529943897442182], [-0.4339693292144211, 0.06531884877481839, -0.19461848426866335], [0.2951277454915772, 0.18526337521401853, 0.5091093353050606], [0.22391720979738658, 1.66995740598817, 1.131100016693688]], [[0.4105272575496802, 0.049035812108306834, -0.3564155299129118], [0.011178117029616286, 0.11091614793617326, 0.10487829181425835], [0.030433777171227493, -0.16192634669312475, -0.03460097369513762], [0.006866923493840034, -0.06694218865783957, -0.011288834093650916]], [[-0.0146068635412713, 0.06677092119411113, -0.02422431829201053], [-0.069113369034199, 0.0835161636381698, -0.05559059013599302], [0.04268341416251388, -0.005098176453858957, -0.19029029429066224], [-0.39977274451639605, 0.007756982981475313, -0.37521365609128393]]]