[[[-0.4932636043904318, -0.5147363179641703, -0.48623655233474883], [-0.04838618325169135, 0.5953072869971344, -0.30946516746114494], [0.07541407519594456, -0.3819138938632804, 0.7819900810737684], [-0.03381248108480077, 0.24538726873239072, 0.0510906719295079]], [[-0.7983589801897265, -0.0914448923687349, -0.9620903131019913], [0.005772444234923631, 0.25749042168763786, -0.052994907638388516], [0.06817904784464057, -0.026233875539457805, -0.03946258102484075], [-0.23360194913048601, -0.005316436848712011, 0.0756983859843202]], [[-0.09154569496326245, -0.0018341281616338686, -0.0340680877143806], [0.042927409818687805, 0.01719915402806479, 0.0456493735919257], [0.23146948692108676, 0.030590756633326763, 0.07586393185276331], [0.053782821534286755, -0.0362315695438821, 0.0008948945068150867]], [[-0.19571934589688342, 1.6205397494172347, -0.04099330194939697], [0.6565422588876328, -0.10122326352327023, 1.5148608436258106], [-0.16982982164811292, -0.04514510759863826, -0.3922662228545056], [-0.04732229469869419, 1.6875384622036642, 1.6434625072165763]], [[-0.10936973536694322, 0.03558255390806171, 0.05384929265964233], [-0.06167252380059023, -0.04907113400190932, -0.06105656894830252], [-0.02512106475734947, 0.06038774974579694, 0.0036096689982521323], [0.0057093965329950225, -0.08559808385516568, -0.04868220258504877]], [[-0.07286775170568499, 0.034049020869379956, 0.06380218400928978], [0.018732332905036536, -0.028292183567118247, -0.03874812179434639], [0.009716350656582908, 0.010878204780092882, -0.08930869155812442], [0.8849505860336233, 0.019640840297037138, 0.8742348585074695]]]