[[[0.5430981794746103, 0.6275335024657245, 0.560780000479641], [-0.13146531413291757, 0.5569013961901461, -0.10218954021314797], [0.33657225741238594, 0.4494477721212253, 0.246560679512373], [0.13610380868926572, 0.2808391633441234, 0.0683649143977877]], [[-0.24570312847430442, 0.4620859136950277, -0.2323649011714339], [0.4535354748887217, 0.4538094118583918, 0.3760649035261115], [0.06133522984130063, -0.45136667434319044, 0.13736161459354318], [0.17893264940925568, -0.5676387820870102, 0.022037842790532943]], [[0.170694712773503, -0.3424029080857487, -0.04195001927300478], [-0.02363037430528641, 0.2742735097508709, -0.007788304313739232], [-0.44937765169053645, -0.35239826376366007, -0.41331621945791114], [0.3440453419776117, 0.35641763900358436, 0.3673032736576449]], [[0.0509260663399924, 0.5365569895543044, -0.008777155016585238], [0.5584450768811116, 0.3839091489770846, 0.09711693585457322], [-0.040912959654722525, -0.3491642657426061, 0.05901813131109623], [0.40874459990033946, -0.4992180686612002, 0.3137715156987934]], [[0.03808898527452864, 0.23515852052926214, -0.08702139822720914], [-0.4042470379780544, 0.4555367007058082, -0.2862210262998275], [0.3467420258687175, 0.4189391487733956, 0.3573265222210121], [-0.10132585385824476, -0.4748284433292566, -0.2971431483039049]], [[0.34470619278571546, -0.5127820718036766, 0.3561281250486217], [-0.25755291369245903, -0.3016472740729767, -0.26824850432285524], [0.2582371823384677, 0.3845539352002353, 0.18169051891200375], [-0.29261117607615217, -0.3988415840680807, -0.2934720395792228]]]