[[-1.0769542981252809, -0.7980497691218601, -0.8372064323369999, -0.4797336463396597, -0.14998006135402062, 0.2596878203159335, 0.20522009059819873, 0.0833957542769426, -0.07934081770966951, -0.3699097920626877, 0.3015164387388874, 0.4717892567700281, -0.6007401042574269, -0.2330371396270135, -0.5280869908956558, -0.6363363807255865, 0.07862469531658851, -0.17157941354887288, 0.6836474529442675, -0.6457168275215447, -0.47681123237133216, -0.001407293337591728, 0.024457242648216897, -0.33564776307716954, 0.45451933548838486, -0.39106391221227627, -0.3216798501030223, -0.6613239625166006, 0.05948272885945312, 0.27492572632764467], [-0.5379338019276049, 0.1355033498379521, 0.3322096501953855, 0.3568476361088295, -0.4208974567201847, -0.3768205930062611, -0.04095385102877842, 0.10434669429891139, -0.0830513500009214, 0.5317395932110192, -0.45394229739567155, -0.461541202562838, -0.5502538193258325, 0.2560308571508522, 0.45222612841453114, -0.6328369907859037, 0.10458028296733256, 0.20291666847065515, -0.7010016305889861, -0.01959203484297384, 0.06590217260636497, -0.15589125542423188, -0.07968046125670951, -0.09803289048443005, -0.8001558056186555, -0.17670489574718845, -0.06532531500410309, -0.38348050548161816, 0.15600484343960747, 0.29218518781741276], [0.5288776271235225, -0.5019825601518662, -0.3799864726905118, -0.7873525222899828, -0.10424695875505775, -0.19466431778842896, 0.3043602063995776, -0.16425250962529825, 0.05618222889878566, -0.7889659239221127, 0.07894876769718774, 0.07376564005458583, 0.43548340504421434, -0.27521907373830906, -0.03699099656177147, 0.27906608417249207, -0.4132312979032749, -0.28193950287988373, -0.19523346944400327, 0.11853052648059623, 0.18421193293663213, 0.276469062186047, 0.10582207111161465, -0.1942404938439969, -0.02074737155990894, 0.2584812732474623, 0.37588540160958117, -0.036916288185271984, -0.5905279500296745, -0.5957908770731688], [-0.787714068150052, 0.11299879482113993, 0.06885094882561729, 0.31918141338078104, 0.2396313593209441, 0.3211515557513021, -0.06677636098671134, 0.34827570400389757, -0.21651855290707242, 0.030429081206588215, 0.010075637309462489, 0.0023649609428007794, -0.709658151352428, 0.4939318757852685, 0.5403125926175191, -0.8599041805884483, 0.43598055048342876, 0.4647356082123744, -0.23706748432466573, -0.5650349480608419, -0.5882479703291486, 0.06791583355339932, -0.02653115848755363, -0.07989491621105942, -0.026102687898000385, 0.015301428933960476, 0.03659339517296454, -0.031451446130454364, -0.04201740483176134, 0.004999218202851638]]