[[-0.020448713062976877, 0.4118607113196584, 0.42799037329560313, -0.4707747290361052, -0.018049986914120703, -0.0585798046408377, -0.5334744107241399, 0.7531608938537775, -0.4709048916886639, -0.2318234598559351, 0.09693446420418428, 0.04012466174015259, 0.13812010732228744, 0.10096837539329692, 0.024925475343155812, 0.25122588203997764, 0.13446934957407358, 0.14981793208517746, -0.3156378233865688, 0.16983642991636197, -0.1770255215304024, -0.9511344987864524, 0.8320436322178993, 0.5611824205199288, 0.3167028109256429, 0.47309084738973267, 0.5284015849498674, -0.2714204783663819, 0.27575355389304895, 0.2146648550126028], [-0.13674375258127064, 0.22466853062190228, 0.13274124105088836, 0.21298411505292625, 0.636590618567098, 0.46013286813262344, -0.7561222165289216, 0.8056661752816812, 0.6306063617825913, -0.07200173236712522, 0.37738437012208237, 0.5385604100291248, -0.7474071771274948, 0.2282445246841587, 0.16134619702373823, -0.5779014626761987, 0.2864338269664076, 0.2219118246026198, -0.2886519425787541, 0.3257930835199745, 0.2818853210909542, -0.5736753607786881, -0.5606307531738273, 0.9064204110178238, -0.31633474592552346, -0.5293418241081375, -0.6538135975056201, 0.25502263835441796, 0.34656827016291747, 0.49206085906949504], [-0.1771539046699219, 0.09084012744867796, 0.3707673898139839, -0.9372435177957992, -0.38830686726756136, -0.5232201748228417, -1.119521480700912, 0.9400804271495213, 0.32373843117997175, -0.1776823356170023, -0.06533205332585859, -0.025431676919500577, 0.3939873910929115, -0.1231412290722859, -0.20461064610303828, 0.326736681807941, -0.18103122696955495, -0.187434710780772, 0.32348809630508074, 0.300720385509437, 0.3918603947272613, -0.7335869410349772, 0.4310007616821772, 0.8710768067160178, -0.42708461312953366, -0.5777387325020503, -0.4425916486476007, -0.05571608052509576, -0.289139895620556, -0.3595950494993772], [-0.11842574153839762, -0.0856913603377586, -0.0858163321437609, -0.5566933272650048, -0.4904699191586894, -0.5701385485678832, -0.7755489271405505, 0.4824968257126953, -1.0760147802544267, -0.04216964494061142, 0.024937156571969966, 0.04027252187879048, -0.6411993344525642, -0.24182949019960517, -0.5628943328480742, -1.1845312446714331, -0.19695474263111296, -0.3168060776945922, 0.03545143793220742, -0.21088233518945657, -0.2794411926267, -0.6524320288066074, -0.24045768692775363, 0.8681635211112256, -0.019035836155051868, 0.04835849087511912, -0.006743023542722902, 0.03878900346678962, -0.047321654266143, -0.0026332085122872033]]