[[0.2466343504775044, -0.32486457200100144, -0.4563433061651529, -0.16604306521199538, 0.07546678887816512, 0.008761035483971358, 0.46365885425662623, -0.3852039786035727, 0.4164944566224459, -0.25512972133551237, 0.08142962880969759, 0.07335944159288056, 0.21562377269007396, -0.4799083066697094, -0.48624966383023316, 0.4689976881866084, -0.4329576390062209, -0.42977801910635643, 0.0038047359588737895, -0.15480931674489337, -0.19565870415027967, 0.25481291683101925, 0.1408456289283337, 0.15060326263962495, 0.25337570590048075, -0.08482959676840145, -0.0748495552643224, 0.49451615188067355, -0.3582792755868718, -0.5308767468243439], [-0.23845918119244858, 0.0007712427932834126, 0.041070238324888486, 0.2746209723823909, -0.11279191378941372, -0.0893515965944232, 0.26215429026048165, -0.4261814570119938, 0.06429511089537837, -0.012824575341166747, -0.3486175876728913, -0.18368270149586524, -0.6894322907935176, -0.022784873299696886, 0.06423914252066605, -0.5945847276405559, -0.1397822661657652, 0.008852438913494128, 0.19199212407052782, -0.17880069877975546, -0.3878010985397219, 0.2873570413791372, 0.011948623694699635, -0.44099141399677355, 0.11161619598677751, -0.30159960885124804, -0.4127988144971393, -0.8924242379142295, 0.09945029397928945, 0.3494139986151306], [-0.10587144425563777, -0.4374574883096536, -0.3894670941806713, 0.21306514880727273, 0.05494272771973928, -0.2830870166516098, 0.14355845809669418, 0.3973009221987402, 0.0978734231248338, -0.4076659618951639, -0.04518576020671359, 0.08195485255986225, -0.1690530408068639, -0.1081659705314728, -0.10104527023376801, -0.13730008956633788, -0.15400354856750648, -0.11607980730532563, -1.0567998088505979, -0.14289051857101678, 0.13124090609483158, 0.5273689158596128, 0.22334236680362, -0.3937648744551651, -0.8576288160118091, 0.11521000273420132, 0.028053001776168835, -0.07137476363721917, -0.30139720137007164, -0.49720158961775857], [-0.41453433439346166, -0.20911744250432743, -0.056517745889238934, -0.8000703382085335, 0.09148543910849524, 0.08000160645051463, 0.15896377430129843, -0.1182134487957595, 0.1271010461922102, -0.035676059075582876, -0.040287688497228566, 0.03378523447855044, 1.1152865676662642, -0.22310380498687865, -0.3815351033125232, 1.0071061641903734, -0.2119281661672684, -0.21526718469277847, -0.036436537488685056, -0.10183059433112335, -0.3026316844208411, 0.17725100722723355, -0.10500597670839615, 0.4414755349342771, -0.02931685675945262, 0.006463736128570446, -0.012354183970654542, 0.036656562821617736, -0.01807780422001885, 0.0187497764807137]]