[[-0.3641460333150004, -0.13668327506574476, -0.2145845979843968, -0.23535741454664494, -0.6388077513203718, -0.48643084745874976, -0.763287271485634, 1.1922845183833006, 1.0213586438870073, -0.04130072037273805, -0.38504806687290366, -0.19806183422707435, -0.25912905174987705, 0.1218913953690095, 0.04243100880406284, -0.2392565790490732, 0.17553993092544348, 0.09888958488508022, 0.014080753245342572, -0.11827778771002001, -0.11679891408126186, -1.1715443115176607, -0.8490130730094921, 0.686198039480816, 0.35484500906530714, 0.13671783143712946, 0.15080669354040271, -0.2716180279217241, -0.08675059041834808, -0.05676954650814092], [0.053437627582316995, -0.5053685391479519, -0.41700370218210564, 0.001527693308460263, 0.18385399736741953, 0.1448236328335739, 0.6876215480039857, 0.5465454321954608, -1.1769119184471304, -0.2513887495384455, 0.23357499706073198, 0.31852037429034774, 0.12415955696229956, -0.3845804458098791, -0.3829817909613001, 0.17036710729466778, -0.4506464684713082, -0.4034901758626968, -0.22061684447815263, -0.10490900373129586, -0.06541692472702919, -0.6311377249247511, 1.1367494182597224, -0.03697336095298396, 0.15270493812642857, 0.16853667469813413, 0.21017533671564506, 0.2106824524848558, 0.4432212611565647, 0.4184051106951965], [-0.20398653797136085, 0.28038515831023764, 0.24013318924454205, 0.12277268367054264, 0.1745210077159354, 0.11278291391891224, -0.7417731098608774, 0.8251184948567892, -0.9156368599782954, -0.20840554019014454, 0.2500642007837313, 0.233392589464763, -0.6468786198062016, 0.21004002824347903, 0.3319857196587004, -0.6815728500037623, 0.22900141588569453, 0.22652034179918987, -0.08430095576471783, 0.3612796106543102, 0.48064535651623974, 0.7142051905098022, -0.9105076313167705, 0.6515102343387282, 0.07337319344000613, 0.21165510706716628, 0.2168901849675096, -0.8467490181320656, 0.15532100998979434, 0.10981872734758619], [-0.02862282716556738, 0.1484971156987396, 0.22827123919784795, -0.13315219962545966, 0.18359230657231668, 0.24498025357615685, -0.7850899222394347, -0.9364154560714889, 0.5878393170032521, -0.04346276837247148, 0.016581183097695067, 0.0066563606778675885, 0.959739375670013, -0.12892719948602419, -0.21456317696289448, 1.1143881653390013, -0.1399404495994545, -0.2065677430828682, -0.7954263936791202, 0.1983923213396838, 0.14153327111640723, -0.5371846808969577, -0.7903979933916812, 0.644170555586949, 0.04970107943741505, -0.003246775981302559, 0.04557580277746986, 0.03172433921618306, -0.030015778956485516, 0.011086074943141185]]