[[[-0.1293703313562094, 0.9036536339296664, 1.1772083695744513], [-0.27743789521059903, 0.029857457665707278, -0.27496996924034245], [-0.26390444171045296, -0.15635494178303855, -0.08527276558986356], [-0.33883477019832503, -0.5336648026409644, -0.42459552649517074]], [[0.5898823909946609, -0.3492480097382174, -0.13496535312356034], [-0.2078154661245304, 0.08939080705964218, 0.00017233355415744757], [-0.9995610340643194, -0.13366356631016144, -0.35215250529106845], [0.05403398025120393, 0.06825245506333542, -0.26146155320479963]], [[0.5231872277727958, -0.0023283551993004527, -0.019597970650565344], [-0.33562014454566924, 1.1021552266712753, 0.7100683241781052], [0.5351594294647672, -0.06868462160874957, -0.10531302120166927], [0.18697429103118055, 0.683118523889849, 0.7139491197392153]], [[0.8432105170673047, -0.4819773991389282, -0.39056009230208993], [-0.04728672774591438, 0.27019753263236496, 0.4655952476513755], [-0.8485412013315357, -0.5897285154504803, -0.10908270316691943], [0.2697934680281912, 0.5927291574250102, 0.6510816246702009]], [[0.6141780689540502, -0.019097906047266425, -0.3406122373396547], [0.09909959698730102, 1.3406485606493348, 0.8527358232007928], [0.4469330624352399, -1.563755849458103, -1.5245137442521828], [0.10870128391907079, 0.028660014649304125, 0.6755563082300027]]]