[[[-0.2944468489655772, -0.2938479786390389, -0.043530268771160494], [0.8797347739352686, -0.41082613499868975, -0.2150614534492279], [-0.012703052736397644, -0.2992097799559032, -0.026862269489623954], [-0.14437761051569215, 0.19292415330914547, -0.2716108905659347]], [[0.4478033139757569, 0.35740983793564157, -0.13677591319520951], [-0.48739852637974346, 1.2654687027765787, -0.09176854753861521], [-0.001364574192158242, -0.33495904856119657, -0.1560882621601555], [0.19933901105578136, -0.3088843896742928, -0.3776887677407531]], [[-0.38772995146576866, -0.5280332878300454, 0.15384988618032935], [1.013126956752666, -1.0418982648049737, 0.11632125046167369], [0.12541870921250098, 0.23565103142428356, -0.07762534067440033], [0.2022872467908521, 0.05975757948837249, -0.02043633472053044]], [[-0.12619727691129728, 1.132221716302601, -0.09692535680616807], [-0.7581137268226561, 1.1103334782442913, -0.3975155343914496], [-0.0080403181811728, -0.3679425084455305, -0.026433476809423876], [1.338273428818641, 0.5396291425255224, 0.29594612547681254]], [[-0.0054698763807626335, 0.030861563172868055, 1.9427406335414303], [0.6429196343060027, -1.7984678640485001, 0.8328817637684381], [-0.1622077067706309, -1.5826822173194557, -1.0116470121815897], [0.7206640075360635, -0.03788458613761957, 0.6593823586994398]]]