[[[-0.376759118053002, -0.15282658612597938, -0.05835880916755782], [-1.1247118409231405, -0.05644036857220704, 0.09118700706891993], [1.4745852639716843, -0.36243305668675263, -1.2038071790241112], [0.5441683759319297, 0.23340015198128458, 0.20092803453844685]], [[-0.42207776099687894, -0.24438951272165166, -0.2499207369809484], [0.6275197042549439, -0.9156508842360703, -0.9254065886806301], [-0.6880874126476245, 0.1363118077712144, 0.04445435286137871], [0.27356674103174183, 0.5184946316639533, 0.41902775674102133]], [[-0.6424350010584401, -0.02180098540424616, -0.093639536646303], [-1.2461960749798024, 0.25439530411491446, 0.19281307352642296], [1.2600249909737826, 0.3603430619530743, 0.1427813390621302], [0.8519495174564703, 0.11076460253190706, 0.2633332219613103]], [[-0.4352294687627532, 0.11306447475299466, 0.005008503576771888], [1.2190464484868335, -0.80258795042922, -0.7324687730716368], [-0.18549351758707835, 0.33429418158599616, 0.49045354368073296], [0.03668924980673371, 0.5206397593630712, 0.43085678026587315]], [[-0.20681829465558293, 0.04628084372509262, 0.15068837131755253], [0.01156575646461529, 0.42816109839632854, -0.00888885904679845], [0.7968935207006489, 1.14774346243761, 0.5899915340664138], [0.05320657064095186, -0.014613252463220979, 0.5157666978715792]]]