3.621427069549774114e-01
1.414354777208426672e-01
2.107801497646484556e-01
4.358422462471944203e-01
-2.052082512903246614e-01
-1.170794324511870710e-01
5.655580791110685901e-01
-1.607630986733888101e-01
-5.085884491753858150e-01
5.132229102557972489e-01
1.700449052127900040e-01
3.520391709709010386e-01
3.786405799352536294e-01
-1.138483561026678303e-01
2.846629741233160787e-02
4.008869555361983528e-01
-2.065074833136159582e-01
-3.305323323635602217e-01
6.804716029629841179e-02
-7.197896203055324793e-02
1.115843947086742061e-01
6.056713606932720984e-01
1.685374084846603393e-01
2.433185499790887218e-01
4.438552249639777791e-01
2.475395839362212191e-01
2.168975640876416588e-01
2.224293774857599437e-01
2.842911241251717958e-02
2.964719337257978871e-02
3.864618471511375164e-01
-1.263967751633793823e-01
-3.023550051466326605e-01
5.787212565171071521e-01
1.544509381443116280e-01
1.207664742022918347e-01
3.014279310455093563e-01
9.953547375086271853e-02
9.980438659214893593e-02
5.153843988839348356e-01
-2.222973340424679589e-01
-1.097094399570089640e-01
-5.741580201719484466e-03
-3.731611212922455456e-01
-3.188242885682107119e-01
6.034551727535442112e-01
4.472261639312778703e-02
1.685417887171703766e-01
2.355900838120356666e-01
-1.354849570145903910e-02
1.004892832845035999e-01
1.037720326374648450e-02
2.625167445043414260e-01
9.508570875916105836e-02
3.801514396886830349e-01
-5.068828149490604007e-01
-4.371181996302794803e-01
4.961649381345477616e-01
8.513280966273281680e-03
8.016761980753869810e-02
