3.029405681621907265e-01
-4.061307512201222658e-01
-1.921587081056106705e-01
9.599240100380944662e-01
-5.770461693563333494e-01
-4.163769484055885872e-01
3.043391760920333700e-01
-1.331320824550395188e-01
-2.978099491854389602e-01
-4.235832620695268447e-01
-2.973210469397034178e-02
-3.047154731670461136e-01
2.732095115931549856e-01
-4.803545693493994628e-01
-1.008855385197229282e+00
-5.516281010606183255e-01
-2.233887519443049641e-01
-3.406782816158303029e-01
3.119585163262806882e-01
1.082278857148781248e-01
8.278113164681835667e-02
-4.638425813805394093e-01
6.115267610193345083e-02
-1.514722126820854109e-01
1.945614468048160184e-01
4.696332576116581947e-01
3.964787593745605632e-02
1.121599954046269970e-01
-3.939083494766920657e-01
-9.953134393071139119e-02
6.346188375385450886e-01
6.843898134711060566e-01
5.511368301513877022e-01
-6.209771340599479217e-01
6.376551349033106053e-01
4.020010550907221480e-01
1.683873650831553270e-01
2.433229996468662393e-02
1.191605112568931313e+00
-6.885728474668573185e-01
-1.017952657994461774e+00
-8.115502601090316404e-01
4.630642534913267938e-01
8.652864115591639704e-01
5.668903644708715994e-01
-5.739926870056397679e-01
-3.234705762705399057e-02
6.442083389018125050e-01
