-3.767591180530019956e-01
-1.528265861259793801e-01
-5.835880916755781939e-02
-1.124711840923140471e+00
-5.644036857220704334e-02
9.118700706891992580e-02
1.474585263971684324e+00
-3.624330566867526304e-01
-1.203807179024111162e+00
5.441683759319296820e-01
2.334001519812845815e-01
2.009280345384468480e-01
-4.220777609968789368e-01
-2.443895127216516583e-01
-2.499207369809484103e-01
6.275197042549438553e-01
-9.156508842360703282e-01
-9.254065886806300822e-01
-6.880874126476245189e-01
1.363118077712144049e-01
4.445435286137870701e-02
2.735667410317418335e-01
5.184946316639532649e-01
4.190277567410213289e-01
-6.424350010584400916e-01
-2.180098540424615927e-02
-9.363953664630300655e-02
-1.246196074979802448e+00
2.543953041149144556e-01
1.928130735264229623e-01
1.260024990973782621e+00
3.603430619530743062e-01
1.427813390621301970e-01
8.519495174564702955e-01
1.107646025319070637e-01
2.633332219613103153e-01
-4.352294687627532022e-01
1.130644747529946648e-01
5.008503576771888149e-03
1.219046448486833523e+00
-8.025879504292200428e-01
-7.324687730716368250e-01
-1.854935175870783548e-01
3.342941815859961641e-01
4.904535436807329618e-01
3.668924980673370778e-02
5.206397593630711640e-01
4.308567802658731516e-01
-2.068182946555829349e-01
4.628084372509261996e-02
1.506883713175525275e-01
1.156575646461529064e-02
4.281610983963285433e-01
-8.888859046798449487e-03
7.968935207006488941e-01
1.147743462437609940e+00
5.899915340664138030e-01
5.320657064095186267e-02
-1.461325246322097912e-02
5.157666978715792494e-01
