6.924941726948101728e-01
2.884770491451103536e-01
2.327257582826149362e-01
1.050555817670277392e+00
-4.255852400281440184e-01
-4.637133435050467822e-01
7.844784320216579010e-01
-5.435247435995966825e-01
-5.181502610568017309e-01
-7.460219760808057821e-01
2.873068569297371755e-01
2.586988142722965178e-01
7.983342140702875955e-01
4.434790087510843692e-01
4.757941925108796766e-01
7.598644825387148583e-01
1.152674025680255343e-01
1.823353483081437826e-02
1.049178564846375838e+00
-9.824674100353772421e-03
-3.022637345292158995e-01
-7.553559318642809606e-01
2.044643101328288692e-01
2.562723468944561045e-01
8.022832056194243444e-01
4.298063206125841695e-01
3.814028689548636386e-01
6.945142804093674682e-01
5.334049624232306552e-02
6.755087698207115632e-02
5.518393810376905906e-01
1.072929959163102381e-01
-3.033726339584988038e-02
-6.287827618892536385e-01
-7.399307627455853353e-02
1.695676085087289772e-02
6.425452314750108584e-01
4.820283029794980578e-02
4.589428257726886340e-01
8.495406828899566554e-01
1.198635270334868219e-01
1.497962840045369837e-01
9.978811211282635485e-01
2.391190734633046322e-01
2.844785224434255300e-01
-7.053673237617599234e-01
2.854559128119049660e-03
1.294518580781137476e-02
