-5.914744188144923642e-01
-7.649686346825493310e-02
-2.992693336111216795e-01
-3.725312625413328971e-01
7.594355458672234771e-02
-6.009924850063750115e-03
-8.269958614936409047e-01
3.091583398439718966e-01
2.212544757510786775e-01
5.929710702027453095e-01
-8.081338413792087394e-01
-8.145158522872228968e-01
-2.905403815094124709e-01
9.417057982539971117e-02
2.112572245130892035e-01
8.410811568831256801e-01
-5.811831075859225787e-02
-9.413073105918787209e-02
7.232523905177419277e-01
1.046702333749997826e-01
-1.748489672046492013e-02
7.545455311518231012e-01
-3.641813366834304455e-01
-5.654124484975334708e-01
-4.272852537848243482e-01
-3.999580742222134111e-01
-2.694058462782031871e-01
-2.471407112461401212e-01
1.470053395636343463e-01
1.748272845516244955e-01
-6.438917408760578276e-01
-1.747770471428298777e-01
1.789029136346929894e-01
7.186971328757094657e-01
-1.499146340721735082e-01
-2.414251261084601197e-01
-3.943153116281121195e-01
-2.021771947857519403e-01
-1.953185021205700311e-01
1.067341834456595251e+00
-8.624371735420099938e-02
-1.280049612565665462e-01
9.567887650389605980e-01
3.233539066301314296e-02
-2.966649546861896414e-01
6.428542839702229283e-01
-1.638679474896494459e-01
-7.996137482436212196e-02
-2.397633065442801026e-01
-5.658500738479108616e-01
-3.328745288577347194e-01
-3.806446502082249522e-02
7.524142159704302335e-01
6.778397334922124928e-01
-3.300667460666231734e-01
-1.837950017685901216e-01
-6.092371183874332324e-02
5.029878896345065797e-01
-5.443924327267032348e-01
-4.365464640180543032e-01
-4.410232022958665010e-01
-6.574600793777651137e-03
-5.220640757128022225e-01
8.445673417699388619e-01
-1.063916097946916439e+00
2.451531688606051473e-01
1.121641968823148261e+00
5.415203030639605120e-02
-2.714244362852425985e-01
6.059773187650294712e-01
-2.267144927612535152e-02
-5.713153613972040690e-01
