-7.936577797132812195e-01
7.011651999910540889e-01
5.542296971270644912e-01
-1.014545913492143958e+00
-3.613236041712229452e-01
-8.819329017479764499e-01
-8.307094986112399937e-01
4.582667742152913282e-01
1.995623063661767782e-01
2.726291784400382556e-01
2.625300915631078036e-01
3.627064804913336382e-01
-5.348097291895318461e-01
-2.168332390729872661e-01
-2.997759430383537538e-01
-5.869067340747654571e-01
2.269907889101324683e-01
-3.316395208201087380e-02
7.749096016736208847e-01
-1.046778013562984777e-01
1.741307657039946333e-01
2.642756483499835718e-01
1.356197226021127189e-01
1.552028016634965923e-01
-5.472296865647298114e-01
8.224341793428227576e-02
9.125523405406503474e-02
-2.414896404211911429e-01
6.602961078106519555e-01
4.681744276837925822e-01
-5.858009728321296183e-01
-2.508362352904004999e-01
-3.452828554924077253e-01
4.364158559140649540e-01
4.009569650871043778e-01
3.368266603818148019e-01
-5.526764838270475932e-01
8.131657351035791181e-02
3.524210722788273520e-02
-6.867766739375281704e-01
3.538993552202268078e-01
5.314220932543545217e-01
8.275944862677140357e-01
-3.857364591861084380e-01
-3.139203246241167311e-01
3.736588793374506778e-01
2.695384363888058687e-01
3.519750663156111514e-01
-5.619094361863279374e-01
1.218633402220958561e-01
1.899468636407800060e-02
2.750070799301121971e-01
2.990826341211377803e-01
3.531938897109253572e-01
-4.855929564277370325e-01
-4.620795132390792537e-02
-2.238013198471374143e-01
1.150451893720040170e-01
8.858953206534692093e-02
1.553512755665563960e-01
-6.270090189426439364e-01
-4.298043781180503620e-02
4.755784573247302111e-02
-8.147691722804570880e-01
3.318897973767150900e-01
2.901442046270467090e-01
8.762701750181337568e-01
1.059193970917566285e-01
-2.893071520215548947e-02
1.698571686933190161e-01
1.750468309737545497e-02
1.901662232522799423e-01
