[[[-0.39333266562466995, 0.41953431603279384, 0.4572970121505099], [0.01151779411136953, -0.288280533511888, -0.2874784608102902], [0.9891995911980821, -0.3327366948502166, -0.04860276959649169]], [[-0.1216640177304703, 0.2784474279402201, 0.22067798467116598], [0.2027485082742689, -0.18840025181577594, -0.3104081832953092], [-0.014239998835487069, 0.04750886106080729, -0.37568550202184725]], [[-0.058757962391798375, 0.36636473024890803, 0.3970825866469765], [-0.07092969135527037, 0.0741280391406708, -0.1863431821551818], [0.13539992113541133, 0.4921096842682774, 0.40712589674419447]], [[-0.06781822208019776, 0.31772086326510335, 0.41711662068407807], [0.10281081057292377, -0.16404676395422638, 0.2648895727511775], [0.011455151019989738, 0.6479279639825146, 0.6587277696246362]], [[-0.07228351817367161, 0.3769762224783761, 0.3584282602128804], [-0.1445975287931164, -0.5431410750493464, -0.5468573801680885], [0.7570580977925976, 0.39036617660219425, 0.47210853479191817]], [[0.01994754371711334, -0.033695797235193996, 0.3071458558190902], [-0.03211027602564477, 0.18992297047714163, 0.2696959659455218], [-0.12101373856096907, 0.737347579808156, 0.567374244710376]]]