[[[-0.6597387193184031, -0.15717511752248967, -0.08778449743031139], [-0.6912470671468818, -0.4425810662037289, -0.4371841354036584], [-0.6899089808088641, 0.049850019400810415, 0.021711455609109538]], [[-0.6612698045249609, -0.42479199895391073, -0.43816102977768223], [-0.07732545690060752, -0.025982000243173892, -0.15301805823808465], [-0.016875277682399326, 0.09951726190125866, 0.09394387812629543]], [[-0.3409937921626087, -0.19582946156778183, -0.2695927684127488], [-0.6995431837563942, 0.5303817684358055, 0.32131203534018554], [-0.18872840850402475, -0.14972999587651678, 0.013983777821704704]], [[-0.20963717859016182, -0.24774000947499508, -0.1766296647699938], [-0.1782962787609431, 0.21607591782617905, 0.36251145550040137], [-0.374987644993891, -0.3733414247127788, -0.29827006116456917]], [[0.13350401938653905, -0.41658606521216107, -0.38448406545138775], [-1.0369957037253563, 0.21613389001829694, 0.2584146453220849], [0.2744210234121337, -0.4290894441765325, -0.4527992431256637]], [[0.13610672901922252, -0.0031051498849376, -0.4725762929151899], [0.0525682482410017, -0.04453275600252007, 0.1140204384572417], [-0.008694123400607464, -0.49892881667503, -0.44076387035699666]]]