[[[-0.9187108153392047, 0.7229561001759719, 0.6072240247118333], [-0.060915860157130595, 0.7094863789843149, 0.8057884111014725], [0.38696812225825766, -0.2846726480932113, -0.3427693224181401]], [[0.7388117736530659, -0.4542144123002565, -0.29928856769344464], [-0.9804642890532582, -0.3511288869915076, -0.40983285445317985], [-0.845643535851795, -0.002447993998717334, -0.05087461535633768]], [[0.4722895893143639, 0.43193425351218395, 0.2864011298432476], [0.07456721475222727, -0.08755454671732382, 0.04325457206644235], [-0.04553986444528231, 0.04324286670940046, -0.00961836872708696]], [[-0.9671117505408133, -0.7667969409148264, -0.5486212668748508], [-1.116128408305938, -0.22950020677233202, -0.2227469882385971], [-0.7577599615084192, 0.03491138231937704, 0.05655085690137834]], [[-0.011128709968964274, 0.30022717149891226, -0.026944917699469925], [-1.3284824951067589, -0.23052170502652342, -0.12223596310544459], [-0.6734789015888789, 0.02618202111200615, 0.06868860886854655]], [[-1.390477169295322, 0.011222237616633476, 0.1914756867439272], [-1.0875677698464217, 0.7614083316817568, 0.14967433159584964], [-0.4568192766959518, 0.07930277096868679, -0.0038165392355653163]]]