[[[-0.6214685799707279, 0.8450895322136329, 0.6779845818845529], [-0.26289668350381934, 0.5799277888599901, -0.047150615989687755], [-0.43992818079502666, 0.07611131849131678, -0.4339791016368553], [-0.49869884923018426, 0.19361178420580025, 0.33869065242565877]], [[0.1325728698706209, 0.08413206562938323, 0.18939927832487935], [0.40711404526767875, 0.3802621029750338, 0.9355284779398455], [0.015388411516248585, -0.055612789782315826, -0.05445001192131721], [-0.09062536349425114, -0.09186584386090275, -0.019598771044912037]], [[-0.11525163012596314, 1.3914166536740373, -0.1695532253615267], [-0.0417818984174576, 0.1560954655002249, 0.09173137179523079], [-0.21440584420818243, -0.8072016526589755, -0.08763825396162911], [-0.0227828863390176, -0.10507876896246988, 0.2111875676129362]], [[-1.2532221152185492, 0.3701552154727287, 0.006575039055886661], [-0.08087889822612174, 0.25884087965102137, 0.22483746995571194], [0.2075634433792599, 0.019104878553695012, 0.05347396612132266], [0.22824942135917325, -0.9599195568556544, -0.8838223904296675]], [[-0.4168246061014691, -0.7869560585178337, -0.492327616672827], [-0.14238225672326055, 0.12339519689738843, -0.10811413865368186], [-0.5704249438305632, 0.20691003714236167, 0.03984665214983985], [0.9082888243031655, -0.4390573088935374, 0.0007842691364280537]]]