[[[-0.11407277913531008, 0.00986336223821407, 0.3034505352595917], [-0.1822818371277839, 0.2613282535943524, -1.2542428229518976], [-1.0755722639589411, 0.4586329086834194, -0.26874934190908173], [0.02106449269986003, 0.7782916330613795, -0.9087088447228661]], [[-0.046578879052801746, 1.6491962531820568, -0.23636288472697412], [0.3656826494356464, 0.2134395296644994, -0.3841054221470234], [0.011425604722214525, -0.10526436369969813, -0.08073342405314211], [-0.17946912364740006, -0.055604328551119214, 0.020633070159637897]], [[-0.013300961255700176, 1.5009399616248258, 0.016564282705710566], [0.07836032496403209, -0.16871126874289644, -1.431604426705017], [1.8179446362363265, -0.05967030227749233, -0.21459778553941253], [0.6205577465302664, -0.14587226059576153, 0.903143705085472]], [[0.7113927216254553, -0.03821249616973408, 0.6970550480656499], [-0.00567252805516787, 0.6347077053006733, 0.02454343899589407], [-0.9313655646104628, 0.015485964871060125, -0.608594305495423], [-0.0860488780474477, -0.5451162257762044, 0.13795969957009874]], [[0.8160035466081083, 0.011890573262115147, 0.8563777270779799], [0.020813888999105093, -0.17858242056256335, 0.009282866719118562], [-0.36086474095409077, -0.04044266698122474, 0.00909588119350125], [1.3804970745907434, 1.6776606407545573, 0.036341067846220806]]]