[[[-0.1235605959487724, 0.46851537002105764, 0.7077866719880741], [-0.3011395702926676, -1.5399234918858637, 0.38400296963975544], [-0.6043853835572544, 1.6441335739419447, 0.010332949630284834], [-0.34341822372731456, -0.40987071444010836, 0.8410949808468778]], [[-0.15174837388609633, 0.050547624888992206, 0.20710739066568426], [-0.7654135535539041, 0.03157830320295357, -0.7878235239620747], [0.5486821176555317, 0.028097000791885783, -0.2845372082314917], [0.5399544423491237, -0.026546616135518848, -0.1069609156128895]], [[-0.2415393663072074, 1.6164749757503247, -0.05060891148063418], [-0.14213113860106813, -0.0873350011950733, -0.28539495754276456], [-1.602943463086702, 1.5752888850941946, -0.02364519460155748], [0.281887675885593, -0.06427009344675699, 0.4582225376937334]], [[0.9096190153300191, -0.03582753151502655, 0.6659875627223448], [-0.019005749112166778, -0.03592231679566163, 0.11568493758640061], [0.058034457809127464, -0.02024877871377659, -0.21968418411907165], [0.08276087826545873, 1.7669573789990638, 0.1634459547319894]], [[0.7925406414646954, -0.057081738106742476, 0.7974757011691751], [-0.7460764132103147, 0.2758939754300973, -0.745946651611946], [0.7599957787840506, 0.028872487275251976, 0.01957182924388188], [1.5281808287639072, -1.8267450648410364, 0.017435764344284867]]]