[[[0.29217395617162845, -0.43639786994591334, -0.19162930988713223], [-0.016033891952670652, 0.4537646770746461, -0.3959770421778681], [-0.4078411972440156, -0.041420342399450596, -0.11858403302277087], [0.010124482009606346, -0.34040315936965165, 0.08847608301802942]], [[-0.12692591913166093, -0.3618376867373026, -0.08040261277891438], [0.17406810837545053, -0.06791475915522859, 0.2904072657542712], [-0.07628751938540415, -0.10553424623726437, -0.08971252307807721], [0.29740329545836647, -1.0818040507662858, 0.10887581681477371]], [[-0.09818850041252272, -0.0071674044298619816, -0.05110111146897514], [0.12774306606445227, -0.6821559980075969, 0.27506516215727606], [0.6763570877864279, -0.3304413381537824, 0.7892320290022348], [0.4423113770368761, -0.11103684778769635, 0.4154506724282421]], [[0.5074349294080763, -0.31256769905978243, -0.02279315320714878], [-1.032953256230718, -0.6038648646573663, -0.640708798889536], [-0.3975233872413227, 0.4534853433046393, -0.43667444079509793], [-0.2978684937730731, -0.6791688991747055, -0.28557017115419375]], [[0.028757168406865978, -0.1709191493403835, 0.006053333861610475], [-0.2287602020475542, 0.0518552817227584, -0.24146651524218743], [0.8457735873552408, -0.10930809370656142, -0.04704822687396182], [0.47258831425861375, -0.07606125240277631, -0.029278626451248967]]]