[[0.522309165184956, -0.34268246546771, -0.292232950056356, 0.2357130046999446, -0.1873626278179592, -0.2923435821917406, -0.07323603902168935, -0.151382943023228, -0.10725580383011692, 0.3855575278095968, -0.023574821147011187, -0.2334246458762982, 0.5349979578814761, -0.4802260283214045, -0.4541102751923013, 0.5262719772392253, -0.48856491614976305, -0.4871665921109573, -0.17909263278261647, 0.5756333302948565, 0.6121344145826861, 0.20932750796528612, 0.1573605523358577, 0.07653864450595523, -0.6984498060609241, -0.2567200343432497, -0.17618072915221225, -0.6035910760609898, 0.3182873241012536, 0.4933300956491015], [0.5207873484065544, -0.03535159802405063, -0.0737986273024233, -0.3112169661317524, -0.3544499349130255, -0.2354831783517803, 0.14207350847885972, -0.04447560297840932, -0.1160142301486268, -0.17848875584434398, 0.0419494128274342, 0.257667457522908, 0.389570117372847, -0.395530525854028, -0.41629842530957006, 0.40837313701201444, -0.42074139155109436, -0.4374448326954039, -0.7463205959396029, 0.21666057588615364, 0.29899639464245775, -0.07257682580269918, -0.11457270472228631, -0.07305847871547595, -0.8029397314448853, 0.409792705517132, 0.4511932960000993, 0.5325172009611542, -0.338157805293102, -0.27882792797058903], [-0.834320559864658, -0.062118329329359734, 0.10237252204944511, -0.8172717482604753, 0.5008124076975174, 0.4123420550768908, 0.3420558093239716, -0.24955512494796347, 0.474833556011919, -0.6992071297341187, 0.22480483691947806, 0.21772921065236275, 0.01179774900726576, -0.2636787314581931, -0.3103047568125791, 0.27023321859561183, -0.05130569196113248, -0.2151593960537539, 0.5095758325689891, -0.3252359623171068, -0.3182994259781865, -0.01618021860460373, -0.2805383594236776, -0.03058860707002683, 0.21983973995385603, -0.4016184686861037, -0.38507628955872275, 0.7229163724035157, -0.08618987443227054, -0.14484154077844097], [-0.6582022345638783, 0.3178959550031994, 0.22233071680868888, 0.18372032132561406, -0.3807680186025654, -0.3709955929224755, 0.1773803974924281, -0.18212380893684607, -0.0982835089816317, 0.5074642352893891, -0.2884201079770478, -0.3471189373051552, -0.463727377888408, 0.407063190393792, 0.3773191747757852, -0.4017603228523782, 0.4959128491822509, 0.40799499224858077, 0.5216921201359629, -0.10556175283355465, -0.036620208919619604, 0.07665339481445081, 0.31254011920582025, -0.027700075087504474, 0.5525463134785785, -0.22044262050805763, -0.1684764609562173, -0.2960518334273199, 0.48482353495542047, 0.4646764552010217], [0.6925169760351686, -0.33283839507555574, -0.35254236004183775, 0.3428840829232137, -0.25682779139995043, -0.23449511995411615, 0.02428977133784735, 0.2589039594974676, 0.25340334323938246, 0.34823954317317746, -0.32018308565375614, -0.28549293166670414, 0.2927173838007694, -0.3445260157589058, -0.35664603168034736, 0.27920900424946266, -0.4285630283139856, -0.3457695491484826, -0.4065203875624492, 0.426395120371659, 0.5215557781759891, 0.09220776810967685, -0.17725701089559154, -0.012690311826681152, -0.5724049266287076, 0.31481428243748216, 0.28888008870036075, 0.6102652779662024, -0.5564021605399277, -0.5368428151858284], [0.11814970801012076, -0.37146451561976546, -0.2982286400290783, -0.5621130348035566, 0.2685488706629208, 0.2935251219137189, 0.32183959054407646, -0.06754131728581675, 0.20750986062944937, -0.028185508748262467, -0.01114743650783583, 0.027791576767049, -0.43508184872404654, 0.32772779352545717, 0.15883651828587367, -0.3004014349609825, 0.511230466217456, 0.4074503759664072, 0.6945812670248291, -0.4878492443049832, -0.5554344072143683, 0.034798660997677595, 0.07311055742752569, 0.26033478162832446, 0.00015982878888630173, -0.02887230922382768, -0.006872416457843427, -0.03182701108171073, -0.007819332104411332, 0.033699227419256426]]