[[0.33243735013390063, 0.08882861488699924, 0.12591053660193624, -0.11412195794809306, -0.46970691006309595, -0.42547579879267616, -0.4765795223541827, 0.016335087971651154, 0.8424929270031845, 0.23703932906734212, -0.1760464899205143, -0.1771131760611685, -0.32003944335364043, -0.34405175033123303, -0.3279954993685409, -0.29760454944645753, -0.28974805395185355, -0.3414870727728083, -0.3131746304546912, -0.5830666894805986, -0.6072384080642285, 1.0189199402867188, -1.221399306335579, -0.033588376351655534, -0.3488815318996164, -0.2062710702054357, -0.11740245638107706, 0.0915703274494739, -0.3257729027805852, -0.3336942913390647], [0.09396135264474197, -0.30437719646393246, -0.25184946130603203, -0.4050553827070854, -0.28706845494134153, -0.20087140206576182, -1.3170243531683463, -0.7694448953303261, -0.5935538483507883, -0.17184550403728663, 0.019891673056106552, -0.025701891928168363, 0.08680304113659167, 0.051856789100920585, 0.0156973922206254, 0.08112194459822626, -0.004716080950509137, 0.03174168977736292, 0.28910191825367015, -0.24568937665500154, -0.2928485532898655, -0.5688510161264326, 1.0664213457483411, -0.25125271111155617, 0.16178529207627582, -0.4036648830467756, -0.3953148301822099, -0.027193700737748933, -0.0011701964374292292, 0.05148510676549213], [-0.2013486322827327, 0.05489830664592494, 0.0007209793477403249, -0.012557080263546525, -0.2976058875210243, -0.3354725596134921, 1.3618989800646153, 0.14281118092340686, -0.9815721485483963, 0.2811803072522926, 0.1516335983425828, 0.10525908686897707, -0.00468611321262009, -0.007441114450705416, 0.023674360346553295, 0.07007245056011949, 0.00799406246921312, -0.06848630319710813, -0.0007306282110291148, -0.049995945895179056, -0.02036849686642357, -0.7406402524294826, -0.6662664945506347, -0.8285539472966001, -0.2429800361741261, -0.15486484050880045, -0.07551871821611739, -0.04105960802246651, 0.0021767567380882513, 0.04791014464836751], [0.11992796737503449, 0.12143304251817155, 0.15560378465616062, -0.13576843752308465, -0.16347961304361786, -0.05881494231600733, -0.25030555091124096, -0.35260274842915745, 0.8981744593890056, 0.07610557757906021, -0.28996835989256686, -0.2347543477788266, -0.06834812638671275, 0.06326128978000684, 0.09265335998666184, -0.03216846036020196, 0.07155954730501252, 0.07804451640839287, 0.10623450754536874, -0.04648582293063773, 0.04124042491479701, 1.293142450364539, -0.906063282931541, 0.8743888328401823, 0.17051157327260236, 0.04438051246404186, 0.14467260290186273, 0.1431830236457195, 0.15232294930940887, 0.1830291579118769], [0.10612520985886174, -0.21248150862142962, -0.2725074480528687, 0.26116615459208725, 0.012854942843323431, 0.11758257926799609, 0.08054448524700976, -0.8209278334383286, -0.6402864813789744, 0.3846852407019109, 0.12342001304174845, 0.1477144820094247, 0.033832698723423565, -0.1523322893497844, -0.1967276750129083, -0.12114131357000851, -0.09602713329488843, -0.15145968515715613, -0.10195574732177748, 0.11009915767489414, 0.20664979914585213, 0.0429596403545857, 0.6539539003254593, -0.39812986671471895, -0.1926286838476379, -0.16774299293170505, -0.11281778223554288, -0.8149862684515774, -0.24313106250398586, -0.24599177325812807], [0.48691981109945653, 0.012184215685956377, 0.05662478074694512, -0.029109254692015956, -0.16463191936205912, -0.17340089055649838, 0.5621368539385466, 0.9943745170205847, 0.42079959343774614, 0.030917630406762046, -0.04595739368648334, -0.02175993072986641, 0.603703639561012, 0.004001059780086626, -0.12406042648818602, 0.5260030999649072, 0.07213318095146751, -0.05004499996174224, -0.9664009221345198, -0.20338411542028592, -0.24487517207783793, -0.1657163180977376, -0.5046613039330672, -0.523840626486946, 0.010140673089011837, 0.004406801831814758, 0.0171249382955104, -0.038928532045438884, 0.0037776420319017923, -0.03400042856653151]]