[[-0.45730638439297844, -0.644274671083503, -0.5566006128555351, -0.4462843668994393, -0.11241965596460946, 0.1104052077125569, 0.37654891361590515, 0.33861157664259167, 0.23737607070355024, -0.3505461853983223, 0.10463577921580214, 0.12508794578741214, -0.697771050585805, -0.4177542989302436, -0.4274366391091011, -0.7346075361592372, -0.30624039215371196, -0.45389423194271455, 0.2264406043129042, 0.05440342117181068, -0.14115001193850954, 0.09783606283840725, 0.06393732415647192, 0.5302759872199679, -0.21267719647478403, -0.06415095436654812, -0.015729569595939075, -0.7627403618977493, -0.30834536366011284, -0.29487197789663616], [-0.3747907331291649, 0.06363249335441505, 0.05620130876429812, -0.3331078605642676, -0.0978937761858832, -0.09196364192419103, 0.011019836674623683, 0.940955806339731, -0.20515819556391554, -0.3881449011704584, 0.04534334899794968, 0.11330664025555656, -0.34525622729054006, 0.07879650282153138, 0.20050199109936978, -0.5403531192763179, 0.028444999308501414, 0.1718354257592684, -0.7010856573151197, -0.3231944147810742, -0.32387450279170493, 0.06925711791299805, 0.19349382089951864, 0.46992379764806835, -0.6539475360578614, -0.15963674430575953, 0.06495247257994238, -0.7227854516341966, 0.10498930341395349, 0.23765429459893997], [-0.4910387556349953, -0.0045094235482601615, 0.029777388502141212, -0.4226216619921036, -0.44781620088114915, -0.24748119684519648, -0.09785833587611978, 0.4546599873188265, 0.2645670819121754, 0.33268364465385797, 0.01604682506574625, -0.16929185945669567, 0.08318298220677138, -0.07562272621052056, -0.14812736758625458, 0.09539441535854705, -0.022343903201093827, -0.10762965207675157, -0.7200067408585205, 0.15709124826009507, 0.15467627258960992, -0.10956737384183757, 0.3101872319003776, 0.27778227850842996, -0.7324529986614781, 0.4974420890926811, 0.46018481960559177, -0.4398956567651942, -0.579331466197089, -0.5233588762968048], [0.06463100244155505, 0.005355948153255958, 0.024323879260906654, -0.6493800879910983, 0.6406071785639906, 0.5414412954318134, 0.24083103196284242, -0.014716286408266157, 0.2204746584345724, -0.4581128388694863, 0.7429690639184401, 0.6284824477870323, 0.04931354898244878, -0.1110244446348326, -0.08036911948214116, 0.12525160211431424, -0.0008101199883074816, -0.038429756342916156, -0.4667261863407636, -0.5783293880356578, -0.5534294640557444, 0.16100563399335813, 0.09983473712583117, 0.27983864972872396, -0.3729711662979101, -0.5056700901630794, -0.5013118912921347, 0.11889109285769602, -0.01057677675056982, -0.0812023872275938], [-0.3594736548605423, 0.6671230320084043, 0.6620398711681937, -0.4210317682197263, -0.46026312532766156, -0.43753534290110785, -0.0364183308259246, -0.07842592821798682, 0.3516003239635715, -0.678157621154536, -0.259206073060816, -0.22704373499987335, -0.5063390850271283, 0.19936069786808913, 0.3137513792807534, -0.62032279216623, 0.14540364530969438, 0.2736929222231616, 0.009545556532845023, 0.23874129502708563, -0.010874498078099929, -0.18542880503189024, -0.33232781248661236, 0.2433007045881651, -0.6455064123394956, 0.5476591640022214, 0.681219376671528, -0.7524032499024571, 0.4244711116341282, 0.4947402974605625], [-0.4273903180773189, -0.28873183329402197, -0.24635846859580135, -0.5920977373491043, 0.5588685401945078, 0.5750703641083632, 0.24198212236375136, 0.12186550496622778, 0.12101353279696941, 0.005428854311892423, 0.04720665156340745, -0.006813058819671164, -0.48429040336187823, -0.42951297580504355, -0.4067181527760957, -0.37666631470867246, -0.4434086221458841, -0.4360778229421095, -0.7090153315980096, 0.5092972438909287, 0.41887206379950104, -0.07004861112567111, 0.032001459085949556, -0.22983522926762473, -0.038491570635653116, 0.019743749770567167, -0.04861263433837131, -0.004712754481543863, 0.02130582762379142, -0.020461708918844797]]