[[0.19353665299518136, -0.04810827475791644, -0.0416189835542297, -0.5307605862522028, 0.22207451469107234, 0.17719631358724675, 0.9781382243393454, -0.7481382762816925, 0.7683181608756025, -0.44714952618608855, 0.13194564512925094, 0.02731449794363192, -0.12123153369970811, 0.18674596654941464, 0.1636657264341711, -0.14399616032859164, 0.23689241986978943, 0.1280959842110394, 0.5663290441585486, 0.16708508264817779, 0.05910133903870053, -0.7043676382339982, 0.7103748352017667, -0.3296682253957678, 0.23070498067364317, 0.2385644889730448, 0.2762150197282342, -0.3137704301088896, 0.06855383716963181, 0.06065538799494914], [-0.19638304911228546, 0.1007552233805023, 0.08574712797926878, 0.056395057868068886, 0.26216029354396964, 0.23728090510387964, -0.8789197119459689, 0.7773910203784848, 0.7477388765413742, -0.0027196878473737555, 0.4576530532823815, 0.3750271512071673, -0.06178604244650859, 0.09723748604413034, 0.08108145655242621, 0.09785938878769236, 0.08325141650505416, 0.020868488452142574, -0.3526009377679781, 0.029489344035056392, 0.05680722278124675, 0.9982652730824098, 0.8700128645567455, -0.930868802087503, -0.0360200982956461, 0.00032678015251943863, -0.03531454665880554, 0.4670950263540717, 0.13090587380365049, 0.1875311965907476], [-0.046035621942473785, 0.43026621505275753, 0.4119236876089809, 0.0423893151599142, -0.07647026714791459, -0.0014365839686313164, -0.6264259500228226, -0.7594259749744836, 0.6704680610576732, -0.005009365567264492, -0.07718294593407367, -0.053624750716777206, 0.12316315697316818, 0.4443220304636176, 0.4666234300002947, 0.23503973481898227, 0.27465981429867603, 0.44529905422798477, 0.5041755586954656, 0.15402078123321664, 0.10352361881278366, -1.0846275596799049, 0.3871257432542317, 0.7519822617120954, 0.6417844304046814, 0.1529134755183738, 0.12103344393581, 0.018441788418742045, 0.21021348653987534, 0.2710649431644651], [0.11021171794132692, -0.07591718125662625, -0.1439337075238005, 0.5345485280510599, 0.23474524898173207, 0.15820161465996282, 1.1264525489583068, -0.7893697316953175, 0.2334463614630085, 0.24962170448282056, 0.39737485563282066, 0.36978411163240527, 0.22763540361226084, -0.19653591144556373, -0.20909048143278117, 0.2227092757890271, -0.19488015246196613, -0.1953079997520066, 0.21530149235964374, 0.14674233580392482, 0.16386009846132144, -0.7167307253507504, 0.611723253423407, -0.35773770935140065, 0.2681916592052493, 0.35758061362827215, 0.3882680948157044, 0.528037728994504, -0.38913358873255327, -0.3201815867269139], [0.16709718799171708, 0.4093318429498078, 0.4350841178500901, 0.36215421071579434, 0.4062656479468294, 0.3800133547397044, -0.6889090037740919, 1.138460980939933, 1.0213854200005965, 0.5773716260549215, 0.15029901571152562, 0.05452394574545203, 0.4188466858789776, 0.26650968205330994, 0.14582403881402448, 0.2729483630354167, 0.2976082207077582, 0.2080817549944996, 0.6850998124854918, -0.47175375836966027, -0.3983389791857974, 0.875294333838722, 0.3560243796797957, -0.9416856315553926, 0.595251948272819, -0.6501520700122563, -0.5995288893085541, -0.27044209689472565, -0.4090423412703715, -0.3337797643304948], [0.5478951395767743, 0.13833922229242998, 0.16137727405006316, 0.26355965483407195, -0.6108358087007488, -0.6444902840898675, -0.7601372254824664, 0.056666528582001496, 0.28900033635172995, 0.04358578735183584, 0.027270439536585825, -0.002236640346485094, 0.18893119958096835, -0.4356849652301279, -0.48213985233002243, 0.338043041050302, -0.5007188841374872, -0.5064502310417945, 0.3306605447261893, -0.5075802825429581, -0.48802154788061014, -0.8242124217261276, 0.8781188325740169, 1.2065732699405305, 0.014629122919402215, 0.027403715012134292, -0.021643394694094896, -0.018552322354047836, 0.044278186855484125, 0.028327862840770626]]