[[-0.551057045246093, 0.02228438817064699, -0.2145861316197518, -0.7652753066476298, 0.270817827062275, 0.3319336525243367, -0.516075614631179, 0.6535180834997679, 0.6683955984845684, -0.4531035634530369, 0.26601084398729735, 0.2102629407008023, -0.5196208536777507, -0.013934046252929443, -0.12191741289643027, -0.5974217404843866, -0.01718073515271564, -0.08633951392523298, -0.11931727820767295, 0.5974045330839636, 0.5932572314640041, -1.139536972071223, 0.8428363217392376, 0.44824606030645303, -0.22386399084048778, 0.2920463228893498, 0.3088022695234808, -0.15795223516871296, 0.043852049843213795, 0.017660821864836133], [-0.46992144217348564, 0.25129958450170026, 0.221904068936969, -0.6674643325043376, 0.2899542283042619, 0.339952958515099, -0.542195728219482, -0.9330936387554394, -0.8523599621804183, -0.4172405532237492, 0.0037584519317294942, -0.08943303498450744, -0.5275874852818858, 0.06198864883568371, 0.04712326166528819, -0.3437042107927252, 0.1447047099413366, 0.12393038523877539, -0.20877706127526813, -0.030825849382794923, -0.02298018429239267, -0.48444702720988864, 1.007262627965172, 0.8829217903951155, -0.06679851455498284, -0.17703704847057375, -0.1738185944666089, -0.242742041556114, 0.06855720849348647, 0.09834540658486181], [-0.13203408363261643, 0.05110559485009258, -0.03831267549661786, -0.10975822113731747, -0.1582407980195277, -0.20124281083284462, -0.9489714204619043, 0.269327577413803, 0.5622794315226958, -0.18860307364145856, -0.19323242724516906, -0.19882719505687255, -0.06846795203431014, 0.012072342577088986, 0.07954180970058658, 0.0886281826217827, -0.07407943749537352, -0.04017417442713331, -0.19869058790320185, 0.14516634979759108, 0.12228557960819451, -0.8890416762700284, -0.9278812280270472, -0.8788898714101886, -0.29537564922556564, 0.08295198971087706, 0.09673287834445929, 0.02435815684751857, -0.22606386036928564, -0.1755072428931121], [-0.2593544652711603, -0.27882219206465725, -0.2711431292615298, -0.1403846931287896, 0.028288684208629723, 0.09167049846745673, -0.39789422106202027, 0.8358332223358089, 0.9771366908415258, -0.2977209427700751, -0.1341004582385492, -0.1587328889012385, -0.20533718720804492, -0.2481214110392835, -0.25923679184793297, -0.2935024350418864, -0.3191656751127061, -0.314717000628722, 0.0741098694555125, -0.2706971279031396, -0.20831298884464258, -0.9345916908854645, 0.3885897291118309, -0.3543756663913167, 0.3172116359190975, -0.2615521643775684, -0.21996603048529798, -0.3977265416123444, -0.2827821041130248, -0.26923909663857776], [-0.3377431503928236, -0.17465952226662315, -0.16157100641755587, 0.27614265215699474, -0.31793770013978606, -0.2541531016551267, -0.4495183499633471, -0.8824517436079006, -0.6445880677075242, 0.04121966710786766, -0.028509703754495748, -0.015873960161530608, -0.40864955434068395, 0.06512701600047346, 0.05379095896652597, -0.27925712535313585, 0.0654043821607499, 0.0786038873247922, -0.39658906459380555, -0.31316248924957013, -0.3019442779998088, -0.12229838537958693, 0.9279544542487055, 0.23542512095016985, -0.0015268943434554878, -0.0013706029827061559, -0.04639971660831114, 0.039389146033698884, 0.019918748504886046, -0.018835993829616832]]