[[-0.5042114646736578, 0.2984632772756583, 0.22817202813577311, 0.15004360892014357, -0.6256698112811794, -0.654364991278162, -0.0025122086354801166, -0.2964006075127233, 0.06520963249383632, -0.36788999620823853, -0.47907702280324727, -0.5288603638781724, -0.4079778298974885, 0.15772196312165876, 0.18714522225351238, 0.4594496287644017, 0.16943706595687216, 0.1386476492894187, 0.16046841997278039, -0.4607237523567032, -0.2800247924952486, -0.24269247704584132, 0.03416376512303995, 0.1676066335124956, 0.12201311953705586, -0.48431772937408096, -0.4431126360792242, 0.7778505484580472, 0.03206050981087634, 0.04549593487708223], [-0.7285433303494004, -0.4470355920152232, -0.507011174872619, -0.03774532086906853, -0.47808347796554573, -0.45453356260093336, -0.12050994893369363, 0.279840274038134, 0.17649037975308982, 0.5031360275425218, -0.26465091927153983, -0.1940771799046536, 0.2829096294737332, -0.33719327894122464, -0.32380728382156987, -0.36830899284615654, -0.3717123324795053, -0.427582412775644, 0.6840930669323833, 0.09544150124755271, 0.002135049257614577, -0.015458768472362331, 0.16815122127211135, -0.16625250988280313, 0.634739091162694, -0.013761445568283036, -0.009356441088533334, -0.1706754838710431, -0.3723233004820318, -0.4156793340309311], [0.4465115650466909, -0.2838584859779236, -0.22364275430422417, 0.5887567572729921, 0.015631327526372925, -0.003350133477403608, -0.07714767257717199, 0.04022142636634263, 0.20054361153735958, 0.6077922426938117, 0.10604449339451341, 0.04858511215059862, 0.07014319929764691, -0.3867623641297546, -0.41012036408674696, 0.016346974910655163, -0.4849230921282837, -0.4666657171699928, -0.19391225945986573, -0.3720718432666837, -0.3458358925291884, 0.09590027503009681, -0.3776938788450124, -0.25584777206072185, 0.07016901399508102, -0.3433517946239392, -0.3945630176958828, 0.14957352365103885, -0.2951153582372028, -0.25400462985909905], [0.40963385651098044, 0.4191997921405768, 0.17270356218976193, 0.10875142335231298, -0.30187610337638127, -0.35688704977978064, 0.04326191985468013, -0.17097202791023794, 0.06596908789018598, 0.41037718982310917, -0.15333563916715853, -0.34699239097270645, 0.4328213327833012, 0.07315030942162512, 0.16820971160344414, 0.22178195819583077, 0.09009093434838329, 0.08341695338071455, 0.22765159513482236, -0.28322819302062274, -0.23191182964259038, -0.19885844115456286, 0.0203401886530346, -0.04906733723242663, -0.04759484554795502, -0.12107026498209308, -0.1774181114928347, -0.9944325703840798, 0.4891170809765349, 0.6258517607023025], [0.5582222838990776, -0.06905359692970058, -0.19010021540891242, 0.09391071637294136, -0.10837260381414406, -0.1323228722172706, 0.14090659341572187, 0.41619068032760964, 0.01984618588209885, 0.0157527649531484, 0.007408062390519639, 0.03937474728295592, 0.708716353628478, -0.45370811972569886, -0.4750101109492038, 0.7340020268693853, -0.48738679624737635, -0.4210954692176934, -1.2060699657442324, 0.45079811934531355, 0.4612789287046337, 0.1486520800711483, 0.2881130514775308, -0.3298477941097763, -0.03134194577497372, 0.006314157590397089, 0.0050412402087927095, 0.027256523018451197, -0.04700555660172014, -0.014419188117674385]]