[[-0.3472843565883277, -0.19980150414686929, -0.32210576088698645, 0.28684456306523565, -0.36793213653452406, -0.3617639512883427, 0.8322233021686309, -0.20218910598453824, 1.2105555466446933, 0.011339815743560515, 0.31070867443562566, 0.2839578774511697, -1.1641666936511028, -0.10490853170238953, -0.014938822633675313, -0.8284343892385974, -0.2957179880017873, -0.0982371055485559, 0.12840801709681623, -0.5451518083137532, -0.3906805052195465, 0.6140868993612736, 0.7538150717343925, 0.3982532535618683, 0.63934432278412, -0.40319077141991294, -0.43184242114874893, -0.6200774041151172, 0.12035961375974995, 0.10235899476271698], [-0.024343051389058654, 0.3618430638747851, 0.3394839018608842, 0.3564027643657565, -0.5104892878934268, -0.4453059933756489, -0.9673851462699227, -0.10547648017116218, -1.1543430516716138, 0.33998200371782694, -0.06582840243252785, -0.045722030201655474, 0.1582733384177143, 0.41326818763656764, 0.42142838579228514, 0.2865668140590352, 0.48187712578174735, 0.456180453770041, -0.3863843286360775, 0.1472369745324288, 0.1163445136286281, 0.8151865443655996, 0.9913544376651341, -1.165176233448239, -0.08582109030145822, -0.1606107616838549, -0.09450415234977112, 0.1278814311712614, 0.20665181379988712, 0.22685067091133643], [0.02748564156721453, 0.024848233489088142, -0.047103091733318066, 0.14185209191954642, -0.08653028785681166, -0.07939288331925291, 0.287934430186651, 0.6101805925872318, 0.8559447257565352, 0.22581182836344224, 0.26247748597697024, 0.07888823441788616, 0.17860371930954638, 0.08053052151170412, 0.09074353956314589, 0.12501484797100407, 0.14375643158666096, 0.11438910057253242, 0.24629156035677677, 0.24575020390139218, 0.2021563852494815, -0.7464344178471012, -0.2918343393050234, -0.6899090946168432, 0.2619684601727762, -0.2121356187543373, -0.07842862111967991, -0.80312437605932, 0.06500122944763322, 0.14657827985190036], [0.11163881324340173, 0.4911168976829041, 0.34523819173480125, 0.3151671230496709, -0.15305264795082535, -0.18983232679881534, 0.6645213119010113, -0.925741514190391, 0.017802993573011593, 0.5913867009785045, -0.3283754766923449, -0.5236421118889018, 0.0604534254369366, -0.0050321184530545925, 0.06599788968144518, 0.16762679462642552, -0.010711850133943827, 0.08837503384500948, -0.7900920437780549, 0.10178728190313381, 0.06490620589878184, 0.2924030277045728, 0.5605740911078639, 0.9935653428086431, -0.47829373249514767, 0.6965912139986771, 0.723116027665936, 0.26179264459561763, 0.029301139030132886, 0.07962571053810201], [0.9134948026750627, 0.1377421654653498, -0.2882650564834772, -0.2090564938381931, 0.6642399536186534, 0.6814116880751385, -0.9141967406456669, -0.2801569779041272, -0.7762840917275242, 0.01434428797940874, 0.02150563159941762, 0.049377945799238626, 0.6676086526636572, -0.09343541584960467, -0.03888757865898426, 0.5975451920074744, 0.0395025496518208, -0.09045539916154881, 0.13498049279242447, 0.3552359435359311, 0.11892448535643331, 1.1506702758171607, 0.004868647694926854, -1.0161184484738615, 0.004055816190658421, -0.0362225392796663, 0.030347763694075526, -0.027235867737540474, 0.04601460474451883, 0.03347581818049875]]