[[-0.2915801600195713, 0.02607029307842017, -0.1387794186553822, -0.5816405906932479, -0.43487125415183536, -0.4947992574336816, -0.673823599943149, -0.36027529970464756, -0.3333342275189151, -0.10520688459764635, -0.5660119661610541, -0.5798475444186761, -0.526289219040507, 0.15959460914472104, 0.19486351056938725, -0.7039518241364903, 0.312403022459274, 0.15807896674398245, -0.778505853831058, -0.7616328182714959, -0.7793435426807606, -0.20100326880424432, -0.15437722396460998, 0.17962999194856058, 0.16367398581913517, -0.5963747511306118, -0.6253285627961205, -0.6042452897221302, 0.5320157703218028, 0.501847378074602], [0.20419046944495214, -0.5002851497317863, -0.5812864185814282, 0.37683755334508184, -0.5073274105196666, -0.577163208238569, -0.15398724584243062, 0.15299204990162757, 0.06328503441332292, 0.46458980028523844, -0.3276887732153826, -0.3499474256452257, 0.7170116551364554, -0.09884982972139238, -0.08288175583395406, 0.7632607566666815, -0.29684504453082877, -0.15187619885439363, -0.5073879298350253, 0.5217617476208323, 0.5577931344983772, -0.2845027289435043, -0.3228513142895814, 0.2915267105074039, -0.08392365103209443, 0.5470292965141549, 0.5830921958475902, 0.2719082292738988, -0.15817947688527104, -0.20270242572112002], [0.5102914634639123, -0.2983951155476822, -0.3553003359433779, -0.22570127100666973, 0.5082134744925276, 0.6078587326446447, 0.035387361661069046, 0.18764718307370187, 0.4157831209280442, -0.3747058816748218, 0.3168681009159051, 0.35164526615197794, 0.29798823838540356, -0.23126435242359097, -0.2012914698392507, 0.04575331760564938, -0.24426528722574442, -0.2739201703380343, 0.258242721525958, -0.24384733130347683, -0.17664278174832454, -0.24207143721868496, 0.0932613365242514, -0.3375697379597106, 0.017917203797882232, -0.11054264120574532, -0.10979652011099326, -0.2910094974024674, -0.3652789639946799, -0.2920562308627701], [-0.6018224747479791, 0.28757216741697506, 0.33815029481282305, -0.08814519735581618, -0.14215124886155797, -0.1870193835035646, -0.0003694239337622626, 0.22190324360020078, -0.514380305038283, -0.449109585271421, -0.24365167471603508, -0.26692231610799494, -0.48338825619991754, 0.12534451377922268, 0.1001813776850041, -0.5901764348120508, 0.27302598251128846, 0.16450528606638065, -0.5228917115973517, -0.3556297547553234, -0.3726791728471548, 0.1044714225423959, -0.44183445243344677, -0.06551749368065025, 0.06746344850537046, -0.3252166989304829, -0.38089279671837234, -0.38852090843768605, 0.42896145192359725, 0.3057639195980653], [-0.4625008265900289, -0.3287213935181106, -0.25633385208225756, -0.07378263297816699, -0.3248410855973477, -0.33458012856796965, 0.19093758409136466, 0.08074123017614104, 0.6838723774438371, -0.03292290158192303, 0.0037541378784854158, -0.003246489044594031, -0.36100953995228924, -0.19564030948053313, -0.26976512464044017, -0.2005077123730471, -0.22562481556103225, -0.2276429552218224, -0.3300241305642947, 0.5076012027264144, 0.429350665708161, -0.22189744425284175, -0.07469164448880608, 0.36545825462446974, -0.01778858377807911, 0.04613619034905141, -0.03554012032959555, 0.048228425623990344, -0.04252292521410987, 0.0007335559565867675]]