-3.933326656246699526e-01
4.195343160327938414e-01
4.572970121505098851e-01
1.151779411136952952e-02
-2.882805335118879819e-01
-2.874784608102902150e-01
9.891995911980820955e-01
-3.327366948502166188e-01
-4.860276959649169337e-02
-1.216640177304702947e-01
2.784474279402200936e-01
2.206779846711659776e-01
2.027485082742689071e-01
-1.884002518157759376e-01
-3.104081832953092257e-01
-1.423999883548706866e-02
4.750886106080728921e-02
-3.756855020218472507e-01
-5.875796239179837538e-02
3.663647302489080326e-01
3.970825866469764875e-01
-7.092969135527037172e-02
7.412803914067080113e-02
-1.863431821551818079e-01
1.353999211354113275e-01
4.921096842682773920e-01
4.071258967441944709e-01
-6.781822208019776255e-02
3.177208632651033482e-01
4.171166206840780655e-01
1.028108105729237665e-01
-1.640467639542263767e-01
2.648895727511775267e-01
1.145515101998973752e-02
6.479279639825146209e-01
6.587277696246361947e-01
-7.228351817367160981e-02
3.769762224783760884e-01
3.584282602128803785e-01
-1.445975287931164088e-01
-5.431410750493463890e-01
-5.468573801680884916e-01
7.570580977925975841e-01
3.903661766021942481e-01
4.721085347919181663e-01
1.994754371711333907e-02
-3.369579723519399578e-02
3.071458558190902077e-01
-3.211027602564477113e-02
1.899229704771416283e-01
2.696959659455218095e-01
-1.210137385609690724e-01
7.373475798081560173e-01
5.673742447103760078e-01
