-6.060886321095112494e-01
8.112107224079534440e-02
2.782960273009994767e-02
1.285486788935856328e+00
2.708918874840559043e-01
-4.309974922541215947e-01
-5.364888842708535055e-01
-9.804232867454348854e-02
-6.361291575824855604e-01
-4.814322751652704846e-01
-2.657962446580929179e-03
6.466776145334544867e-02
-6.730926966143587764e-01
1.086840630694215770e-01
3.540551301881831869e-01
2.118679990651586506e-02
2.128068879533832336e-01
1.456557212931171852e-01
-4.479963483924230272e-01
-2.530055129087367405e-01
-3.508698678741398874e-02
9.708055249355482808e-01
1.527206333480049805e-01
1.473864776421169587e-01
-4.795471400520527894e-01
3.083088830634129751e-01
3.166687286818403169e-01
-4.649138535103178316e-01
-4.404119584915348606e-01
-4.342960173209663988e-01
-7.673045345986758692e-01
-5.210634873324357930e-01
-4.180173404369668666e-01
2.625089601036830200e-01
3.402713174698533960e-01
3.662109770895243255e-01
-1.047453610100209875e+00
1.002260325939129289e-02
-6.443705223594593523e-01
1.301764740217467686e+00
-8.319368413666552442e-01
-5.373597977102783085e-01
4.856872712346386733e-01
7.029481348285665510e-02
1.582063798331987403e-01
