2.286035383324688253e-01
-2.100878373369357566e-01
-2.488708306555834637e-01
-1.174391040050291046e-01
-2.634556678329753043e-01
-5.201045677690796509e-02
-3.022445905379866349e-01
9.810215666496424625e-02
-4.257382943070753822e-01
4.368130044896129660e-01
-6.061665451835394069e-01
-4.474027384665877904e-01
1.830556124532686790e-01
3.233314543795030582e-01
2.459404600849812716e-03
-7.704493139368437937e-01
3.400863570855147677e-01
3.427357382180278300e-01
8.952434060149999651e-01
-4.501856095445003203e-01
-4.758134628856118264e-01
-3.524986682485783951e-01
7.529863574751057831e-01
5.342192007536298304e-01
-8.646692121636659900e-01
2.544986341085053727e-01
2.695372669269436861e-01
8.181746331069289502e-01
-3.641976289061565897e-01
-5.512823987594401842e-01
5.640172341349229679e-02
6.452351534992718518e-01
9.264905778719236817e-01
-7.435528715936577937e-01
1.920146014503133491e-01
2.481837254346960508e-01
3.773294894902275987e-01
4.331656907840498311e-02
-1.054076224753791452e-01
1.799466904854087612e-01
1.038716319882350358e+00
8.943902447887039919e-01
-1.972610658497238878e-01
3.450217730618401757e-01
2.664356647382682963e-01
