-3.123803587957595385e-01
-2.063898127902121793e-01
-2.714219954033306736e-01
1.189250981277718333e+00
3.862401834499495368e-01
-6.552408550732552461e-01
5.345304311054476232e-01
-1.724425128016900122e-01
-2.903369438170539385e-01
-1.335398769898495652e-01
-4.948122957477730788e-01
-3.812793713247902283e-01
-1.156925730545186048e-01
-3.904101535996251093e-01
1.611409317295330601e-01
4.926505596922750030e-01
7.094134527213108443e-02
1.988119880145702498e-02
-3.617245333473038671e-01
-3.972584828278896696e-01
-7.558710070034034834e-01
6.158193963312039720e-01
4.101293420843830084e-01
-1.383795069002748679e-01
2.806336141224817227e-01
-1.823618174882122613e-03
6.495932939340801071e-02
1.236372820471381140e-01
6.272406892439655879e-01
2.981715820770157177e-01
2.583513095241570245e-01
-6.141509710814117007e-01
-7.670379530405613266e-02
2.646488821397818270e-01
-2.556547496860027691e-01
-5.715445009686015432e-02
-1.166601749689091916e+00
4.518174640935507247e-02
7.295709975856546903e-01
1.224876922707548887e+00
5.869441350137893920e-01
-1.931697932725697231e-01
1.100506138008361112e-01
-4.167065019209173493e-01
-4.066396149686162254e-01
