depth 1 CE 5
-6.727877300272810945e-02
3.491759251101011347e-02
-8.864772698306332410e-01
3.761537212979791378e-01
-1.370560228116178836e+00
-7.443154062082384392e-01
-1.585783889641922614e-02
1.115789560256927881e+00
8.007129420085491445e-01
depth 2 CE 5
7.225194754721477874e-01
2.276026203553524141e+00
-1.393703133739621514e+00
-2.576721743669020959e-01
-3.402366990483594034e+00
-3.371742646849375635e+00
3.491909404493675595e+00
-1.570730469613492275e+00
-1.573756171373877244e+00
-5.521281350789740694e-01
3.147670765317582726e-03
4.553922420547137584e+00
1.598107917666685140e-01
-2.201503015139383290e+00
-2.759922858860750505e+00
-3.014769046946552677e-01
-3.545145555890682143e+00
-2.546992479387874653e+00
depth 3 CE 5
8.692214053263257467e-01
-8.390679334104912679e-02
-1.410586277074304395e-01
2.572002449179732614e-02
-3.812227829130916679e-02
-5.236307204503951596e-01
2.382459772848994350e-01
4.488771061603872292e-01
2.975563882636296786e-01
6.817771432160725231e-01
-3.511308673594881746e-01
-2.702248971753974938e-01
2.663512387276263937e-01
5.226472396865211589e-01
3.847009965962698841e-01
-7.281120676594430297e-01
-2.123976796466353067e-01
2.198310831959223721e-01
7.871725950213130929e-01
3.448786899246825827e-02
-4.886493658816672969e-01
2.242405840227588154e-01
6.689610996902942697e-01
4.463926462958009989e-01
1.064744430842568867e+00
-5.830351707173381248e-01
-5.734461077593389078e-01
depth 4 CE 5
-1.976454391271496580e-01
5.785843615464503209e-01
7.766800932202481134e-01
4.377944762374801346e-01
6.417993806589208372e-01
6.209599476591308731e-01
-3.892074327452098581e-01
1.361403516567721572e-01
2.833790333918550022e-02
-1.160449302271750610e-01
3.697481292888036841e-01
3.598304027723525644e-01
-1.530679011232251030e-01
3.119982347098577691e-01
3.371150403772162907e-01
4.025590194647529763e-02
1.067609551279102009e-01
1.368891516414157128e-01
1.468733524833724380e-01
3.786286870207356547e-01
3.529913913783045976e-01
1.870302458723173133e-01
3.260931612814030878e-01
2.330597000470617519e-01
-5.426989126963670945e-02
-1.867172375361681597e-02
-8.099599270507894244e-02
1.292307543327695929e-01
-2.395184465896692261e-02
3.664856560840512589e-01
5.595549114662618645e-02
5.435543957145946292e-01
5.772203414959548029e-01
6.184639056109790534e-02
-3.395340682328306103e-01
-1.429942433143069624e-01
depth 5 CE 5
2.286035383324688253e-01
-2.100878373369357566e-01
-2.488708306555834637e-01
-1.174391040050291046e-01
-2.634556678329753043e-01
-5.201045677690796509e-02
-3.022445905379866349e-01
9.810215666496424625e-02
-4.257382943070753822e-01
4.368130044896129660e-01
-6.061665451835394069e-01
-4.474027384665877904e-01
1.830556124532686790e-01
3.233314543795030582e-01
2.459404600849812716e-03
-7.704493139368437937e-01
3.400863570855147677e-01
3.427357382180278300e-01
8.952434060149999651e-01
-4.501856095445003203e-01
-4.758134628856118264e-01
-3.524986682485783951e-01
7.529863574751057831e-01
5.342192007536298304e-01
-8.646692121636659900e-01
2.544986341085053727e-01
2.695372669269436861e-01
8.181746331069289502e-01
-3.641976289061565897e-01
-5.512823987594401842e-01
5.640172341349229679e-02
6.452351534992718518e-01
9.264905778719236817e-01
-7.435528715936577937e-01
1.920146014503133491e-01
2.481837254346960508e-01
3.773294894902275987e-01
4.331656907840498311e-02
-1.054076224753791452e-01
1.799466904854087612e-01
1.038716319882350358e+00
8.943902447887039919e-01
-1.972610658497238878e-01
3.450217730618401757e-01
2.664356647382682963e-01
depth 6 CE 5
-3.933326656246699526e-01
4.195343160327938414e-01
4.572970121505098851e-01
1.151779411136952952e-02
-2.882805335118879819e-01
-2.874784608102902150e-01
9.891995911980820955e-01
-3.327366948502166188e-01
-4.860276959649169337e-02
-1.216640177304702947e-01
2.784474279402200936e-01
2.206779846711659776e-01
2.027485082742689071e-01
-1.884002518157759376e-01
-3.104081832953092257e-01
-1.423999883548706866e-02
4.750886106080728921e-02
-3.756855020218472507e-01
-5.875796239179837538e-02
3.663647302489080326e-01
3.970825866469764875e-01
-7.092969135527037172e-02
7.412803914067080113e-02
-1.863431821551818079e-01
1.353999211354113275e-01
4.921096842682773920e-01
4.071258967441944709e-01
-6.781822208019776255e-02
3.177208632651033482e-01
4.171166206840780655e-01
1.028108105729237665e-01
-1.640467639542263767e-01
2.648895727511775267e-01
1.145515101998973752e-02
6.479279639825146209e-01
6.587277696246361947e-01
-7.228351817367160981e-02
3.769762224783760884e-01
3.584282602128803785e-01
-1.445975287931164088e-01
-5.431410750493463890e-01
-5.468573801680884916e-01
7.570580977925975841e-01
3.903661766021942481e-01
4.721085347919181663e-01
1.994754371711333907e-02
-3.369579723519399578e-02
3.071458558190902077e-01
-3.211027602564477113e-02
1.899229704771416283e-01
2.696959659455218095e-01
-1.210137385609690724e-01
7.373475798081560173e-01
5.673742447103760078e-01
depth 1 CE 15
2.557961825178562965e-01
-2.569313009582745166e-02
3.496298122704191158e-01
-8.008202945248915627e-01
3.890589672550257561e-01
1.005913270442692964e+00
-5.654821586267592126e-01
-8.631313830584194102e-01
-9.006664257557746023e-01
depth 2 CE 15
-6.480724124662698982e-01
5.853122404952219027e-01
1.230838282520887728e-01
3.624562286766128683e-01
6.627389189037724559e-01
6.837788080835025539e-01
-5.936012556188655642e-01
-3.485595096051092856e-01
-3.098233479051180628e-01
-1.541907073606728906e-01
-4.687878976079549315e-02
8.008511734122599757e-01
-6.107181093431971464e-01
7.729456894061857986e-01
7.398539215333411745e-01
-3.176807411718959306e-01
-4.176019503213188044e-02
-3.584804619942141279e-01
depth 3 CE 15
-1.204154978996834213e+00
-4.242693825931933560e-01
-1.158321805294978829e-01
1.544682682664726692e-01
-6.148021357219124461e-01
-7.224562959182458943e-01
-7.149629600358781145e-01
4.064883975245675574e-01
3.113687404133590464e-01
-8.336469276161142528e-01
-2.463978310748076231e-02
-2.209530147293775337e-01
4.209831921945356714e-01
9.644680320590810485e-01
7.128850105962590833e-01
5.995947002897394906e-01
2.794825749660405645e-01
3.540677389396180708e-01
-7.420188839063243114e-01
-2.728957410279625115e-02
-1.548377250446917874e-01
2.729849389442101093e-01
-1.310580490351964889e+00
-1.018020123997951165e+00
-4.699302790838290056e-01
1.830729736414626885e-01
1.684068034234761924e-01
depth 4 CE 15
3.808258105462707932e-01
4.793304982479767995e-02
5.451068632119383806e-02
-1.274758843340175474e-01
5.970719028202522427e-01
2.901737512933717511e-01
-7.280673401507229414e-01
3.825577776824726217e-01
-2.711607025464823351e-01
2.439419859345874075e-01
-1.002052304684618145e+00
-8.103023064240981732e-01
-3.539472623142173036e-01
-8.550621601915860126e-02
-1.710814523576265622e-01
-3.875034256174592628e-01
1.872889153750158242e-01
5.323621420840476404e-01
-9.502872385291838420e-02
6.084597599952497049e-01
4.385829257718318330e-01
6.939324124329271024e-03
9.181070432211944563e-03
9.560668641048271355e-02
-7.975018942973469138e-02
8.850495856231901937e-02
1.344653908368696194e-01
4.320712799565716578e-03
-3.580917209592186096e-02
3.329007251496267639e-01
-4.180552494998481250e-01
-1.211557065280015166e+00
-7.600268801614160630e-01
-7.756532167765141372e-02
2.077225107779214763e-01
1.728304915654136076e-01
depth 5 CE 15
2.972252157776102410e-01
1.628122313596686577e-01
1.928779910646711560e-01
6.319981496240525409e-01
-2.163093468252453300e-01
-9.367498197988806397e-02
5.141031640101558775e-01
3.339020805845264728e-01
5.215683823024716004e-01
-8.211102488748458494e-01
4.017990204245284191e-01
2.987167297872700966e-01
-3.047459574812278471e-01
-4.990123556515061419e-03
-2.075596961283096564e-01
-3.292747668278621087e-01
4.379395558816274181e-01
2.733692182219683020e-01
-5.284738637350163692e-01
2.127893372371011116e-01
2.788003157036804680e-01
-9.621034796937727451e-02
2.317084941724475988e-01
2.156676441316141279e-01
4.239588408738467762e-01
3.078784626280481329e-01
4.376329785971264652e-01
-6.093086664640666728e-01
1.128962110639532973e-01
2.139381697235558655e-01
-1.793830899204037488e-01
-4.083850476255482809e-01
-1.511421536353460549e-01
-1.339787891284284216e+00
4.249309443374570949e-01
2.966409500422262369e-01
-7.894266185378435718e-01
-3.105975875227898891e-02
1.040190841997045701e-01
2.698408701039233804e-01
1.348851995684134053e+00
5.073400599907472719e-01
5.733211439960993472e-01
4.738085552811356904e-01
5.562541331905147546e-01
depth 6 CE 15
-6.597387193184031107e-01
-1.571751175224896657e-01
-8.778449743031138675e-02
-6.912470671468817773e-01
-4.425810662037288901e-01
-4.371841354036584137e-01
-6.899089808088640918e-01
4.985001940081041499e-02
2.171145560910953815e-02
-6.612698045249608692e-01
-4.247919989539107322e-01
-4.381610297776822316e-01
-7.732545690060751986e-02
-2.598200024317389237e-02
-1.530180582380846477e-01
-1.687527768239932557e-02
9.951726190125866067e-02
9.394387812629542700e-02
-3.409937921626087221e-01
-1.958294615677818318e-01
-2.695927684127488178e-01
-6.995431837563942379e-01
5.303817684358055340e-01
3.213120353401855422e-01
-1.887284085040247528e-01
-1.497299958765167804e-01
1.398377782170470360e-02
-2.096371785901618157e-01
-2.477400094749950821e-01
-1.766296647699938105e-01
-1.782962787609430888e-01
2.160759178261790481e-01
3.625114555004013694e-01
-3.749876449938909784e-01
-3.733414247127788133e-01
-2.982700611645691668e-01
1.335040193865390523e-01
-4.165860652121610719e-01
-3.844840654513877465e-01
-1.036995703725356321e+00
2.161338900182969425e-01
2.584146453220849127e-01
2.744210234121337022e-01
-4.290894441765324974e-01
-4.527992431256637196e-01
1.361067290192225221e-01
-3.105149884937599952e-03
-4.725762929151898772e-01
5.256824824100170268e-02
-4.453275600252006722e-02
1.140204384572417046e-01
-8.694123400607463650e-03
-4.989288166750299736e-01
-4.407638703569966565e-01
depth 1 CE 25
1.050899244785121978e+00
-2.669895627457952170e-02
-2.511820640333052523e+00
1.092856188298893638e+00
1.781388826897179811e+00
-5.758543626640875157e-01
1.179963558269114365e+00
-3.509075362198310066e-01
-6.649107829760629862e-01
depth 2 CE 25
1.078092039652595258e+00
3.538855812727333405e-01
-1.062907677260294781e+00
-1.247009194163637869e+00
-7.875354269087775361e-02
-2.029465691373782271e-02
-6.267816316368753915e-01
-1.175872149217688650e-01
6.001064877838571121e-01
9.813180170457203033e-01
-3.843972378240782632e-03
1.271446302051073118e+00
-1.166502794454524983e+00
7.002528172646556026e-01
-6.682577878852233311e-02
1.237859001422968008e+00
-1.073908869060275384e+00
-6.590239562700526132e-01
depth 3 CE 25
-1.192567194260707453e+00
5.402146023184212220e-01
3.313763733940426337e-01
1.049669725570422596e+00
4.756265973996702812e-01
3.460434668127561064e-01
3.658390129609097041e-01
1.327449025941685179e-01
-5.029174893998961809e-02
-6.497329150915518436e-01
-1.608403920385093056e-01
2.043642517908681594e-02
-1.281359763748083136e+00
5.340362868686823750e-02
-2.589144724249694551e-01
7.490985155628285819e-01
7.904385122648678597e-02
1.452049525985747158e-01
-6.681606572081825179e-01
-4.565501790797425741e-02
-2.083278699905563025e-01
1.104771480385153160e+00
1.423263570030133540e-01
9.498453601531700596e-02
8.557042554696905334e-01
5.809551535636921921e-02
2.654735868280286640e-02
depth 4 CE 25
8.720459101401348834e-01
-9.787927812292618324e-02
-2.421042949619340023e-01
2.756843574747701586e-01
-1.368961985293749850e-01
3.334821454020927001e-01
-7.501578078724102649e-01
1.025152695215697296e+00
9.574584536200856366e-01
9.131302850499051216e-01
1.669533292197227792e-01
-1.157140682519999450e-02
9.833730252409611516e-01
4.064536334057207156e-01
3.762549589438993897e-02
7.437894162439740997e-01
-4.397823353185520978e-01
9.390158422779195657e-01
8.850469777279351691e-01
-3.647757385279264825e-02
8.334419366493407699e-02
8.977579018517108933e-01
-8.899556934471298808e-01
-3.348877052909228491e-02
-7.053180140732604464e-01
-9.017527778683429029e-02
-5.368844363001958886e-01
8.952581226146844040e-01
-4.367303915770272271e-02
-7.781454654658728765e-02
7.531246424282638241e-01
1.368574158494852144e-01
-4.879734505045951187e-01
8.819580678722440670e-01
-3.257316807697806238e-02
5.607371836247630748e-02
depth 5 CE 25
-6.060886321095112494e-01
8.112107224079534440e-02
2.782960273009994767e-02
1.285486788935856328e+00
2.708918874840559043e-01
-4.309974922541215947e-01
-5.364888842708535055e-01
-9.804232867454348854e-02
-6.361291575824855604e-01
-4.814322751652704846e-01
-2.657962446580929179e-03
6.466776145334544867e-02
-6.730926966143587764e-01
1.086840630694215770e-01
3.540551301881831869e-01
2.118679990651586506e-02
2.128068879533832336e-01
1.456557212931171852e-01
-4.479963483924230272e-01
-2.530055129087367405e-01
-3.508698678741398874e-02
9.708055249355482808e-01
1.527206333480049805e-01
1.473864776421169587e-01
-4.795471400520527894e-01
3.083088830634129751e-01
3.166687286818403169e-01
-4.649138535103178316e-01
-4.404119584915348606e-01
-4.342960173209663988e-01
-7.673045345986758692e-01
-5.210634873324357930e-01
-4.180173404369668666e-01
2.625089601036830200e-01
3.402713174698533960e-01
3.662109770895243255e-01
-1.047453610100209875e+00
1.002260325939129289e-02
-6.443705223594593523e-01
1.301764740217467686e+00
-8.319368413666552442e-01
-5.373597977102783085e-01
4.856872712346386733e-01
7.029481348285665510e-02
1.582063798331987403e-01
depth 6 CE 25
-9.187108153392047338e-01
7.229561001759718941e-01
6.072240247118333434e-01
-6.091586015713059549e-02
7.094863789843148805e-01
8.057884111014724793e-01
3.869681222582576630e-01
-2.846726480932113001e-01
-3.427693224181401210e-01
7.388117736530659396e-01
-4.542144123002564982e-01
-2.992885676934446404e-01
-9.804642890532582200e-01
-3.511288869915076272e-01
-4.098328544531798512e-01
-8.456435358517949696e-01
-2.447993998717333964e-03
-5.087461535633767962e-02
4.722895893143638779e-01
4.319342535121839521e-01
2.864011298432476149e-01
7.456721475222727324e-02
-8.755454671732382232e-02
4.325457206644234970e-02
-4.553986444528231037e-02
4.324286670940045985e-02
-9.618368727086960487e-03
-9.671117505408133308e-01
-7.667969409148264193e-01
-5.486212668748507992e-01
-1.116128408305937958e+00
-2.295002067723320160e-01
-2.227469882385970934e-01
-7.577599615084191775e-01
3.491138231937704339e-02
5.655085690137833659e-02
-1.112870996896427392e-02
3.002271714989122597e-01
-2.694491769946992521e-02
-1.328482495106758865e+00
-2.305217050265234158e-01
-1.222359631054445867e-01
-6.734789015888789088e-01
2.618202111200615065e-02
6.868860886854655234e-02
-1.390477169295321946e+00
1.122223761663347641e-02
1.914756867439272037e-01
-1.087567769846421672e+00
7.614083316817568114e-01
1.496743315958496412e-01
-4.568192766959517925e-01
7.930277096868679210e-02
-3.816539235565316254e-03
depth 1 CE 35
-1.618681892789971988e+00
4.816789925085546153e-02
6.943702244077347707e-01
-1.595801635781778138e+00
-1.113474198821095662e+00
-4.692753229299502227e-01
-8.711570738866084573e-01
-8.967457216574432621e-01
-1.871745809425203258e-03
depth 2 CE 35
9.324756767082442721e-01
1.008143681162890326e+00
-1.215431564968348921e-01
1.554858944675180599e+00
-6.712697016012637574e-01
5.708282768327802570e-01
4.955562087489147061e-01
-7.033067134330648340e-01
-7.302097618503867738e-01
1.275790936456221214e+00
4.314628652732360042e-02
2.875955982166712999e-01
-1.557143182495425604e+00
-6.181319703968096713e-01
4.859864198163840743e-01
1.048644613430772532e+00
9.334602314491603492e-01
4.391038524078855199e-01
depth 3 CE 35
4.527349431138256719e-01
2.619530672655447923e-01
7.920349135200285273e-01
3.859280834364030577e-01
-7.039022302935740716e-02
1.197724022622272066e+00
-2.470985285697249179e-01
-6.851745319766669451e-02
3.952050467075183399e-02
6.136453600091713589e-01
-2.079533366679468254e-01
-5.178368059023807923e-02
-1.477672329070959023e+00
1.147426294603746538e-01
-9.135863846866014437e-02
-3.872100582391684309e-01
4.667442553402356697e-02
-1.274519112682883371e-01
9.196345339048765943e-01
1.866984744658540737e-02
6.321620167243033328e-02
-1.467837458210129231e+00
-6.084300034122346323e-01
5.013809962907042062e-01
-7.980434361639845431e-01
-7.146071456497499891e-03
9.315354855769931997e-02
depth 4 CE 35
9.207214559788675645e-01
-9.817669840994648345e-01
-3.683951620724493781e-01
1.388905085308742848e-01
1.986114797738659232e-01
2.813578099672183613e-02
5.850822435760263396e-01
-7.337271076795758365e-03
3.279539235799664443e-01
7.418863370615814690e-01
7.766278710067893165e-01
6.574732571131536307e-01
-1.444889543451271186e+00
9.884366590059849578e-02
-5.197816613911152017e-03
-8.090777365719106218e-01
-7.637400942027770812e-02
-1.392180591431652625e-01
6.204386738378926403e-01
3.352237688615137823e-01
1.871710869776339325e-01
-6.882527011888395219e-02
1.058574555413079321e-01
2.510093360344776703e-01
7.649604542434061960e-01
9.663560313048276396e-02
3.962109312238252384e-02
3.923102244262993699e-01
-2.784909441611031766e-02
5.119962701062087396e-01
-1.365546913508701499e+00
-1.292465859634761793e+00
-6.077732932361317175e-01
-7.036114460257455461e-01
1.948558898088412483e-01
1.148477174431480202e-01
depth 5 CE 35
-3.123803587957595385e-01
-2.063898127902121793e-01
-2.714219954033306736e-01
1.189250981277718333e+00
3.862401834499495368e-01
-6.552408550732552461e-01
5.345304311054476232e-01
-1.724425128016900122e-01
-2.903369438170539385e-01
-1.335398769898495652e-01
-4.948122957477730788e-01
-3.812793713247902283e-01
-1.156925730545186048e-01
-3.904101535996251093e-01
1.611409317295330601e-01
4.926505596922750030e-01
7.094134527213108443e-02
1.988119880145702498e-02
-3.617245333473038671e-01
-3.972584828278896696e-01
-7.558710070034034834e-01
6.158193963312039720e-01
4.101293420843830084e-01
-1.383795069002748679e-01
2.806336141224817227e-01
-1.823618174882122613e-03
6.495932939340801071e-02
1.236372820471381140e-01
6.272406892439655879e-01
2.981715820770157177e-01
2.583513095241570245e-01
-6.141509710814117007e-01
-7.670379530405613266e-02
2.646488821397818270e-01
-2.556547496860027691e-01
-5.715445009686015432e-02
-1.166601749689091916e+00
4.518174640935507247e-02
7.295709975856546903e-01
1.224876922707548887e+00
5.869441350137893920e-01
-1.931697932725697231e-01
1.100506138008361112e-01
-4.167065019209173493e-01
-4.066396149686162254e-01
depth 6 CE 35
-3.582729963751869473e-01
1.782263455946393460e-01
-3.090981605976928816e-03
-9.693885051477334480e-01
-6.510123006060604400e-02
1.623936745768041201e-02
6.230352771056436589e-01
2.489837043506878678e-01
3.808116089577915364e-01
-8.278488671057938619e-01
3.933215657199249371e-01
7.147174145637669174e-01
1.253347538551928597e+00
-1.708415142898363909e-02
2.128800696461793582e-02
4.842837182560445486e-01
-8.729580342238864310e-02
1.980838543126149931e-01
-1.673627040543640698e-01
-1.666503460938797143e-01
-6.382081076729581581e-02
1.655395679469947312e-01
-1.754878687445732555e-01
-7.715913281756299480e-02
-4.988083938402040896e-03
-1.320146754960032087e-01
-4.714024251946554583e-02
-4.695618435979508898e-01
3.405119396920011643e-01
2.275116990150950411e-02
1.100214328286501342e+00
1.183521533440821255e-02
-2.125848440090919722e-01
7.820147827196437529e-01
-2.047440813878506072e-01
-8.779358496883346574e-02
-7.886792610622231914e-01
1.870560907034859166e-01
2.392937674917074153e-01
-1.824232105535266435e-01
3.108932215570392454e-01
3.812206886994465860e-01
1.931207335249614243e-01
-4.038684021215546704e-01
-2.540490000683000016e-01
-8.285458825116193138e-01
-1.000821706233347153e-02
3.022778948632537377e-02
8.005204434061015117e-01
-4.846359474586347527e-01
-1.650085267889408736e-01
4.061201291059292062e-01
-5.316052118128334891e-01
-3.768027695913299668e-01
