-9.187108153392047338e-01
7.229561001759718941e-01
6.072240247118333434e-01
-6.091586015713059549e-02
7.094863789843148805e-01
8.057884111014724793e-01
3.869681222582576630e-01
-2.846726480932113001e-01
-3.427693224181401210e-01
7.388117736530659396e-01
-4.542144123002564982e-01
-2.992885676934446404e-01
-9.804642890532582200e-01
-3.511288869915076272e-01
-4.098328544531798512e-01
-8.456435358517949696e-01
-2.447993998717333964e-03
-5.087461535633767962e-02
4.722895893143638779e-01
4.319342535121839521e-01
2.864011298432476149e-01
7.456721475222727324e-02
-8.755454671732382232e-02
4.325457206644234970e-02
-4.553986444528231037e-02
4.324286670940045985e-02
-9.618368727086960487e-03
-9.671117505408133308e-01
-7.667969409148264193e-01
-5.486212668748507992e-01
-1.116128408305937958e+00
-2.295002067723320160e-01
-2.227469882385970934e-01
-7.577599615084191775e-01
3.491138231937704339e-02
5.655085690137833659e-02
-1.112870996896427392e-02
3.002271714989122597e-01
-2.694491769946992521e-02
-1.328482495106758865e+00
-2.305217050265234158e-01
-1.222359631054445867e-01
-6.734789015888789088e-01
2.618202111200615065e-02
6.868860886854655234e-02
-1.390477169295321946e+00
1.122223761663347641e-02
1.914756867439272037e-01
-1.087567769846421672e+00
7.614083316817568114e-01
1.496743315958496412e-01
-4.568192766959517925e-01
7.930277096868679210e-02
-3.816539235565316254e-03
