-6.597387193184031107e-01
-1.571751175224896657e-01
-8.778449743031138675e-02
-6.912470671468817773e-01
-4.425810662037288901e-01
-4.371841354036584137e-01
-6.899089808088640918e-01
4.985001940081041499e-02
2.171145560910953815e-02
-6.612698045249608692e-01
-4.247919989539107322e-01
-4.381610297776822316e-01
-7.732545690060751986e-02
-2.598200024317389237e-02
-1.530180582380846477e-01
-1.687527768239932557e-02
9.951726190125866067e-02
9.394387812629542700e-02
-3.409937921626087221e-01
-1.958294615677818318e-01
-2.695927684127488178e-01
-6.995431837563942379e-01
5.303817684358055340e-01
3.213120353401855422e-01
-1.887284085040247528e-01
-1.497299958765167804e-01
1.398377782170470360e-02
-2.096371785901618157e-01
-2.477400094749950821e-01
-1.766296647699938105e-01
-1.782962787609430888e-01
2.160759178261790481e-01
3.625114555004013694e-01
-3.749876449938909784e-01
-3.733414247127788133e-01
-2.982700611645691668e-01
1.335040193865390523e-01
-4.165860652121610719e-01
-3.844840654513877465e-01
-1.036995703725356321e+00
2.161338900182969425e-01
2.584146453220849127e-01
2.744210234121337022e-01
-4.290894441765324974e-01
-4.527992431256637196e-01
1.361067290192225221e-01
-3.105149884937599952e-03
-4.725762929151898772e-01
5.256824824100170268e-02
-4.453275600252006722e-02
1.140204384572417046e-01
-8.694123400607463650e-03
-4.989288166750299736e-01
-4.407638703569966565e-01
