-3.582729963751869473e-01
1.782263455946393460e-01
-3.090981605976928816e-03
-9.693885051477334480e-01
-6.510123006060604400e-02
1.623936745768041201e-02
6.230352771056436589e-01
2.489837043506878678e-01
3.808116089577915364e-01
-8.278488671057938619e-01
3.933215657199249371e-01
7.147174145637669174e-01
1.253347538551928597e+00
-1.708415142898363909e-02
2.128800696461793582e-02
4.842837182560445486e-01
-8.729580342238864310e-02
1.980838543126149931e-01
-1.673627040543640698e-01
-1.666503460938797143e-01
-6.382081076729581581e-02
1.655395679469947312e-01
-1.754878687445732555e-01
-7.715913281756299480e-02
-4.988083938402040896e-03
-1.320146754960032087e-01
-4.714024251946554583e-02
-4.695618435979508898e-01
3.405119396920011643e-01
2.275116990150950411e-02
1.100214328286501342e+00
1.183521533440821255e-02
-2.125848440090919722e-01
7.820147827196437529e-01
-2.047440813878506072e-01
-8.779358496883346574e-02
-7.886792610622231914e-01
1.870560907034859166e-01
2.392937674917074153e-01
-1.824232105535266435e-01
3.108932215570392454e-01
3.812206886994465860e-01
1.931207335249614243e-01
-4.038684021215546704e-01
-2.540490000683000016e-01
-8.285458825116193138e-01
-1.000821706233347153e-02
3.022778948632537377e-02
8.005204434061015117e-01
-4.846359474586347527e-01
-1.650085267889408736e-01
4.061201291059292062e-01
-5.316052118128334891e-01
-3.768027695913299668e-01
