2.972252157776102410e-01
1.628122313596686577e-01
1.928779910646711560e-01
6.319981496240525409e-01
-2.163093468252453300e-01
-9.367498197988806397e-02
5.141031640101558775e-01
3.339020805845264728e-01
5.215683823024716004e-01
-8.211102488748458494e-01
4.017990204245284191e-01
2.987167297872700966e-01
-3.047459574812278471e-01
-4.990123556515061419e-03
-2.075596961283096564e-01
-3.292747668278621087e-01
4.379395558816274181e-01
2.733692182219683020e-01
-5.284738637350163692e-01
2.127893372371011116e-01
2.788003157036804680e-01
-9.621034796937727451e-02
2.317084941724475988e-01
2.156676441316141279e-01
4.239588408738467762e-01
3.078784626280481329e-01
4.376329785971264652e-01
-6.093086664640666728e-01
1.128962110639532973e-01
2.139381697235558655e-01
-1.793830899204037488e-01
-4.083850476255482809e-01
-1.511421536353460549e-01
-1.339787891284284216e+00
4.249309443374570949e-01
2.966409500422262369e-01
-7.894266185378435718e-01
-3.105975875227898891e-02
1.040190841997045701e-01
2.698408701039233804e-01
1.348851995684134053e+00
5.073400599907472719e-01
5.733211439960993472e-01
4.738085552811356904e-01
5.562541331905147546e-01
