-6.180167231545826700e-01
-3.333448811258768463e-01
-4.454925648099214430e-01
7.966250130849522604e-01
-5.585650522535809959e-01
-7.337050635189265035e-01
7.989373893996311038e-01
-2.786381791088998194e-01
-7.688554737793371618e-01
-7.161308536173773831e-01
-8.161150004831795313e-01
-1.020568084926254171e+00
-6.957504061679735674e-01
-1.667051280229282784e-02
-3.477914283782281846e-01
6.633713247417947212e-01
-3.328237581295581064e-03
2.940629113044398446e-01
-7.653747261567599436e-01
2.174688441426963353e-02
-2.759037369127512185e-01
-5.206648876432359296e-01
1.992218366175522448e-01
4.069684437858093196e-01
-6.122545709936366709e-01
2.971553532559225719e-01
3.151567270395800313e-01
-8.826419811890134914e-02
3.122322731398248230e-01
-7.786142607742514710e-02
-2.183681193808572826e-02
7.758465119419988287e-01
6.571001998969182578e-01
7.133222448986303865e-02
9.187235413788594762e-01
9.009394422830099280e-01
4.285164377309743089e-01
1.793733594185338287e-01
1.784871499916994009e-01
-2.609839955113472110e-01
-3.275568457541506162e-01
-2.231891825502922699e-01
1.499266552220642479e-01
1.944587584480891584e-01
2.639571075840886349e-01
-4.758396412302184908e-01
-6.212997924992093024e-01
-4.990027893112304880e-01
-5.755630220149555720e-01
-1.931261531324836855e-01
-1.879027257559050812e-01
7.854253061365124022e-01
-2.829528176598144484e-01
1.394590155370238338e-01
8.395463050728347865e-01
-5.725730979042640278e-01
-5.595536702626421888e-02
-6.452169849236917276e-01
1.871270830752707615e-01
5.320448913339206332e-01
-6.726502512212284568e-01
2.586181352480416695e-01
2.246212348326383224e-01
6.043577978033608522e-01
-1.621658353547793252e-01
-2.493776842514895953e-01
-7.610784630336467904e-01
5.287946585026476187e-01
3.517023047704219141e-01
-6.900803409414313361e-01
-1.305007877571652541e-01
-4.326740107790240097e-01
-4.239029451512555391e-01
4.481009516454928510e-02
1.315950647461435960e-02
3.412366421388127874e-02
2.803221049458367031e-01
-3.196536512039650085e-02
-1.223405603988688816e-03
-1.861190727990334748e-01
-2.232979313062802562e-01
1.843394758918576737e-01
3.583448756885129205e-01
2.818606478689220096e-01
2.766663165548480796e-01
2.037468159322898542e-01
1.117271262082039501e-01
-1.375405995114898361e-01
-2.695979939804955539e-01
-1.139960539562283465e-01
-4.174177706293222961e-02
1.728059257059527398e-01
3.168806441148769859e-01
-5.932267584224631962e-01
-2.771991022390195014e-01
-2.688180773876530649e-01
-5.302889491247941844e-01
9.288773658851808349e-03
2.008913163026738134e-03
8.275390218931680808e-01
-3.422989509710374634e-01
1.506629728711188221e-01
7.030072959573286928e-01
-8.101232656200310078e-01
-5.735248298920532228e-01
-6.146333159078668507e-01
3.568456978071222752e-01
3.281821970346070483e-01
-7.214449651031400457e-01
8.830102736870283353e-01
4.404617878392814712e-01
5.775214604668086338e-01
-2.703538147075609799e-01
-3.384319920293868411e-01
-7.190191007043799098e-01
3.940029776395586603e-01
3.045566087507182162e-01
-6.093616586734510454e-01
2.583656074978277553e-02
-1.743959392752194859e-01
