-5.710521305117863822e-01
6.045044971209557749e-01
9.601626451261615625e-01
-6.557757484302576545e-01
5.226904801550258384e-01
8.540663245741985099e-01
7.884376830439661088e-01
-4.995267629032134615e-01
-9.037505110178691847e-01
7.813220260325125510e-01
-4.983927717478908170e-01
-9.138411398717146694e-01
-7.916621723902309560e-01
-7.626878613631131454e-02
-5.411187373143170332e-01
6.054127250701106799e-01
-3.814523108258864315e-01
-4.748216669834264825e-01
-7.534565605512845154e-01
4.698935906888829228e-01
7.291132208939539172e-01
6.159195827304615456e-01
7.368204492498479086e-01
8.417881030649266849e-01
-3.242233710797354229e-01
-7.535404630802227111e-01
-8.172831689187530779e-01
3.024146090881399962e-01
-3.556630923619424345e-01
-1.012888865324985538e-01
-2.825733986582761870e-01
2.041680534342050490e-01
3.714346592615631604e-01
4.845292838448198719e-02
4.981112800248057582e-01
2.945847363439756950e-01
1.382828875523901303e-02
-1.256614030326176357e-01
2.500054981859485270e-01
-3.168287097678914102e-03
-6.871257680203901597e-02
-2.711259082162597589e-01
2.037221686803768889e-02
3.814680299793291735e-02
5.960488987820872220e-02
6.349314132944009481e-01
-3.283880785511002487e-01
-1.974739071108903288e-01
-2.441392247860422471e-01
1.043924075875557911e+00
8.374597916166776068e-01
-7.940143002790669424e-01
3.967139003920477913e-01
4.554635187756067571e-02
8.557297655218727428e-01
-1.467823754573978345e-01
-3.001666663836784488e-01
7.393131014610540008e-01
-5.934174925001620693e-01
-6.804468553451935298e-02
-8.588154823974336605e-01
5.367947767111475033e-02
-3.360296381033577862e-01
7.891987896179913919e-01
-7.244564011830398331e-02
-1.296023977938278726e-01
-7.985723776629841675e-01
1.502596310458779449e-01
2.477894450645383717e-01
5.023147137062666800e-01
9.788522194595034032e-02
-1.596240560603026104e-01
1.491737343165212837e-02
6.213078070217106230e-01
8.295338523182582691e-01
5.673998762800358531e-01
1.639646013019312176e-01
2.581347793823759451e-01
-7.949226475237557155e-02
2.178152414756551469e-01
3.144542467731272772e-01
2.935335292477352087e-02
-6.940367874439280771e-02
-2.306287131952002856e-01
3.513088974146440224e-02
6.016467880425926396e-01
5.909596479263909963e-01
3.012011984750664895e-03
1.706633874330717171e-01
1.174746732393133937e-03
1.128504872259763992e-03
-1.118642570046321782e-01
-8.784105640387415703e-02
3.269544765339562620e-01
1.635236695452934874e-01
2.138876055272310450e-01
7.223679919688240358e-02
3.249690179301603643e-02
8.037011346450623206e-01
-7.153307631749002971e-01
5.444524822448647966e-02
1.421982091282266714e-01
9.101302206535216710e-01
2.077319118080140636e-01
2.829312424951653249e-01
6.837873920045293152e-01
-4.292283774661460605e-01
-3.294400167345674091e-01
-8.907786395171325422e-01
-5.202715302708846856e-01
1.476472031307481947e-01
7.535884236000662817e-01
2.447512741758200439e-01
2.277336022754255507e-01
-8.645376893974836552e-01
2.337227846467771208e-01
9.704376957532365178e-02
6.320659749895808366e-01
-2.535029510774177916e-02
1.238001759150478415e-01
