-6.679063310739998816e-01
5.581207168812947206e-01
4.393541599092191663e-01
-7.118235091469472531e-01
3.086649888057989566e-01
3.652950001020194293e-01
6.723888944617227859e-01
-3.844501346118847640e-01
-5.370479007703372609e-01
4.258682212746393581e-01
-1.142458448464286347e-01
6.671026018602628505e-02
1.081847081685081591e+00
-2.390651259042552990e-01
7.313847392009904524e-01
-4.415650785814242418e-01
7.214332136499241876e-01
1.139770607189011686e+00
2.774890387804366809e-01
-9.728636575648436091e-01
-6.767855316887599892e-01
1.041916025028810991e-02
2.604060742753849245e-01
6.559752500702583644e-01
-5.990066022250685185e-01
3.485229383168553796e-01
4.719686219503888003e-01
2.873160369574733614e-02
9.629063953316494007e-02
2.578018985249669326e-01
2.482990616319424304e-01
-3.150226212670378945e-01
-2.735671355350113854e-01
-6.654639463647600561e-02
-3.409973263794718878e-01
-2.497332254125649298e-01
-4.557376542271897590e-01
-1.317950083975645004e-01
-3.518797175727764182e-01
6.833169740357893096e-02
4.043601262142893504e-01
4.011921922137146046e-01
5.544236701599050132e-01
-6.778092887527008559e-01
-9.300696250432138878e-01
1.225718336011918236e-01
-3.458186349177937435e-01
-2.499651151298733776e-01
-6.476282906557655483e-01
1.246760342971464236e-01
5.945688202313933329e-02
-6.710342668163302715e-01
-3.781089024185176339e-01
-3.289217210679738490e-01
3.617602510286704320e-01
-1.084733503173165303e-01
-2.026449791580548498e-01
-8.055517848416357540e-02
-4.779211450077881507e-01
-3.251266291117345109e-01
4.252107514601747851e-01
1.926348433896023782e-01
1.157342856728064556e-01
-3.565799229218344357e-01
2.985016873405929028e-01
2.681378816374838658e-01
-3.432976107603802340e-01
-4.986686979607889980e-01
-5.231646856128521206e-01
4.615686498918152858e-01
-4.247155399282210309e-01
-4.613322914358648497e-01
-6.666164753133421161e-01
4.803774601256820542e-01
4.465948321835416235e-01
-2.528402483194099326e-01
1.492027988105228652e-02
-8.056010435435546901e-02
9.330098279264943673e-02
-1.352157084719260161e-01
-1.391771858636499104e-01
2.351922156332788838e-01
-2.813314326404546817e-01
-4.723318100446876611e-01
-4.885793285229905192e-01
-3.800836603470402614e-02
-8.279059743719539843e-02
4.453343146474867537e-02
3.495366077850821651e-01
3.620185055263879237e-01
3.584107335417535678e-01
1.936937817858170596e-01
-3.718294443760992163e-01
1.189033228039971107e-01
8.190191974833231636e-02
9.619303123859349047e-03
-5.055360138985534046e-01
-1.086998952422829762e-01
4.878552810033858628e-02
-4.490242520003548954e-01
-4.202233635133332257e-01
-3.085262302234056953e-01
4.770538866406984907e-02
-2.142868088356096878e-01
-1.680442376624933509e-01
1.483844022510685812e-01
-3.342120302221481265e-01
-3.490766180098436311e-01
7.162810755044801692e-01
4.214270786052721207e-01
4.384812187924548854e-01
-1.347386962940656518e-01
6.853955589503625268e-01
4.574755282993079319e-01
-4.163498794763929034e-01
3.530729170293835373e-01
5.241469701743387555e-01
1.480592650243044706e-01
-2.709091965667937973e-01
-8.404996436572251262e-02
-4.354169984967650175e-01
-1.944367805178997405e-02
-8.540083087236947923e-02
-4.234072415007083534e-01
-3.391200542400125695e-01
-1.902119005671644991e-01
-9.967081088212532969e-02
3.700506436227886387e-02
-1.388075152501433984e-01
3.745562648375994619e-01
-7.590766878247028338e-01
-4.550957813818293229e-01
-4.389692419273145685e-01
1.542682298246815867e-02
4.600778395350334747e-03
4.698733773669795839e-03
4.245441031121048869e-01
6.211504287348164066e-01
4.536553532916945963e-01
-1.392351570415584217e+00
-2.215568372987953560e-01
3.250956665774715204e-01
-3.920432193625294354e-02
-2.403027173857127385e-01
