4.351476204634328604e-01
-3.349593785932480361e-01
-4.493779804790286048e-01
-3.796963718265835008e-01
8.309666581786549766e-03
6.878534750535188202e-02
1.332324336028520018e-01
-5.022374737886883267e-01
-9.294612130421786578e-01
-8.400172553190225766e-02
-2.828094811341190784e-01
-1.865365171934631749e-01
-4.982657224609661761e-01
1.258551089045310545e-01
2.766757082118331268e-01
-2.190560596091012391e-01
3.267432344028097235e-01
7.363478707962448633e-01
-1.065949381495983339e-01
3.158162585821266272e-02
3.555786113713122476e-01
-3.984082321712033581e-01
-6.811776030438633223e-01
-9.524566934952400921e-01
8.496607508282495724e-02
-7.243295946113299105e-03
-8.861937788201669497e-02
-2.806470320219665859e-02
-8.423447925339624942e-02
-7.603534429635726288e-02
5.344134489745348826e-02
2.287383087386380548e-02
-7.037492691385599519e-02
2.864423459757361456e-01
-3.119828575090306533e-01
-4.410337331218128210e-01
6.311323746235386611e-01
-6.846677756789795732e-02
1.360513324319758965e-01
1.568245140835773099e-01
1.944629144544767763e-01
1.220519037154934039e-01
2.129258520926196607e-01
-3.951477376974890654e-01
-4.476920479660993490e-01
-8.880868546023572563e-01
-4.159636381613753264e-01
-5.443362195000297499e-01
1.074830122683495537e-01
-2.382219039192770005e-01
-1.758418481861626637e-01
-2.899890110820928513e-01
-2.196646987924168459e-01
-1.044889254777118665e-01
2.216761066396043603e-02
1.220461701740254978e-01
7.320911718097078413e-02
-3.629486013789549881e-02
-8.165317528540060737e-03
-5.674848537492051259e-02
-1.693213466814482149e-01
-2.372950306193142289e-01
-2.483555967516393181e-01
-1.022443269595052912e-01
3.559942684495649989e-01
4.670864904521983552e-01
-2.131446699352802787e-01
-3.357473611108303425e-03
-1.031027173801246088e-01
-6.348947125741222219e-01
-2.460015806580642395e-01
-2.507556768377658951e-01
5.535707629691011961e-02
-2.451365857303911266e-01
-2.156797973851943551e-01
4.560630800634413867e-02
-1.935167422361388501e-01
-1.604363373277027105e-01
-3.338427265799894239e-01
1.988257866511409788e-01
1.810545143519685651e-01
1.208828205081587059e+00
5.831746735098577300e-02
1.452065472676948299e-01
2.840673145281790157e-01
-2.406680225168935927e-01
-2.170697523652382332e-01
4.106629941757381497e-01
-3.488090701442648767e-01
-5.537760532241607914e-01
-1.962221005504274363e-01
1.065477062219183368e-01
6.254093070473709659e-02
1.091477905317957964e-01
-8.526802512451173155e-02
-6.871899056476309109e-02
1.041580771080948854e-02
1.259861750683130555e-02
-2.366190333387805100e-01
-1.079190457344337967e-01
-8.364898995405238846e-01
-3.446386639429838139e-01
-1.793529779402733837e-01
5.835547114913506306e-01
2.734590750579026786e-01
-9.145947629775956489e-02
-4.355354059969821501e-01
-9.562017669697750466e-02
-2.153848740747501822e-01
-1.226980147536682608e+00
-6.851125176985183307e-01
4.950475883310653802e-02
6.571154233560962954e-01
2.671540257094113247e-01
-3.225310538801331450e-01
-1.521720145947156988e+00
-4.955919057127937677e-01
-1.446209370729948374e-01
3.535221473095543493e-02
-7.702628670367589470e-02
