2.337901002151359653e-01
1.503068186409657440e-02
2.113800362302354630e-01
-1.065316748577539371e-02
2.575696164825568291e-01
6.690327368989604784e-01
2.664285882493134805e-01
-3.387345532541549131e-01
-3.321029351797027962e-01
-3.143232234179380025e-02
-5.054921743987492722e-01
-8.195913581279692384e-01
-1.110093848774635489e-01
8.645414805314723117e-02
2.084467665433538952e-01
1.947250730820468678e-01
-7.008756187245793745e-01
-9.794918875364087008e-01
-2.388952520479636077e-01
2.609138531443748188e-01
6.671532425374723241e-01
6.164208547251126546e-01
6.036641638497588502e-01
9.336576776019631652e-01
2.932468472741412979e-01
-1.252591504030126091e-01
-1.789762158255990276e-01
5.420680992730069793e-03
8.828535544052619477e-02
4.603271358083371734e-02
-3.900393023445387630e-01
-3.357832356838038046e-01
-3.103877897612893344e-01
-4.708931156506530880e-02
-3.425896978960549788e-01
-3.900119882415127859e-01
2.459555941228213360e-01
-1.969170545535694483e-01
-2.549864947509446478e-01
-3.251745841433778539e-02
-1.357404562783999791e-01
-3.671309803604047017e-01
-6.823238517705210171e-02
-1.433636010345975265e-01
-2.394999044539957572e-02
3.518619681343369832e-02
7.172099073523321988e-02
-6.594318538114532502e-02
3.301828440082558713e-01
2.962302440893286870e-01
1.553417573505780080e-01
-8.711679967134197677e-02
4.015064511090125632e-01
2.370509622700837649e-01
9.973190817219790283e-02
-4.514679475778720086e-01
-4.038397172456824613e-01
-3.259624907745668765e-02
-2.590463576364017695e-01
-2.069109417533331330e-01
-1.011565185219000518e-01
-2.830616031670584176e-01
-1.940893853709769468e-01
1.966197662743628810e-02
-1.301082404401796011e-01
-9.699311733822287007e-02
-2.963462802711198663e-01
2.435761427499589724e-02
-1.600059179038451976e-02
-7.262965455464039100e-02
5.209959445508729470e-01
3.689364646136325532e-01
2.017512979450451771e-01
1.337677587564877202e-01
1.601201549775954913e-01
9.621378805523104908e-04
2.447621439363811546e-01
2.475025474659498792e-01
-5.865455840452971081e-02
-4.105345726817491436e-01
-4.653283136819200139e-01
-7.327160258068489418e-02
-2.268460522715770589e-01
-2.686958518245031735e-01
2.241201137893202855e-01
-3.394022674320845145e-01
-2.862451353843986634e-01
3.162884905926585666e-02
-1.108443900246857197e-02
-1.240065771591680882e-01
8.491670998503010603e-02
4.963324822883071613e-02
2.208124405750246447e-02
8.045429964582112570e-02
4.481861440655999784e-01
6.290285866006956050e-01
-9.084060683885648857e-02
1.759203933116745555e-01
2.009143499781785303e-01
-6.236933538707667424e-02
2.448669394290755308e-01
2.609240314704608932e-01
2.728901201287956546e-01
-6.493774744434049895e-01
-4.903392087803871702e-01
-4.099102249084853739e-02
-1.594075691204617784e-01
-1.480743318808693532e-01
-1.395849688015108059e-01
-2.984645867071534231e-01
-3.240357139626134364e-01
-1.901463953298222764e-02
-1.386874852897020116e-01
3.003666009873552298e-02
-4.804315558372165285e-01
2.349124558089517312e-01
7.065021667047163834e-02
-2.098087113342296528e-02
2.560311602724972824e-01
3.037485317720192701e-01
-5.937574615190615440e-02
2.058273986639549968e-02
2.049007410137747287e-01
1.502686649342107900e-03
7.269744910462234699e-01
3.814446661808517658e-01
-1.407048941682997704e-02
-8.153081208300856364e-01
-7.432366446021757556e-01
1.102030296248884128e-02
-2.469395158136469814e-01
-1.479669520295095186e-01
2.422381325147742459e-01
-3.547435516829617330e-01
-2.613643061325102157e-01
-3.303814258952771782e-02
-5.864691636466047298e-01
-2.936617990544336809e-01
1.450198715778690806e-01
1.115125846143975696e+00
7.068249881625452424e-01
-5.512485293924405255e-02
-3.305546614734083261e-02
2.745521701624695776e-01
