depth 6 CE 10
2.337901002151359653e-01
1.503068186409657440e-02
2.113800362302354630e-01
-1.065316748577539371e-02
2.575696164825568291e-01
6.690327368989604784e-01
2.664285882493134805e-01
-3.387345532541549131e-01
-3.321029351797027962e-01
-3.143232234179380025e-02
-5.054921743987492722e-01
-8.195913581279692384e-01
-1.110093848774635489e-01
8.645414805314723117e-02
2.084467665433538952e-01
1.947250730820468678e-01
-7.008756187245793745e-01
-9.794918875364087008e-01
-2.388952520479636077e-01
2.609138531443748188e-01
6.671532425374723241e-01
6.164208547251126546e-01
6.036641638497588502e-01
9.336576776019631652e-01
2.932468472741412979e-01
-1.252591504030126091e-01
-1.789762158255990276e-01
5.420680992730069793e-03
8.828535544052619477e-02
4.603271358083371734e-02
-3.900393023445387630e-01
-3.357832356838038046e-01
-3.103877897612893344e-01
-4.708931156506530880e-02
-3.425896978960549788e-01
-3.900119882415127859e-01
2.459555941228213360e-01
-1.969170545535694483e-01
-2.549864947509446478e-01
-3.251745841433778539e-02
-1.357404562783999791e-01
-3.671309803604047017e-01
-6.823238517705210171e-02
-1.433636010345975265e-01
-2.394999044539957572e-02
3.518619681343369832e-02
7.172099073523321988e-02
-6.594318538114532502e-02
3.301828440082558713e-01
2.962302440893286870e-01
1.553417573505780080e-01
-8.711679967134197677e-02
4.015064511090125632e-01
2.370509622700837649e-01
9.973190817219790283e-02
-4.514679475778720086e-01
-4.038397172456824613e-01
-3.259624907745668765e-02
-2.590463576364017695e-01
-2.069109417533331330e-01
-1.011565185219000518e-01
-2.830616031670584176e-01
-1.940893853709769468e-01
1.966197662743628810e-02
-1.301082404401796011e-01
-9.699311733822287007e-02
-2.963462802711198663e-01
2.435761427499589724e-02
-1.600059179038451976e-02
-7.262965455464039100e-02
5.209959445508729470e-01
3.689364646136325532e-01
2.017512979450451771e-01
1.337677587564877202e-01
1.601201549775954913e-01
9.621378805523104908e-04
2.447621439363811546e-01
2.475025474659498792e-01
-5.865455840452971081e-02
-4.105345726817491436e-01
-4.653283136819200139e-01
-7.327160258068489418e-02
-2.268460522715770589e-01
-2.686958518245031735e-01
2.241201137893202855e-01
-3.394022674320845145e-01
-2.862451353843986634e-01
3.162884905926585666e-02
-1.108443900246857197e-02
-1.240065771591680882e-01
8.491670998503010603e-02
4.963324822883071613e-02
2.208124405750246447e-02
8.045429964582112570e-02
4.481861440655999784e-01
6.290285866006956050e-01
-9.084060683885648857e-02
1.759203933116745555e-01
2.009143499781785303e-01
-6.236933538707667424e-02
2.448669394290755308e-01
2.609240314704608932e-01
2.728901201287956546e-01
-6.493774744434049895e-01
-4.903392087803871702e-01
-4.099102249084853739e-02
-1.594075691204617784e-01
-1.480743318808693532e-01
-1.395849688015108059e-01
-2.984645867071534231e-01
-3.240357139626134364e-01
-1.901463953298222764e-02
-1.386874852897020116e-01
3.003666009873552298e-02
-4.804315558372165285e-01
2.349124558089517312e-01
7.065021667047163834e-02
-2.098087113342296528e-02
2.560311602724972824e-01
3.037485317720192701e-01
-5.937574615190615440e-02
2.058273986639549968e-02
2.049007410137747287e-01
1.502686649342107900e-03
7.269744910462234699e-01
3.814446661808517658e-01
-1.407048941682997704e-02
-8.153081208300856364e-01
-7.432366446021757556e-01
1.102030296248884128e-02
-2.469395158136469814e-01
-1.479669520295095186e-01
2.422381325147742459e-01
-3.547435516829617330e-01
-2.613643061325102157e-01
-3.303814258952771782e-02
-5.864691636466047298e-01
-2.936617990544336809e-01
1.450198715778690806e-01
1.115125846143975696e+00
7.068249881625452424e-01
-5.512485293924405255e-02
-3.305546614734083261e-02
2.745521701624695776e-01
depth 6 CE 15
2.956408336113415802e-01
2.559602162264416059e-01
5.285466663473863402e-01
-5.950654883182999733e-01
7.136777048413841529e-01
8.881778157066859691e-01
2.310760189094265282e-01
-5.363015315807219130e-01
-5.583691006468061158e-01
4.366756414542377618e-01
2.117205661036427322e-01
1.539553760850253250e-01
2.864152838402865275e-01
-1.697724547948546991e-01
-4.225181408530520599e-01
3.247816971836485211e-01
-3.756268919192382039e-01
-7.977218123913816239e-01
1.496638290377360347e-01
3.749023298413605709e-01
5.468267243148263734e-01
1.379144224475103986e-01
1.753705832438138545e-01
2.351321626722364111e-01
3.128339671496144225e-01
-6.145708044033987988e-02
-3.754267699729650631e-02
1.746386861770158130e-02
8.310712439743687951e-02
2.622672556719068959e-01
1.523885862261511494e-02
-2.098621533362467761e-01
-3.495783850066889742e-01
-2.325166522324039961e-02
1.129593088486053054e-01
1.782375318254642016e-01
1.665597727553026070e-02
1.248976793429412563e-01
9.508513342970704996e-02
-3.092537414751107133e-02
-1.303118099294151011e-01
-9.412095860917145396e-02
-6.331319737000519476e-02
1.879450380344684646e-01
2.045838236634055785e-01
1.025406959714886684e-01
1.652313157500984175e-02
3.650191997574240427e-02
2.282383169451546179e-01
-5.653296418667895507e-02
1.511623343103955276e-02
1.958599411132894846e-02
1.812496572704100917e-01
6.112228786674393094e-02
1.163998587261038109e-01
-2.114743850392998004e-01
-1.086030270354944871e-01
4.231088124652383486e-01
2.817029295030931690e-01
2.141598437825313894e-01
2.517816543743365276e-01
-9.093055068365590160e-03
2.682308296498168640e-02
3.426119932761058640e-01
-4.480091641095733102e-01
-3.210246069321951445e-01
1.128781167136928554e-01
2.865903773231277540e-01
2.329801209654057959e-01
1.225877306286957125e-01
6.535577617250722116e-02
8.077284851609059513e-02
2.307237660307344951e-01
-1.666057760424006703e-02
-5.788966266758538426e-02
-2.119494645294110746e-02
-1.570058972475140563e-02
1.059476890667871568e-01
-3.771300704628564177e-02
2.001632350253594317e-01
-3.459668545166825204e-01
7.484846579218878970e-02
2.374313073071562252e-01
2.204204892332321530e-01
4.819690794867930762e-03
-1.777144263446066574e-01
5.758857185265661011e-02
-2.794048598989859467e-02
-2.513973907976923550e-01
-3.733429046573090715e-01
-9.250227637620593232e-03
1.799557416084083539e-01
1.866672942477532182e-01
5.108077552124510451e-02
-8.719559113142580364e-03
3.025459823520433578e-02
1.842181396577532437e-01
2.005759011759340391e-02
-4.422920127373636268e-02
1.557964219526820036e-02
3.076692331980869222e-01
2.779846756078914113e-02
1.701611991532579193e-01
4.072047058631962368e-01
3.491082249429704465e-01
3.476635980246781665e-01
3.072306643867994680e-01
1.700573534476677584e-01
1.573749221930959286e-01
-1.252014781118797604e-01
-1.173243374455026494e-01
2.473526521799945810e-01
-2.311668201625155517e-01
-2.314408277912606282e-01
1.323620601254654749e-01
2.494143904263740330e-01
1.852416670085559325e-01
1.033146494384211272e-01
4.846968526404980132e-02
6.496790161706628153e-02
2.909862802659117231e-01
3.626802040806101357e-02
-4.588063676577981871e-03
-7.574402973728082411e-02
5.432680406128863604e-01
4.976841237347860991e-01
3.243201665913604537e-02
2.798764628348472394e-01
3.196391599288850860e-01
2.319737239979925009e-02
2.629644191800595276e-01
3.089150914869821518e-01
-1.349145032774589359e-01
-4.274375728639029925e-01
-2.320709614825409994e-01
-1.452564676129077317e-02
-2.066698494790973062e-01
-1.965902078433068301e-01
8.689261735931775796e-03
2.436043929818785259e-01
2.622614174187479774e-01
1.340684000615068594e-01
4.713600458226542556e-02
-8.827224989454218046e-03
depth 5 CE 15 with tangle
4.351476204634328604e-01
-3.349593785932480361e-01
-4.493779804790286048e-01
-3.796963718265835008e-01
8.309666581786549766e-03
6.878534750535188202e-02
1.332324336028520018e-01
-5.022374737886883267e-01
-9.294612130421786578e-01
-8.400172553190225766e-02
-2.828094811341190784e-01
-1.865365171934631749e-01
-4.982657224609661761e-01
1.258551089045310545e-01
2.766757082118331268e-01
-2.190560596091012391e-01
3.267432344028097235e-01
7.363478707962448633e-01
-1.065949381495983339e-01
3.158162585821266272e-02
3.555786113713122476e-01
-3.984082321712033581e-01
-6.811776030438633223e-01
-9.524566934952400921e-01
8.496607508282495724e-02
-7.243295946113299105e-03
-8.861937788201669497e-02
-2.806470320219665859e-02
-8.423447925339624942e-02
-7.603534429635726288e-02
5.344134489745348826e-02
2.287383087386380548e-02
-7.037492691385599519e-02
2.864423459757361456e-01
-3.119828575090306533e-01
-4.410337331218128210e-01
6.311323746235386611e-01
-6.846677756789795732e-02
1.360513324319758965e-01
1.568245140835773099e-01
1.944629144544767763e-01
1.220519037154934039e-01
2.129258520926196607e-01
-3.951477376974890654e-01
-4.476920479660993490e-01
-8.880868546023572563e-01
-4.159636381613753264e-01
-5.443362195000297499e-01
1.074830122683495537e-01
-2.382219039192770005e-01
-1.758418481861626637e-01
-2.899890110820928513e-01
-2.196646987924168459e-01
-1.044889254777118665e-01
2.216761066396043603e-02
1.220461701740254978e-01
7.320911718097078413e-02
-3.629486013789549881e-02
-8.165317528540060737e-03
-5.674848537492051259e-02
-1.693213466814482149e-01
-2.372950306193142289e-01
-2.483555967516393181e-01
-1.022443269595052912e-01
3.559942684495649989e-01
4.670864904521983552e-01
-2.131446699352802787e-01
-3.357473611108303425e-03
-1.031027173801246088e-01
-6.348947125741222219e-01
-2.460015806580642395e-01
-2.507556768377658951e-01
5.535707629691011961e-02
-2.451365857303911266e-01
-2.156797973851943551e-01
4.560630800634413867e-02
-1.935167422361388501e-01
-1.604363373277027105e-01
-3.338427265799894239e-01
1.988257866511409788e-01
1.810545143519685651e-01
1.208828205081587059e+00
5.831746735098577300e-02
1.452065472676948299e-01
2.840673145281790157e-01
-2.406680225168935927e-01
-2.170697523652382332e-01
4.106629941757381497e-01
-3.488090701442648767e-01
-5.537760532241607914e-01
-1.962221005504274363e-01
1.065477062219183368e-01
6.254093070473709659e-02
1.091477905317957964e-01
-8.526802512451173155e-02
-6.871899056476309109e-02
1.041580771080948854e-02
1.259861750683130555e-02
-2.366190333387805100e-01
-1.079190457344337967e-01
-8.364898995405238846e-01
-3.446386639429838139e-01
-1.793529779402733837e-01
5.835547114913506306e-01
2.734590750579026786e-01
-9.145947629775956489e-02
-4.355354059969821501e-01
-9.562017669697750466e-02
-2.153848740747501822e-01
-1.226980147536682608e+00
-6.851125176985183307e-01
4.950475883310653802e-02
6.571154233560962954e-01
2.671540257094113247e-01
-3.225310538801331450e-01
-1.521720145947156988e+00
-4.955919057127937677e-01
-1.446209370729948374e-01
3.535221473095543493e-02
-7.702628670367589470e-02
depth 6 CE 25
-6.679063310739998816e-01
5.581207168812947206e-01
4.393541599092191663e-01
-7.118235091469472531e-01
3.086649888057989566e-01
3.652950001020194293e-01
6.723888944617227859e-01
-3.844501346118847640e-01
-5.370479007703372609e-01
4.258682212746393581e-01
-1.142458448464286347e-01
6.671026018602628505e-02
1.081847081685081591e+00
-2.390651259042552990e-01
7.313847392009904524e-01
-4.415650785814242418e-01
7.214332136499241876e-01
1.139770607189011686e+00
2.774890387804366809e-01
-9.728636575648436091e-01
-6.767855316887599892e-01
1.041916025028810991e-02
2.604060742753849245e-01
6.559752500702583644e-01
-5.990066022250685185e-01
3.485229383168553796e-01
4.719686219503888003e-01
2.873160369574733614e-02
9.629063953316494007e-02
2.578018985249669326e-01
2.482990616319424304e-01
-3.150226212670378945e-01
-2.735671355350113854e-01
-6.654639463647600561e-02
-3.409973263794718878e-01
-2.497332254125649298e-01
-4.557376542271897590e-01
-1.317950083975645004e-01
-3.518797175727764182e-01
6.833169740357893096e-02
4.043601262142893504e-01
4.011921922137146046e-01
5.544236701599050132e-01
-6.778092887527008559e-01
-9.300696250432138878e-01
1.225718336011918236e-01
-3.458186349177937435e-01
-2.499651151298733776e-01
-6.476282906557655483e-01
1.246760342971464236e-01
5.945688202313933329e-02
-6.710342668163302715e-01
-3.781089024185176339e-01
-3.289217210679738490e-01
3.617602510286704320e-01
-1.084733503173165303e-01
-2.026449791580548498e-01
-8.055517848416357540e-02
-4.779211450077881507e-01
-3.251266291117345109e-01
4.252107514601747851e-01
1.926348433896023782e-01
1.157342856728064556e-01
-3.565799229218344357e-01
2.985016873405929028e-01
2.681378816374838658e-01
-3.432976107603802340e-01
-4.986686979607889980e-01
-5.231646856128521206e-01
4.615686498918152858e-01
-4.247155399282210309e-01
-4.613322914358648497e-01
-6.666164753133421161e-01
4.803774601256820542e-01
4.465948321835416235e-01
-2.528402483194099326e-01
1.492027988105228652e-02
-8.056010435435546901e-02
9.330098279264943673e-02
-1.352157084719260161e-01
-1.391771858636499104e-01
2.351922156332788838e-01
-2.813314326404546817e-01
-4.723318100446876611e-01
-4.885793285229905192e-01
-3.800836603470402614e-02
-8.279059743719539843e-02
4.453343146474867537e-02
3.495366077850821651e-01
3.620185055263879237e-01
3.584107335417535678e-01
1.936937817858170596e-01
-3.718294443760992163e-01
1.189033228039971107e-01
8.190191974833231636e-02
9.619303123859349047e-03
-5.055360138985534046e-01
-1.086998952422829762e-01
4.878552810033858628e-02
-4.490242520003548954e-01
-4.202233635133332257e-01
-3.085262302234056953e-01
4.770538866406984907e-02
-2.142868088356096878e-01
-1.680442376624933509e-01
1.483844022510685812e-01
-3.342120302221481265e-01
-3.490766180098436311e-01
7.162810755044801692e-01
4.214270786052721207e-01
4.384812187924548854e-01
-1.347386962940656518e-01
6.853955589503625268e-01
4.574755282993079319e-01
-4.163498794763929034e-01
3.530729170293835373e-01
5.241469701743387555e-01
1.480592650243044706e-01
-2.709091965667937973e-01
-8.404996436572251262e-02
-4.354169984967650175e-01
-1.944367805178997405e-02
-8.540083087236947923e-02
-4.234072415007083534e-01
-3.391200542400125695e-01
-1.902119005671644991e-01
-9.967081088212532969e-02
3.700506436227886387e-02
-1.388075152501433984e-01
3.745562648375994619e-01
-7.590766878247028338e-01
-4.550957813818293229e-01
-4.389692419273145685e-01
1.542682298246815867e-02
4.600778395350334747e-03
4.698733773669795839e-03
4.245441031121048869e-01
6.211504287348164066e-01
4.536553532916945963e-01
-1.392351570415584217e+00
-2.215568372987953560e-01
3.250956665774715204e-01
-3.920432193625294354e-02
-2.403027173857127385e-01
depth 5 CE 40
-6.180167231545826700e-01
-3.333448811258768463e-01
-4.454925648099214430e-01
7.966250130849522604e-01
-5.585650522535809959e-01
-7.337050635189265035e-01
7.989373893996311038e-01
-2.786381791088998194e-01
-7.688554737793371618e-01
-7.161308536173773831e-01
-8.161150004831795313e-01
-1.020568084926254171e+00
-6.957504061679735674e-01
-1.667051280229282784e-02
-3.477914283782281846e-01
6.633713247417947212e-01
-3.328237581295581064e-03
2.940629113044398446e-01
-7.653747261567599436e-01
2.174688441426963353e-02
-2.759037369127512185e-01
-5.206648876432359296e-01
1.992218366175522448e-01
4.069684437858093196e-01
-6.122545709936366709e-01
2.971553532559225719e-01
3.151567270395800313e-01
-8.826419811890134914e-02
3.122322731398248230e-01
-7.786142607742514710e-02
-2.183681193808572826e-02
7.758465119419988287e-01
6.571001998969182578e-01
7.133222448986303865e-02
9.187235413788594762e-01
9.009394422830099280e-01
4.285164377309743089e-01
1.793733594185338287e-01
1.784871499916994009e-01
-2.609839955113472110e-01
-3.275568457541506162e-01
-2.231891825502922699e-01
1.499266552220642479e-01
1.944587584480891584e-01
2.639571075840886349e-01
-4.758396412302184908e-01
-6.212997924992093024e-01
-4.990027893112304880e-01
-5.755630220149555720e-01
-1.931261531324836855e-01
-1.879027257559050812e-01
7.854253061365124022e-01
-2.829528176598144484e-01
1.394590155370238338e-01
8.395463050728347865e-01
-5.725730979042640278e-01
-5.595536702626421888e-02
-6.452169849236917276e-01
1.871270830752707615e-01
5.320448913339206332e-01
-6.726502512212284568e-01
2.586181352480416695e-01
2.246212348326383224e-01
6.043577978033608522e-01
-1.621658353547793252e-01
-2.493776842514895953e-01
-7.610784630336467904e-01
5.287946585026476187e-01
3.517023047704219141e-01
-6.900803409414313361e-01
-1.305007877571652541e-01
-4.326740107790240097e-01
-4.239029451512555391e-01
4.481009516454928510e-02
1.315950647461435960e-02
3.412366421388127874e-02
2.803221049458367031e-01
-3.196536512039650085e-02
-1.223405603988688816e-03
-1.861190727990334748e-01
-2.232979313062802562e-01
1.843394758918576737e-01
3.583448756885129205e-01
2.818606478689220096e-01
2.766663165548480796e-01
2.037468159322898542e-01
1.117271262082039501e-01
-1.375405995114898361e-01
-2.695979939804955539e-01
-1.139960539562283465e-01
-4.174177706293222961e-02
1.728059257059527398e-01
3.168806441148769859e-01
-5.932267584224631962e-01
-2.771991022390195014e-01
-2.688180773876530649e-01
-5.302889491247941844e-01
9.288773658851808349e-03
2.008913163026738134e-03
8.275390218931680808e-01
-3.422989509710374634e-01
1.506629728711188221e-01
7.030072959573286928e-01
-8.101232656200310078e-01
-5.735248298920532228e-01
-6.146333159078668507e-01
3.568456978071222752e-01
3.281821970346070483e-01
-7.214449651031400457e-01
8.830102736870283353e-01
4.404617878392814712e-01
5.775214604668086338e-01
-2.703538147075609799e-01
-3.384319920293868411e-01
-7.190191007043799098e-01
3.940029776395586603e-01
3.045566087507182162e-01
-6.093616586734510454e-01
2.583656074978277553e-02
-1.743959392752194859e-01
depth 5 CE 45
-5.710521305117863822e-01
6.045044971209557749e-01
9.601626451261615625e-01
-6.557757484302576545e-01
5.226904801550258384e-01
8.540663245741985099e-01
7.884376830439661088e-01
-4.995267629032134615e-01
-9.037505110178691847e-01
7.813220260325125510e-01
-4.983927717478908170e-01
-9.138411398717146694e-01
-7.916621723902309560e-01
-7.626878613631131454e-02
-5.411187373143170332e-01
6.054127250701106799e-01
-3.814523108258864315e-01
-4.748216669834264825e-01
-7.534565605512845154e-01
4.698935906888829228e-01
7.291132208939539172e-01
6.159195827304615456e-01
7.368204492498479086e-01
8.417881030649266849e-01
-3.242233710797354229e-01
-7.535404630802227111e-01
-8.172831689187530779e-01
3.024146090881399962e-01
-3.556630923619424345e-01
-1.012888865324985538e-01
-2.825733986582761870e-01
2.041680534342050490e-01
3.714346592615631604e-01
4.845292838448198719e-02
4.981112800248057582e-01
2.945847363439756950e-01
1.382828875523901303e-02
-1.256614030326176357e-01
2.500054981859485270e-01
-3.168287097678914102e-03
-6.871257680203901597e-02
-2.711259082162597589e-01
2.037221686803768889e-02
3.814680299793291735e-02
5.960488987820872220e-02
6.349314132944009481e-01
-3.283880785511002487e-01
-1.974739071108903288e-01
-2.441392247860422471e-01
1.043924075875557911e+00
8.374597916166776068e-01
-7.940143002790669424e-01
3.967139003920477913e-01
4.554635187756067571e-02
8.557297655218727428e-01
-1.467823754573978345e-01
-3.001666663836784488e-01
7.393131014610540008e-01
-5.934174925001620693e-01
-6.804468553451935298e-02
-8.588154823974336605e-01
5.367947767111475033e-02
-3.360296381033577862e-01
7.891987896179913919e-01
-7.244564011830398331e-02
-1.296023977938278726e-01
-7.985723776629841675e-01
1.502596310458779449e-01
2.477894450645383717e-01
5.023147137062666800e-01
9.788522194595034032e-02
-1.596240560603026104e-01
1.491737343165212837e-02
6.213078070217106230e-01
8.295338523182582691e-01
5.673998762800358531e-01
1.639646013019312176e-01
2.581347793823759451e-01
-7.949226475237557155e-02
2.178152414756551469e-01
3.144542467731272772e-01
2.935335292477352087e-02
-6.940367874439280771e-02
-2.306287131952002856e-01
3.513088974146440224e-02
6.016467880425926396e-01
5.909596479263909963e-01
3.012011984750664895e-03
1.706633874330717171e-01
1.174746732393133937e-03
1.128504872259763992e-03
-1.118642570046321782e-01
-8.784105640387415703e-02
3.269544765339562620e-01
1.635236695452934874e-01
2.138876055272310450e-01
7.223679919688240358e-02
3.249690179301603643e-02
8.037011346450623206e-01
-7.153307631749002971e-01
5.444524822448647966e-02
1.421982091282266714e-01
9.101302206535216710e-01
2.077319118080140636e-01
2.829312424951653249e-01
6.837873920045293152e-01
-4.292283774661460605e-01
-3.294400167345674091e-01
-8.907786395171325422e-01
-5.202715302708846856e-01
1.476472031307481947e-01
7.535884236000662817e-01
2.447512741758200439e-01
2.277336022754255507e-01
-8.645376893974836552e-01
2.337227846467771208e-01
9.704376957532365178e-02
6.320659749895808366e-01
-2.535029510774177916e-02
1.238001759150478415e-01
