2.956408336113415802e-01
2.559602162264416059e-01
5.285466663473863402e-01
-5.950654883182999733e-01
7.136777048413841529e-01
8.881778157066859691e-01
2.310760189094265282e-01
-5.363015315807219130e-01
-5.583691006468061158e-01
4.366756414542377618e-01
2.117205661036427322e-01
1.539553760850253250e-01
2.864152838402865275e-01
-1.697724547948546991e-01
-4.225181408530520599e-01
3.247816971836485211e-01
-3.756268919192382039e-01
-7.977218123913816239e-01
1.496638290377360347e-01
3.749023298413605709e-01
5.468267243148263734e-01
1.379144224475103986e-01
1.753705832438138545e-01
2.351321626722364111e-01
3.128339671496144225e-01
-6.145708044033987988e-02
-3.754267699729650631e-02
1.746386861770158130e-02
8.310712439743687951e-02
2.622672556719068959e-01
1.523885862261511494e-02
-2.098621533362467761e-01
-3.495783850066889742e-01
-2.325166522324039961e-02
1.129593088486053054e-01
1.782375318254642016e-01
1.665597727553026070e-02
1.248976793429412563e-01
9.508513342970704996e-02
-3.092537414751107133e-02
-1.303118099294151011e-01
-9.412095860917145396e-02
-6.331319737000519476e-02
1.879450380344684646e-01
2.045838236634055785e-01
1.025406959714886684e-01
1.652313157500984175e-02
3.650191997574240427e-02
2.282383169451546179e-01
-5.653296418667895507e-02
1.511623343103955276e-02
1.958599411132894846e-02
1.812496572704100917e-01
6.112228786674393094e-02
1.163998587261038109e-01
-2.114743850392998004e-01
-1.086030270354944871e-01
4.231088124652383486e-01
2.817029295030931690e-01
2.141598437825313894e-01
2.517816543743365276e-01
-9.093055068365590160e-03
2.682308296498168640e-02
3.426119932761058640e-01
-4.480091641095733102e-01
-3.210246069321951445e-01
1.128781167136928554e-01
2.865903773231277540e-01
2.329801209654057959e-01
1.225877306286957125e-01
6.535577617250722116e-02
8.077284851609059513e-02
2.307237660307344951e-01
-1.666057760424006703e-02
-5.788966266758538426e-02
-2.119494645294110746e-02
-1.570058972475140563e-02
1.059476890667871568e-01
-3.771300704628564177e-02
2.001632350253594317e-01
-3.459668545166825204e-01
7.484846579218878970e-02
2.374313073071562252e-01
2.204204892332321530e-01
4.819690794867930762e-03
-1.777144263446066574e-01
5.758857185265661011e-02
-2.794048598989859467e-02
-2.513973907976923550e-01
-3.733429046573090715e-01
-9.250227637620593232e-03
1.799557416084083539e-01
1.866672942477532182e-01
5.108077552124510451e-02
-8.719559113142580364e-03
3.025459823520433578e-02
1.842181396577532437e-01
2.005759011759340391e-02
-4.422920127373636268e-02
1.557964219526820036e-02
3.076692331980869222e-01
2.779846756078914113e-02
1.701611991532579193e-01
4.072047058631962368e-01
3.491082249429704465e-01
3.476635980246781665e-01
3.072306643867994680e-01
1.700573534476677584e-01
1.573749221930959286e-01
-1.252014781118797604e-01
-1.173243374455026494e-01
2.473526521799945810e-01
-2.311668201625155517e-01
-2.314408277912606282e-01
1.323620601254654749e-01
2.494143904263740330e-01
1.852416670085559325e-01
1.033146494384211272e-01
4.846968526404980132e-02
6.496790161706628153e-02
2.909862802659117231e-01
3.626802040806101357e-02
-4.588063676577981871e-03
-7.574402973728082411e-02
5.432680406128863604e-01
4.976841237347860991e-01
3.243201665913604537e-02
2.798764628348472394e-01
3.196391599288850860e-01
2.319737239979925009e-02
2.629644191800595276e-01
3.089150914869821518e-01
-1.349145032774589359e-01
-4.274375728639029925e-01
-2.320709614825409994e-01
-1.452564676129077317e-02
-2.066698494790973062e-01
-1.965902078433068301e-01
8.689261735931775796e-03
2.436043929818785259e-01
2.622614174187479774e-01
1.340684000615068594e-01
4.713600458226542556e-02
-8.827224989454218046e-03
